{"learner":{"attributes":{"scikit_learn":"{\"_estimator_type\": \"classifier\"}"},"feature_names":[],"feature_types":[],"gradient_booster":{"model":{"cats":{"enc":[],"feature_segments":[],"sorted_idx":[]},"gbtree_model_param":{"num_parallel_tree":"1","num_trees":"500"},"iteration_indptr":[0,5,10,15,20,25,30,35,40,45,50,55,60,65,70,75,80,85,90,95,100,105,110,115,120,125,130,135,140,145,150,155,160,165,170,175,180,185,190,195,200,205,210,215,220,225,230,235,240,245,250,255,260,265,270,275,280,285,290,295,300,305,310,315,320,325,330,335,340,345,350,355,360,365,370,375,380,385,390,395,400,405,410,415,420,425,430,435,440,445,450,455,460,465,470,475,480,485,490,495,500],"tree_info":[0,1,2,3,4,0,1,2,3,4,0,1,2,3,4,0,1,2,3,4,0,1,2,3,4,0,1,2,3,4,0,1,2,3,4,0,1,2,3,4,0,1,2,3,4,0,1,2,3,4,0,1,2,3,4,0,1,2,3,4,0,1,2,3,4,0,1,2,3,4,0,1,2,3,4,0,1,2,3,4,0,1,2,3,4,0,1,2,3,4,0,1,2,3,4,0,1,2,3,4,0,1,2,3,4,0,1,2,3,4,0,1,2,3,4,0,1,2,3,4,0,1,2,3,4,0,1,2,3,4,0,1,2,3,4,0,1,2,3,4,0,1,2,3,4,0,1,2,3,4,0,1,2,3,4,0,1,2,3,4,0,1,2,3,4,0,1,2,3,4,0,1,2,3,4,0,1,2,3,4,0,1,2,3,4,0,1,2,3,4,0,1,2,3,4,0,1,2,3,4,0,1,2,3,4,0,1,2,3,4,0,1,2,3,4,0,1,2,3,4,0,1,2,3,4,0,1,2,3,4,0,1,2,3,4,0,1,2,3,4,0,1,2,3,4,0,1,2,3,4,0,1,2,3,4,0,1,2,3,4,0,1,2,3,4,0,1,2,3,4,0,1,2,3,4,0,1,2,3,4,0,1,2,3,4,0,1,2,3,4,0,1,2,3,4,0,1,2,3,4,0,1,2,3,4,0,1,2,3,4,0,1,2,3,4,0,1,2,3,4,0,1,2,3,4,0,1,2,3,4,0,1,2,3,4,0,1,2,3,4,0,1,2,3,4,0,1,2,3,4,0,1,2,3,4,0,1,2,3,4,0,1,2,3,4,0,1,2,3,4,0,1,2,3,4,0,1,2,3,4,0,1,2,3,4,0,1,2,3,4,0,1,2,3,4,0,1,2,3,4,0,1,2,3,4,0,1,2,3,4,0,1,2,3,4,0,1,2,3,4,0,1,2,3,4,0,1,2,3,4,0,1,2,3,4,0,1,2,3,4,0,1,2,3,4,0,1,2,3,4,0,1,2,3,4,0,1,2,3,4,0,1,2,3,4,0,1,2,3,4,0,1,2,3,4,0,1,2,3,4,0,1,2,3,4,0,1,2,3,4,0,1,2,3,4,0,1,2,3,4],"trees":[{"base_weights":[-2.3107953E-7,-3.4337524E-1,2.0213956E-1,5.600984E-2,-4.294244E-1,1.0155423E0,-5.08874E-2,1.5776871E-1,-5.7692196E-2,-1.0184054E-2,1.41788E0,-1.7103013E-1,1.208298E-1,-4.200917E-2,8.130603E-2,5.3466182E-2,1.7521809E-1,6.134046E-1,-2.8987914E-1,1.4593393E-1,-3.7265282E-2,-5.067811E-1,7.524521E-2,1.1047803E-2,-5.707114E-2,-4.9958915E-2,6.358403E-2],"categories":[],"categories_nodes":[],"categories_segments":[],"categories_sizes":[],"default_left":[0,0,0,0,0,0,0,0,0,0,0,0,0,0,0,0,0,0,0,0,0,0,0,0,0,0,0],"id":0,"left_children":[1,3,5,-1,7,9,11,13,-1,-1,15,17,-1,-1,-1,-1,-1,19,21,-1,-1,23,25,-1,-1,-1,-1],"loss_changes":[3.8560102E0,1.8409078E0,7.24869E0,0E0,1.7679083E0,3.8958359E0,4.3856893E0,2.110804E0,0E0,0E0,8.9450455E-1,2.6105394E0,0E0,0E0,0E0,0E0,0E0,3.6753738E0,1.8865556E0,0E0,0E0,6.4594173E-1,3.4011621E0,0E0,0E0,0E0,0E0],"parents":[2147483647,0,0,1,1,2,2,4,4,5,5,6,6,7,7,10,10,11,11,17,17,18,18,21,21,22,22],"right_children":[2,4,6,-1,8,10,12,14,-1,-1,16,18,-1,-1,-1,-1,-1,20,22,-1,-1,24,26,-1,-1,-1,-1],"split_conditions":[1.3E1,1.2E0,1.7E1,5.600984E-2,1.77E2,1.7E2,1.000001E1,1.45E2,-5.7692196E-2,-1.0184054E-2,3.4E0,1.7E2,1.208298E-1,-4.200917E-2,8.130603E-2,5.3466182E-2,1.7521809E-1,2E0,3.35E2,1.4593393E-1,-3.7265282E-2,1.2E0,2.4E1,1.1047803E-2,-5.707114E-2,-4.9958915E-2,6.358403E-2],"split_indices":[6,3,6,0,2,2,3,2,0,0,3,2,0,0,0,0,0,7,2,0,0,1,6,0,0,0,0],"split_type":[0,0,0,0,0,0,0,0,0,0,0,0,0,0,0,0,0,0,0,0,0,0,0,0,0,0,0],"sum_hessian":[5.3554302E1,1.9585573E1,3.3968727E1,1.2240983E0,1.8361475E1,7.34459E0,2.6624138E1,3.672295E0,1.468918E1,2.142172E0,5.202418E0,2.5094015E1,1.5301229E0,2.142172E0,1.5301229E0,2.142172E0,3.0602458E0,2.7542212E0,2.2339794E1,1.2240983E0,1.5301229E0,1.3771106E1,8.568688E0,1.2240983E0,1.2547008E1,4.284344E0,4.284344E0],"tree_param":{"num_deleted":"0","num_feature":"16","num_nodes":"27","size_leaf_vector":"1"}},{"base_weights":[-9.824539E-7,7.914859E-1,-2.1417207E-1,2.6369852E-1,1.4149303E0,-4.0313986E-1,6.270271E-1,-4.0804356E-2,7.1545875E-1,2.0332387E-1,-2.9537333E-2,-5.5747177E-2,-1.0665984E-1,1.2604047E-1,1.2338756E-1,1.4290997E-1,-3.5402622E-2,4.6676302E-1,-5.0707698E-2,-4.417443E-2,1.1956914E-1,-4.0804356E-2,1.2604047E0,1.6927129E-1,2.0164823E-2],"categories":[],"categories_nodes":[],"categories_segments":[],"categories_sizes":[],"default_left":[0,0,0,0,0,0,0,0,0,0,0,0,0,0,1,0,0,0,0,0,0,0,0,0,0],"id":1,"left_children":[1,3,5,7,9,11,13,-1,15,-1,-1,-1,17,-1,19,-1,-1,21,-1,-1,-1,-1,23,-1,-1],"loss_changes":[7.844133E0,2.8695917E0,6.042003E0,2.284474E0,5.1361084E0,1.3291335E0,2.1003792E0,0E0,3.7793875E0,0E0,0E0,0E0,2.906076E0,0E0,3.5872064E0,0E0,0E0,4.1946507E0,0E0,0E0,0E0,0E0,1.0427661E0,0E0,0E0],"parents":[2147483647,0,0,1,1,2,2,3,3,4,4,5,5,6,6,8,8,12,12,14,14,17,17,22,22],"right_children":[2,4,6,8,10,12,14,-1,16,-1,-1,-1,18,-1,20,-1,-1,22,-1,-1,-1,-1,24,-1,-1],"split_conditions":[9E0,4E0,2.7E1,5E0,4E0,4E0,1.5E0,-4.0804356E-2,3E0,2.0332387E-1,-2.9537333E-2,-5.5747177E-2,4.1E0,1.2604047E-1,4.4E0,1.4290997E-1,-3.5402622E-2,2.8E0,-5.0707698E-2,-4.417443E-2,1.1956914E-1,-4.0804356E-2,4E0,1.6927129E-1,2.0164823E-2],"split_indices":[6,5,6,6,7,5,3,0,5,0,0,0,3,0,3,0,0,3,0,0,0,0,7,0,0],"split_type":[0,0,0,0,0,0,0,0,0,0,0,0,0,0,0,0,0,0,0,0,0,0,0,0,0],"sum_hessian":[4.4274353E1,8.854871E0,3.5419483E1,5.5659184E0,3.2889519E0,2.934757E1,6.071911E0,2.2769666E0,3.2889519E0,2.2769666E0,1.0119852E0,1.8721725E1,1.0625844E1,2.0239704E0,4.0479407E0,1.770974E0,1.5179777E0,4.300937E0,6.3249073E0,3.0359554E0,1.0119852E0,2.2769666E0,2.0239704E0,1.0119852E0,1.0119852E0],"tree_param":{"num_deleted":"0","num_feature":"16","num_nodes":"25","size_leaf_vector":"1"}},{"base_weights":[1.7724453E-7,-5.7271738E-2,1.18358545E-1,7.759081E-1,-3.8281348E-2,1.380541E-1,1.429801E0,3.3747077E-1,-2.035007E-1,-2.840014E-1,9.230761E-2,1.7200707E-1,1.8282441E-2,-1.7994332E-1,9.7113824E-1,-8.736375E-3,-4.3656918E-1,1.8282441E-2,-4.611782E-2,-5.2219845E-2,4.558856E-1,8.413401E-2,1.6555843E-1,-4.2098647E-1,2.979681E-1,-5.6614496E-2,-1.07397586E-1,1.182645E-1,-3.6237456E-2,-3.9633956E-2,6.827348E-2,1.8282441E-2,-5.3897828E-2,6.221662E-2,-4.611782E-2,6.827348E-2,-4.7558613E-2],"categories":[],"categories_nodes":[],"categories_segments":[],"categories_sizes":[],"default_left":[0,0,1,0,0,0,0,0,0,0,0,0,0,0,0,0,0,0,0,0,0,0,0,0,0,0,0,0,0,0,0,0,0,0,0,0,0],"id":2,"left_children":[1,-1,3,5,7,9,11,13,15,17,-1,-1,-1,19,21,23,25,-1,-1,-1,27,29,-1,31,33,-1,35,-1,-1,-1,-1,-1,-1,-1,-1,-1,-1],"loss_changes":[4.09117E0,0E0,5.1814394E0,3.8357592E0,2.6356106E0,2.2506866E0,1.3751488E0,4.4384527E0,1.3281881E0,4.704068E-1,0E0,0E0,0E0,1.979535E0,3.5044365E0,2.2756286E0,5.080881E-1,0E0,0E0,0E0,2.4113195E0,1.3254466E0,0E0,6.449187E-1,2.8309298E0,0E0,1.779705E0,0E0,0E0,0E0,0E0,0E0,0E0,0E0,0E0,0E0,0E0],"parents":[2147483647,0,0,2,2,3,3,4,4,5,5,6,6,7,7,8,8,9,9,13,13,14,14,15,15,16,16,20,20,21,21,23,23,24,24,26,26],"right_children":[2,-1,4,6,8,10,12,14,16,18,-1,-1,-1,20,22,24,26,-1,-1,-1,28,30,-1,32,34,-1,36,-1,-1,-1,-1,-1,-1,-1,-1,-1,-1],"split_conditions":[1.6E0,-5.7271738E-2,1.4E0,4E0,6.5E1,1E0,7.8E1,3.6E0,3.32E2,2E0,9.230761E-2,1.7200707E-1,1.8282441E-2,4E0,3.8E0,2E0,4.44E2,1.8282441E-2,-4.611782E-2,-5.2219845E-2,1.5E1,1E0,1.6555843E-1,1E1,1E0,-5.6614496E-2,4.56E2,1.182645E-1,-3.6237456E-2,-3.9633956E-2,6.827348E-2,1.8282441E-2,-5.3897828E-2,6.221662E-2,-4.611782E-2,6.827348E-2,-4.7558613E-2],"split_indices":[1,0,3,5,0,11,0,3,2,7,0,0,0,7,1,7,2,0,0,0,6,11,0,6,8,0,2,0,0,0,0,0,0,0,0,0,0],"split_type":[0,0,0,0,0,0,0,0,0,0,0,0,0,0,0,0,0,0,0,0,0,0,0,0,0,0,0,0,0,0,0,0,0,0,0,0,0],"sum_hessian":[5.835427E1,9.336683E0,4.9017586E1,8.669777E0,4.034781E1,5.0017943E0,3.6679826E0,1.2004307E1,2.8343502E1,3.6679826E0,1.3338119E0,2.6676238E0,1.0003589E0,7.0025125E0,5.0017943E0,1.6005743E1,1.233776E1,1.0003589E0,2.6676238E0,4.6683416E0,2.3341708E0,2.6676238E0,2.3341708E0,6.6690593E0,9.336683E0,8.336325E0,4.0014358E0,1.0003589E0,1.3338119E0,1.6672648E0,1.0003589E0,1.0003589E0,5.6687007E0,6.6690593E0,2.6676238E0,1.0003589E0,3.0010767E0],"tree_param":{"num_deleted":"0","num_feature":"16","num_nodes":"37","size_leaf_vector":"1"}},{"base_weights":[-4.4688724E-7,4.1567564E-1,-2.751302E-1,-3.863993E-1,1.2906973E0,3.2013166E-1,-4.289082E-1,5.961978E-2,-5.5042457E-2,1.4898895E0,4.6502072E-3,-2.9126018E-1,1.23656236E-1,1.2988055E-1,-5.7804465E-2,7.718704E-1,1.8735087E0,-4.524417E-2,1.3454002E-2,-4.524417E-2,7.751172E-1,1.3753188E-1,-3.6039345E-2,5.961978E-2,2.1016626E-1,1.3454002E-2,1.0578555E-1],"categories":[],"categories_nodes":[],"categories_segments":[],"categories_sizes":[],"default_left":[0,0,0,0,0,0,0,0,0,0,0,0,0,0,0,0,0,0,0,0,0,0,0,0,0,0,0],"id":3,"left_children":[1,3,5,7,9,11,13,-1,-1,15,-1,17,-1,19,-1,21,23,-1,-1,-1,25,-1,-1,-1,-1,-1,-1],"loss_changes":[6.063302E0,1.5318167E1,3.057542E0,2.2277992E0,2.4905605E0,4.35064E0,2.223455E0,0E0,0E0,9.974365E-1,0E0,4.096118E-1,0E0,2.6980965E0,0E0,3.7683804E0,2.2782326E-1,0E0,0E0,0E0,4.6119237E-1,0E0,0E0,0E0,0E0,0E0,0E0],"parents":[2147483647,0,0,1,1,2,2,3,3,4,4,5,5,6,6,9,9,11,11,13,13,15,15,16,16,20,20],"right_children":[2,4,6,8,10,12,14,-1,-1,16,-1,18,-1,20,-1,22,24,-1,-1,-1,26,-1,-1,-1,-1,-1,-1],"split_conditions":[3E0,1.7E1,9E0,1.5E0,2.7E1,6E0,1.8E0,5.961978E-2,-5.5042457E-2,2.1E1,4.6502072E-3,8.3E1,1.23656236E-1,4E0,-5.7804465E-2,1.9E1,1.72E2,-4.524417E-2,1.3454002E-2,-4.524417E-2,2.01E2,1.3753188E-1,-3.6039345E-2,5.961978E-2,2.1016626E-1,1.3454002E-2,1.0578555E-1],"split_indices":[5,6,6,3,6,6,1,0,0,6,0,0,0,7,0,6,2,0,0,0,2,0,0,0,0,0,0],"split_type":[0,0,0,0,0,0,0,0,0,0,0,0,0,0,0,0,0,0,0,0,0,0,0,0,0,0,0],"sum_hessian":[5.1017174E1,2.0115343E1,3.090183E1,1.0786489E1,9.328855E0,6.122061E0,2.477977E1,1.1661068E0,9.620381E0,7.871221E0,1.4576335E0,4.0813737E0,2.0406868E0,5.247481E0,1.953229E1,3.7898471E0,4.0813737E0,2.915267E0,1.1661068E0,2.915267E0,2.3322136E0,2.3322136E0,1.4576335E0,1.1661068E0,2.915267E0,1.1661068E0,1.1661068E0],"tree_param":{"num_deleted":"0","num_feature":"16","num_nodes":"27","size_leaf_vector":"1"}},{"base_weights":[9.3157934E-7,-5.0552773E-1,1.9716589E-1,2.1018801E-2,-5.9575796E-1,1.0985313E-1,9.263264E-1,-6.472859E-2,-3.7471259E-3,1.99852E-1,-5.6971967E-2,1.3873191E-1,-3.749941E-2,1.1197473E-1,1.3652015E-1,-2.6086244E-1,2.7314207E-1,-6.0027957E-2,4.3148953E-2,1.0419271E-1,7.765227E-3],"categories":[],"categories_nodes":[],"categories_segments":[],"categories_sizes":[],"default_left":[1,0,0,0,0,0,0,0,0,0,0,0,0,0,0,0,0,0,0,0,0],"id":4,"left_children":[1,3,5,-1,7,9,11,-1,-1,13,-1,-1,-1,-1,15,17,19,-1,-1,-1,-1],"loss_changes":[7.143383E0,1.4238491E0,3.1807728E0,0E0,4.9696875E-1,2.999442E0,3.7471929E0,0E0,0E0,2.3174748E0,0E0,0E0,0E0,0E0,2.2869067E0,2.8328433E0,4.556719E0,0E0,0E0,0E0,0E0],"parents":[2147483647,0,0,1,1,2,2,4,4,5,5,6,6,9,9,14,14,15,15,16,16],"right_children":[2,4,6,-1,8,10,12,-1,-1,14,-1,-1,-1,-1,16,18,20,-1,-1,-1,-1],"split_conditions":[1.7E0,1.4E0,2.8E1,2.1018801E-2,9.6E1,2.6E1,3.3E0,-6.472859E-2,-3.7471259E-3,1.01E2,-5.6971967E-2,1.3873191E-1,-3.749941E-2,1.1197473E-1,1E1,3.95E2,1.4E1,-6.0027957E-2,4.3148953E-2,1.0419271E-1,7.765227E-3],"split_indices":[3,1,6,0,0,6,3,0,0,2,0,0,0,0,6,2,6,0,0,0,0],"split_type":[0,0,0,0,0,0,0,0,0,0,0,0,0,0,0,0,0,0,0,0,0],"sum_hessian":[6.966852E1,1.9109077E1,5.0559437E1,1.9905291E0,1.711855E1,4.618027E1,4.3791637E0,1.5526126E1,1.5924232E0,4.1403004E1,4.7772694E0,3.1848464E0,1.1943173E0,1.5924232E0,3.981058E1,9.952645E0,2.9857935E1,6.7677984E0,3.1848464E0,5.1753755E0,2.468256E1],"tree_param":{"num_deleted":"0","num_feature":"16","num_nodes":"21","size_leaf_vector":"1"}},{"base_weights":[8.473783E-4,-3.3305535E-1,1.9094962E-1,5.281831E-2,-4.1948533E-1,9.134491E-1,-4.808089E-2,1.5405121E-1,-5.692863E-2,-1.0356623E-2,1.2562336E0,-1.645963E-1,1.0884322E-1,-4.113782E-2,7.583096E-2,3.6698602E-2,1.4721442E0,5.802016E-1,-2.8197062E-1,5.247696E-2,1.655704E-1,1.3209541E-1,-3.6307756E-2,-4.972553E-1,6.527662E-2,1.100051E-2,-5.6262266E-2,-4.9261395E-2,5.7595808E-2],"categories":[],"categories_nodes":[],"categories_segments":[],"categories_sizes":[],"default_left":[0,0,0,0,0,0,0,0,0,0,0,0,0,0,0,0,0,0,0,0,0,0,0,0,0,0,0,0,0],"id":5,"left_children":[1,3,5,-1,7,9,11,13,-1,-1,15,17,-1,-1,-1,-1,19,21,23,-1,-1,-1,-1,25,27,-1,-1,-1,-1],"loss_changes":[3.5186005E0,1.7185669E0,6.143548E0,0E0,1.7058651E0,3.2084532E0,3.8193016E0,1.9135201E0,0E0,0E0,7.4236584E-1,2.4191852E0,0E0,0E0,0E0,0E0,8.14724E-3,3.162498E0,1.7490314E0,0E0,0E0,0E0,0E0,6.291473E-1,3.0392287E0,0E0,0E0,0E0,0E0],"parents":[2147483647,0,0,1,1,2,2,4,4,5,5,6,6,7,7,10,10,11,11,16,16,17,17,18,18,23,23,24,24],"right_children":[2,4,6,-1,8,10,12,14,-1,-1,16,18,-1,-1,-1,-1,20,22,24,-1,-1,-1,-1,26,28,-1,-1,-1,-1],"split_conditions":[1.3E1,1.2E0,1.7E1,5.281831E-2,1.77E2,1.7E2,1.000001E1,1.45E2,-5.692863E-2,-1.0356623E-2,7.1E1,1.7E2,1.0884322E-1,-4.113782E-2,7.583096E-2,3.6698602E-2,3.2E0,2E0,3.35E2,5.247696E-2,1.655704E-1,1.3209541E-1,-3.6307756E-2,1.2E0,2.4E1,1.100051E-2,-5.6262266E-2,-4.9261395E-2,5.7595808E-2],"split_indices":[6,3,6,0,2,2,3,2,0,0,0,2,0,0,0,0,3,7,2,0,0,0,0,1,6,0,0,0,0],"split_type":[0,0,0,0,0,0,0,0,0,0,0,0,0,0,0,0,0,0,0,0,0,0,0,0,0,0,0,0,0],"sum_hessian":[5.3430374E1,1.9111042E1,3.4319332E1,1.2768323E0,1.783421E1,7.830176E0,2.6489155E1,3.6875334E0,1.4146676E1,2.149788E0,5.680388E0,2.4801662E1,1.6874942E0,2.0698714E0,1.6176622E0,1.6371891E0,4.0431986E0,2.8396306E0,2.196203E1,1.2825652E0,2.7606335E0,1.3662983E0,1.4733324E0,1.3290352E1,8.6716795E0,1.2252214E0,1.206513E1,4.161192E0,4.5104876E0],"tree_param":{"num_deleted":"0","num_feature":"16","num_nodes":"29","size_leaf_vector":"1"}},{"base_weights":[1.8741031E-3,7.185308E-1,-2.0551549E-1,9.0622437E-1,-3.3378195E-2,-3.9450935E-1,5.886112E-1,3.2021958E-1,1.5954943E-1,-5.515777E-2,-1.0202946E-1,9.453696E-1,-1.1502028E-1,-4.045553E-2,8.3977824E-1,4.4197527E-1,-5.0130732E-2,-3.1971697E-2,1.4450136E0,-3.3493627E-2,1.9032853E-2,1.7177753E-1,-3.497753E-2,-4.0319264E-2,1.1585387E0,1.7297755E-1,5.2603733E-2,1.5297396E-1,1.9350622E-2],"categories":[],"categories_nodes":[],"categories_segments":[],"categories_sizes":[],"default_left":[0,0,0,0,0,0,0,0,0,0,0,0,0,0,0,0,0,0,0,0,0,0,0,0,0,0,0,0,0],"id":6,"left_children":[1,3,5,7,-1,9,11,13,-1,-1,15,17,19,-1,21,23,-1,-1,25,-1,-1,-1,-1,-1,27,-1,-1,-1,-1],"loss_changes":[6.851202E0,2.3457794E0,5.5989323E0,3.1438994E0,0E0,1.29813E0,1.9350367E0,2.6524632E0,0E0,0E0,2.7255306E0,3.582057E0,2.8798205E-1,0E0,4.676595E0,3.7441318E0,0E0,0E0,6.348181E-2,0E0,0E0,0E0,0E0,0E0,8.4545183E-1,0E0,0E0,0E0,0E0],"parents":[2147483647,0,0,1,1,2,2,3,3,5,5,6,6,7,7,10,10,11,11,12,12,14,14,15,15,18,18,24,24],"right_children":[2,4,6,8,-1,10,12,14,-1,-1,16,18,20,-1,22,24,-1,-1,26,-1,-1,-1,-1,-1,28,-1,-1,-1,-1],"split_conditions":[9E0,5E0,2.7E1,4E0,-3.3378195E-2,4E0,3E0,5E0,1.5954943E-1,-5.515777E-2,4.1E0,1.79E2,3.9E0,-4.045553E-2,3E0,2.8E0,-5.0130732E-2,-3.1971697E-2,1.5E0,-3.3493627E-2,1.9032853E-2,1.7177753E-1,-3.497753E-2,-4.0319264E-2,4E0,1.7297755E-1,5.2603733E-2,1.5297396E-1,1.9350622E-2],"split_indices":[6,7,6,5,0,5,7,6,0,0,3,2,1,0,5,3,0,0,3,0,0,0,0,0,7,0,0,0,0],"split_type":[0,0,0,0,0,0,0,0,0,0,0,0,0,0,0,0,0,0,0,0,0,0,0,0,0,0,0,0,0],"sum_hessian":[4.4103024E1,9.345167E0,3.4757854E1,8.048449E0,1.2967188E0,2.8482527E1,6.275328E0,5.1416707E0,2.9067774E0,1.7954622E1,1.0527905E1,3.9360807E0,2.3392477E0,2.2392733E0,2.9023974E0,4.411045E0,6.1168604E0,1.2163705E0,2.71971E0,1.3035313E0,1.0357165E0,1.414396E0,1.4880015E0,2.2245595E0,2.1864855E0,1.4027553E0,1.3169549E0,1.1564765E0,1.0300092E0],"tree_param":{"num_deleted":"0","num_feature":"16","num_nodes":"29","size_leaf_vector":"1"}},{"base_weights":[-5.240899E-4,-5.631417E-2,1.1120436E-1,7.0842946E-1,-3.7270833E-2,-3.965437E-2,9.748214E-1,4.7746387E-1,-1.5168099E-1,1.5021382E-1,4.045936E-1,8.4451866E-1,-4.127504E-2,1.9402914E-1,-2.6615244E-1,1.05396286E-1,-1.8945225E-1,1.1892797E0,-1.607558E-3,7.19732E-1,-3.2491088E-1,-5.7024967E-2,-5.2921508E-2,1.7367668E-2,-3.9402187E-2,1.7858913E-2,1.4549616E-1,3.9433236E-3,9.836104E-2,1.7249173E-2,-4.833634E-2,1.0547675E-1,-2.5322467E-2],"categories":[],"categories_nodes":[],"categories_segments":[],"categories_sizes":[],"default_left":[0,0,1,0,0,0,0,0,0,0,0,0,0,0,0,0,0,0,0,0,0,0,0,0,0,0,0,0,0,0,0,0,0],"id":7,"left_children":[1,-1,3,5,7,-1,9,11,13,-1,15,17,-1,19,21,-1,23,25,-1,27,29,-1,31,-1,-1,-1,-1,-1,-1,-1,-1,-1,-1],"loss_changes":[3.7905278E0,0E0,4.4878826E0,3.3500986E0,2.5014293E0,0E0,1.9184437E0,2.8782225E0,1.4171097E0,0E0,2.2847052E0,1.7428846E0,0E0,2.7331507E0,1.677969E0,0E0,3.410893E-1,8.575878E-1,0E0,8.340323E-1,5.010405E-1,0E0,3.9473584E0,0E0,0E0,0E0,0E0,0E0,0E0,0E0,0E0,0E0,0E0],"parents":[2147483647,0,0,2,2,3,3,4,4,6,6,7,7,8,8,10,10,11,11,13,13,14,14,16,16,17,17,19,19,20,20,22,22],"right_children":[2,-1,4,6,8,-1,10,12,14,-1,16,18,-1,20,22,-1,24,26,-1,28,30,-1,32,-1,-1,-1,-1,-1,-1,-1,-1,-1,-1],"split_conditions":[1.6E0,-5.631417E-2,1.4E0,7E0,5.8E1,-3.965437E-2,1.1E1,2E1,1E1,1.5021382E-1,1.3E0,2.82E2,-4.127504E-2,2.33E2,2E1,1.05396286E-1,7.3E1,7E0,-1.607558E-3,2.8E0,7E1,-5.7024967E-2,2.1E1,1.7367668E-2,-3.9402187E-2,1.7858913E-2,1.4549616E-1,3.9433236E-3,9.836104E-2,1.7249173E-2,-4.833634E-2,1.0547675E-1,-2.5322467E-2],"split_indices":[1,0,3,6,0,0,6,6,6,0,3,2,0,2,6,0,0,6,0,3,0,0,6,0,0,0,0,0,0,0,0,0,0],"split_type":[0,0,0,0,0,0,0,0,0,0,0,0,0,0,0,0,0,0,0,0,0,0,0,0,0,0,0,0,0,0,0,0,0],"sum_hessian":[5.8304493E1,8.990721E0,4.931377E1,9.067876E0,4.0245895E1,1.6665566E0,7.4013195E0,6.7416677E0,3.3504227E1,2.9962587E0,4.405061E0,4.809809E0,1.9318583E0,8.161387E0,2.534284E1,1.7346507E0,2.67041E0,3.161399E0,1.6484106E0,3.8620648E0,4.2993226E0,9.755624E0,1.5587216E1,1.0166974E0,1.6537124E0,1.0061305E0,2.1552684E0,1.4006132E0,2.4614515E0,1.0172967E0,3.2820258E0,1.7337292E0,1.3853487E1],"tree_param":{"num_deleted":"0","num_feature":"16","num_nodes":"33","size_leaf_vector":"1"}},{"base_weights":[1.0947844E-3,3.8776004E-1,-2.6581144E-1,-3.7617517E-1,1.1412127E0,3.0175102E-1,-4.1922688E-1,5.6696486E-2,-5.4294672E-2,1.3050961E0,4.1075163E-3,-2.8375155E-1,1.1135694E-1,1.2448611E-1,-5.708317E-2,6.9599444E-1,1.6185538E0,-4.4707257E-2,1.4018617E-2,-4.4501495E-2,7.185376E-1,1.21461846E-1,-3.5642833E-2,5.29504E-2,1.816122E-1,1.0076671E-1,1.0778981E-2],"categories":[],"categories_nodes":[],"categories_segments":[],"categories_sizes":[],"default_left":[0,0,0,0,0,0,0,0,0,0,0,0,0,0,0,0,0,0,0,0,0,0,0,0,0,0,0],"id":8,"left_children":[1,3,5,7,9,11,13,-1,-1,15,-1,17,-1,19,-1,21,23,-1,-1,-1,25,-1,-1,-1,-1,-1,-1],"loss_changes":[5.4559937E0,1.2855396E1,2.850072E0,2.112214E0,1.9506779E0,3.7560277E0,2.1352525E0,0E0,0E0,7.145939E-1,0E0,4.0897936E-1,0E0,2.4447103E0,0E0,3.1787872E0,2.4587154E-1,0E0,0E0,0E0,5.0178695E-1,0E0,0E0,0E0,0E0,0E0,0E0],"parents":[2147483647,0,0,1,1,2,2,3,3,4,4,5,5,6,6,9,9,11,11,13,13,15,15,16,16,20,20],"right_children":[2,4,6,8,10,12,14,-1,-1,16,-1,18,-1,20,-1,22,24,-1,-1,-1,26,-1,-1,-1,-1,-1,-1],"split_conditions":[3E0,1.7E1,9E0,1.5E0,2.7E1,6E0,1.8E0,5.6696486E-2,-5.4294672E-2,2.1E1,4.1075163E-3,4E0,1.1135694E-1,4E0,-5.708317E-2,1.9E1,2.8E0,-4.4707257E-2,1.4018617E-2,-4.4501495E-2,4.1E0,1.21461846E-1,-3.5642833E-2,5.29504E-2,1.816122E-1,1.0076671E-1,1.0778981E-2],"split_indices":[5,6,6,3,6,6,1,0,0,6,0,7,0,7,0,6,3,0,0,0,3,0,0,0,0,0,0],"split_type":[0,0,0,0,0,0,0,0,0,0,0,0,0,0,0,0,0,0,0,0,0,0,0,0,0,0,0],"sum_hessian":[5.086771E1,2.0588497E1,3.0279213E1,1.0471769E1,1.0116729E1,6.2373104E0,2.4041903E1,1.2128891E0,9.25888E0,8.6429205E0,1.4738076E0,4.0016794E0,2.2356312E0,5.281019E0,1.8760883E1,4.030788E0,4.612133E0,2.849388E0,1.1522914E0,2.8243108E0,2.4567084E0,2.5969293E0,1.4338586E0,1.2733247E0,3.338808E0,1.2262895E0,1.230419E0],"tree_param":{"num_deleted":"0","num_feature":"16","num_nodes":"27","size_leaf_vector":"1"}},{"base_weights":[-2.2108993E-3,-4.906275E-1,1.8132502E-1,2.3289379E-3,-6.314835E-2,9.992745E-2,8.387759E-1,3.962765E-1,-4.5119356E-2,1.8445036E-1,-5.5862542E-2,1.2431484E-1,-3.6944784E-2,7.667606E-3,5.363083E-2,1.04420915E-1,1.2402134E-1,-2.527513E-1,2.5028443E-1,-5.877591E-2,4.0043753E-2,9.285282E-2,6.987897E-3],"categories":[],"categories_nodes":[],"categories_segments":[],"categories_sizes":[],"default_left":[1,0,0,0,0,0,0,0,0,0,0,0,0,0,0,0,0,0,0,0,0,0,0],"id":9,"left_children":[1,3,5,7,-1,9,11,13,-1,15,-1,-1,-1,-1,-1,-1,17,19,21,-1,-1,-1,-1],"loss_changes":[6.428401E0,1.3614445E0,2.7061005E0,1.1344808E0,0E0,2.7484279E0,3.1992908E0,1.1081582E-1,0E0,2.0978403E0,0E0,0E0,0E0,0E0,0E0,0E0,2.0227973E0,2.6066349E0,3.7715683E0,0E0,0E0,0E0,0E0],"parents":[2147483647,0,0,1,1,2,2,3,3,5,5,6,6,7,7,9,9,16,16,17,17,18,18],"right_children":[2,4,6,8,-1,10,12,14,-1,16,-1,-1,-1,-1,-1,-1,18,20,22,-1,-1,-1,-1],"split_conditions":[1.7E0,1.7E0,2.8E1,1.2E1,-6.314835E-2,2.6E1,3.3E0,2.28E2,-4.5119356E-2,1.01E2,-5.5862542E-2,1.2431484E-1,-3.6944784E-2,7.667606E-3,5.363083E-2,1.04420915E-1,1E1,3.95E2,1.4E1,-5.877591E-2,4.0043753E-2,9.285282E-2,6.987897E-3],"split_indices":[3,1,6,6,0,6,3,2,0,2,0,0,0,0,0,0,6,2,6,0,0,0,0],"split_type":[0,0,0,0,0,0,0,0,0,0,0,0,0,0,0,0,0,0,0,0,0,0,0],"sum_hessian":[6.971951E1,1.858605E1,5.113346E1,4.349052E0,1.4236999E1,4.652526E1,4.6082E0,2.3949387E0,1.9541132E0,4.1871162E1,4.654098E0,3.4309967E0,1.1772034E0,1.2011242E0,1.1938145E0,1.6805841E0,4.019058E1,9.836475E0,3.0354103E1,6.5680304E0,3.2684453E0,5.506233E0,2.484787E1],"tree_param":{"num_deleted":"0","num_feature":"16","num_nodes":"23","size_leaf_vector":"1"}},{"base_weights":[1.9272162E-3,-3.2289472E-1,1.8121108E-1,4.8939116E-2,-4.0932462E-1,8.299925E-1,-4.5252807E-2,1.5326406E-1,-5.618281E-2,-1.0639959E-2,1.1307122E0,-3.326698E-1,3.6469173E-1,-4.457652E-2,1.1704556E-1,1.7874477E-2,1.2591195E0,2.3745509E-2,-5.4633435E-2,7.217837E-1,-4.5952555E-2,3.5745274E-2,1.516512E-1,-3.2176542E-1,7.266134E-2,1.315033E-1,1.8990329E-1,1.775724E-2,-4.7301657E-2,-4.4151925E-2,8.8179104E-2],"categories":[],"categories_nodes":[],"categories_segments":[],"categories_sizes":[],"default_left":[0,0,0,0,0,0,0,0,0,0,0,0,1,0,0,0,0,0,0,0,0,0,0,0,0,0,0,0,0,0,0],"id":10,"left_children":[1,3,5,-1,7,9,11,13,-1,-1,15,17,19,-1,-1,-1,21,23,-1,25,-1,-1,-1,27,-1,-1,29,-1,-1,-1,-1],"loss_changes":[3.2129104E0,1.5780101E0,5.2597046E0,0E0,1.6545529E0,2.7245126E0,3.3373127E0,3.3760452E0,0E0,0E0,6.4114094E-1,1.2746907E0,3.7830386E0,0E0,0E0,0E0,8.6861897E-1,1.9745476E0,0E0,2.4546661E0,0E0,0E0,0E0,4.992919E-1,0E0,0E0,2.874221E0,0E0,0E0,0E0,0E0],"parents":[2147483647,0,0,1,1,2,2,4,4,5,5,6,6,7,7,10,10,11,11,12,12,16,16,17,17,19,19,23,23,26,26],"right_children":[2,4,6,-1,8,10,12,14,-1,-1,16,18,20,-1,-1,-1,22,24,-1,26,-1,-1,-1,28,-1,-1,30,-1,-1,-1,-1],"split_conditions":[1.3E1,1.2E0,1.7E1,4.8939116E-2,1.77E2,1.7E2,4.1E0,1.57E2,-5.618281E-2,-1.0639959E-2,5.4E1,2.6E0,4.8E0,-4.457652E-2,1.1704556E-1,1.7874477E-2,3.4E0,1E0,-5.4633435E-2,2.3E1,-4.5952555E-2,3.5745274E-2,1.516512E-1,2E0,7.266134E-2,1.315033E-1,2.5E1,1.775724E-2,-4.7301657E-2,-4.4151925E-2,8.8179104E-2],"split_indices":[6,3,6,0,2,2,3,2,0,0,0,3,3,0,0,0,3,12,0,6,0,0,0,7,0,0,6,0,0,0,0],"split_type":[0,0,0,0,0,0,0,0,0,0,0,0,0,0,0,0,0,0,0,0,0,0,0,0,0,0,0,0,0,0,0],"sum_hessian":[5.31664E1,1.8623604E1,3.4542797E1,1.3426652E0,1.728094E1,8.248165E0,2.6294632E1,3.68434E0,1.3596599E1,2.1620572E0,6.086108E0,1.55681305E1,1.0726501E1,2.672349E0,1.0119913E0,1.0076624E0,5.078446E0,6.1680417E0,9.400089E0,7.5707536E0,3.155748E0,1.6582403E0,3.4202054E0,4.4987755E0,1.6692662E0,2.8828526E0,4.687901E0,1.0054328E0,3.4933424E0,2.6402497E0,2.0476513E0],"tree_param":{"num_deleted":"0","num_feature":"16","num_nodes":"31","size_leaf_vector":"1"}},{"base_weights":[3.3631397E-3,6.5440935E-1,-1.9708604E-1,8.18337E-1,-3.2734122E-2,-3.860779E-1,5.5450505E-1,2.9734161E-1,1.3913462E-1,-5.4568227E-2,-9.881316E-2,7.773908E-1,-3.2090835E-2,-4.013766E-2,7.7568954E-1,4.196438E-1,-4.962824E-2,-1.0012181E-1,1.3000187E0,1.538602E-1,-3.458083E-2,-3.9803673E-2,1.0703725E0,1.847913E-2,-3.188062E-2,1.5823668E-1,4.6750918E-2,1.3945378E-1,1.8541133E-2],"categories":[],"categories_nodes":[],"categories_segments":[],"categories_sizes":[],"default_left":[0,0,0,0,0,0,0,0,0,0,0,0,0,0,0,0,0,0,0,0,0,0,0,0,0,0,0,0,0],"id":11,"left_children":[1,3,5,7,-1,9,11,13,-1,-1,15,17,-1,-1,19,21,-1,23,25,-1,-1,-1,27,-1,-1,-1,-1,-1,-1],"loss_changes":[5.983191E0,2.0046525E0,5.1952457E0,2.4323258E0,0E0,1.2578554E0,1.7043855E0,2.4053242E0,0E0,0E0,2.5656815E0,2.9898758E0,0E0,0E0,4.0058255E0,3.3558323E0,0E0,2.617833E-1,1.9565153E-1,0E0,0E0,0E0,6.98787E-1,0E0,0E0,0E0,0E0,0E0,0E0],"parents":[2147483647,0,0,1,1,2,2,3,3,5,5,6,6,7,7,10,10,11,11,14,14,15,15,17,17,18,18,22,22],"right_children":[2,4,6,8,-1,10,12,14,-1,-1,16,18,-1,-1,20,22,-1,24,26,-1,-1,-1,28,-1,-1,-1,-1,-1,-1],"split_conditions":[9E0,5E0,2.7E1,4E0,-3.2734122E-2,4E0,4.21E2,5E0,1.3913462E-1,-5.4568227E-2,4.1E0,2.69E2,-3.2090835E-2,-4.013766E-2,3E0,2.8E0,-4.962824E-2,1E0,2E0,1.538602E-1,-3.458083E-2,-3.9803673E-2,4E0,1.847913E-2,-3.188062E-2,1.5823668E-1,4.6750918E-2,1.3945378E-1,1.8541133E-2],"split_indices":[6,7,6,5,0,5,2,6,0,0,3,2,0,0,5,3,0,14,7,0,0,0,7,0,0,0,0,0,0],"split_type":[0,0,0,0,0,0,0,0,0,0,0,0,0,0,0,0,0,0,0,0,0,0,0,0,0,0,0,0,0],"sum_hessian":[4.385932E1,9.79172E0,3.40676E1,8.533321E0,1.2583989E0,2.7610981E1,6.4566197E0,5.2650805E0,3.268241E0,1.7171122E1,1.0439859E1,5.235581E0,1.2210386E0,2.2050686E0,3.0600116E0,4.506202E0,5.9336576E0,2.2560356E0,2.9795456E0,1.5998069E0,1.4602047E0,2.1690187E0,2.3371835E0,1.0469728E0,1.2090628E0,1.5523438E0,1.4272015E0,1.2891454E0,1.0480381E0],"tree_param":{"num_deleted":"0","num_feature":"16","num_nodes":"29","size_leaf_vector":"1"}},{"base_weights":[-8.3424925E-4,-5.5378597E-2,1.0476152E-1,6.4423776E-1,-3.511982E-2,-3.8979534E-2,8.793556E-1,3.1401098E-1,-1.9385321E-1,1.3270293E-1,3.7344834E-1,-1.6998826E-1,8.6093104E-1,-1.4920212E-2,-4.183296E-1,9.645004E-2,-1.8957515E-1,-5.050773E-2,3.9902747E-1,7.6089814E-2,1.4157698E-1,-4.046765E-1,2.548882E-1,-5.5309124E-2,-8.429011E-2,1.6141081E-2,-3.8971294E-2,9.857061E-2,-3.4761984E-2,-3.8542245E-2,6.1485894E-2,1.5754847E-2,-5.226316E-2,7.021969E-2,-2.0347534E-2,6.681829E-2,-4.5917004E-2],"categories":[],"categories_nodes":[],"categories_segments":[],"categories_sizes":[],"default_left":[0,0,1,0,0,0,0,0,0,0,0,0,0,0,0,0,0,0,0,0,0,0,0,0,0,0,0,0,0,0,0,0,0,0,0,0,0],"id":12,"left_children":[1,-1,3,5,7,-1,9,11,13,-1,15,17,19,21,23,-1,25,-1,27,29,-1,31,33,-1,35,-1,-1,-1,-1,-1,-1,-1,-1,-1,-1,-1,-1],"loss_changes":[3.509518E0,0E0,3.8315568E0,2.88203E0,2.3346963E0,0E0,1.501246E0,3.641996E0,1.1515204E0,0E0,2.0233555E0,1.6965752E0,2.6638532E0,1.8988712E0,5.2724314E-1,0E0,3.2058448E-1,0E0,1.8603506E0,1.1551877E0,0E0,5.712185E-1,2.3375976E0,0E0,1.673341E0,0E0,0E0,0E0,0E0,0E0,0E0,0E0,0E0,0E0,0E0,0E0,0E0],"parents":[2147483647,0,0,2,2,3,3,4,4,6,6,7,7,8,8,10,10,11,11,12,12,13,13,14,14,16,16,18,18,19,19,21,21,22,22,24,24],"right_children":[2,-1,4,6,8,-1,10,12,14,-1,16,18,20,22,24,-1,26,-1,28,30,-1,32,34,-1,36,-1,-1,-1,-1,-1,-1,-1,-1,-1,-1,-1,-1],"split_conditions":[1.6E0,-5.5378597E-2,1.4E0,7E0,6.5E1,-3.8979534E-2,1.1E1,3.6E0,3.32E2,1.3270293E-1,1.3E0,4E0,3.8E0,2E0,4.44E2,9.645004E-2,1.3E1,-5.050773E-2,1.5E1,1E0,1.4157698E-1,1E1,3.3E0,-5.5309124E-2,4.56E2,1.6141081E-2,-3.8971294E-2,9.857061E-2,-3.4761984E-2,-3.8542245E-2,6.1485894E-2,1.5754847E-2,-5.226316E-2,7.021969E-2,-2.0347534E-2,6.681829E-2,-4.5917004E-2],"split_indices":[1,0,3,6,0,0,6,3,2,0,3,7,1,7,2,0,6,0,6,11,0,6,3,0,2,0,0,0,0,0,0,0,0,0,0,0,0],"split_type":[0,0,0,0,0,0,0,0,0,0,0,0,0,0,0,0,0,0,0,0,0,0,0,0,0,0,0,0,0,0,0,0,0,0,0,0,0],"sum_hessian":[5.8111835E1,8.637454E0,4.9474384E1,9.444491E0,4.0029892E1,1.6277742E0,7.816717E0,1.2205631E1,2.782426E1,3.285942E0,4.530775E0,6.84092E0,5.3647113E0,1.6076189E1,1.1748071E1,1.8624916E0,2.6682835E0,4.376185E0,2.4647353E0,2.692791E0,2.6719203E0,6.371814E0,9.704376E0,7.903709E0,3.8443613E0,1.0392427E0,1.6290408E0,1.2009284E0,1.2638067E0,1.603688E0,1.089103E0,1.0467734E0,5.3250403E0,4.642186E0,5.0621896E0,1.0182002E0,2.8261614E0],"tree_param":{"num_deleted":"0","num_feature":"16","num_nodes":"37","size_leaf_vector":"1"}},{"base_weights":[1.7930397E-3,3.629416E-1,-2.5705627E-1,-3.6675724E-1,1.0238788E0,2.8326532E-1,-4.098124E-1,5.3368647E-2,-5.3583194E-2,1.1647861E0,3.3265592E-3,-2.778752E-1,1.0134991E-1,1.2142022E-1,-5.6409426E-2,6.3755184E-1,1.4263002E0,-4.4128794E-2,1.3633608E-2,-4.3724008E-2,6.7172545E-1,1.0874624E0,-3.4934927E-2,1.5850815E-1,4.9270697E-2,8.951832E-3,9.565141E-2,1.5969856E-2,1.3780259E-1],"categories":[],"categories_nodes":[],"categories_segments":[],"categories_sizes":[],"default_left":[0,0,0,0,0,0,0,0,0,0,0,0,0,0,0,0,0,0,0,0,0,0,0,0,0,0,0,0,0],"id":13,"left_children":[1,3,5,7,9,11,13,-1,-1,15,-1,17,-1,19,-1,21,23,-1,-1,-1,25,27,-1,-1,-1,-1,-1,-1,-1],"loss_changes":[4.918211E0,1.0967913E1,2.6458397E0,1.9872342E0,1.6067028E0,3.291991E0,2.0603714E0,0E0,0E0,5.0954914E-1,0E0,3.944781E-1,0E0,2.2282481E0,0E0,2.6978028E0,1.1889839E-1,0E0,0E0,0E0,5.053499E-1,8.120761E-1,0E0,0E0,0E0,0E0,0E0,0E0,0E0],"parents":[2147483647,0,0,1,1,2,2,3,3,4,4,5,5,6,6,9,9,11,11,13,13,15,15,16,16,20,20,21,21],"right_children":[2,4,6,8,10,12,14,-1,-1,16,-1,18,-1,20,-1,22,24,-1,-1,-1,26,28,-1,-1,-1,-1,-1,-1,-1],"split_conditions":[3E0,1.7E1,9E0,1.5E0,2.7E1,6E0,1.8E0,5.3368647E-2,-5.3583194E-2,2.1E1,3.3265592E-3,4E0,1.0134991E-1,4E0,-5.6409426E-2,1.9E1,1E0,-4.4128794E-2,1.3633608E-2,-4.3724008E-2,1.8E1,6.9E1,-3.4934927E-2,1.5850815E-1,4.9270697E-2,8.951832E-3,9.565141E-2,1.5969856E-2,1.3780259E-1],"split_indices":[5,6,6,3,6,6,1,0,0,6,0,7,0,7,0,6,9,0,0,0,6,0,0,0,0,0,0,0,0],"split_type":[0,0,0,0,0,0,0,0,0,0,0,0,0,0,0,0,0,0,0,0,0,0,0,0,0,0,0,0,0],"sum_hessian":[5.061272E1,2.0962936E1,2.9649784E1,1.0174744E1,1.0788193E1,6.3465853E0,2.33032E1,1.2675612E0,8.907183E0,9.290821E0,1.4973724E0,3.939098E0,2.4074874E0,5.292554E0,1.8010645E1,4.22029E0,5.0705304E0,2.7778316E0,1.1612663E0,2.728295E0,2.5642586E0,2.8287966E0,1.3914938E0,3.7371109E0,1.3334196E0,1.2740301E0,1.2902286E0,1.044224E0,1.7845726E0],"tree_param":{"num_deleted":"0","num_feature":"16","num_nodes":"29","size_leaf_vector":"1"}},{"base_weights":[-4.2280965E-3,-4.763935E-1,1.6699347E-1,2.215722E-3,-6.1789673E-2,9.058934E-2,7.6951486E-1,3.737853E-1,-4.3996807E-2,1.6956443E-1,-5.462243E-2,1.1356695E-1,-3.6581002E-2,6.8865963E-3,5.090726E-2,9.699479E-2,1.121208E-1,-2.4412413E-1,2.284018E-1,-5.7539087E-2,3.738826E-2,8.3685465E-2,6.125619E-3],"categories":[],"categories_nodes":[],"categories_segments":[],"categories_sizes":[],"default_left":[1,0,0,0,0,0,0,0,0,0,0,0,0,0,0,0,0,0,0,0,0,0,0],"id":14,"left_children":[1,3,5,7,-1,9,11,13,-1,15,-1,-1,-1,-1,-1,-1,17,19,21,-1,-1,-1,-1],"loss_changes":[5.786919E0,1.2913265E0,2.3494084E0,1.0422815E0,0E0,2.4950433E0,2.8183413E0,1.070075E-1,0E0,1.8802886E0,0E0,0E0,0E0,0E0,0E0,0E0,1.7746859E0,2.404605E0,3.1828756E0,0E0,0E0,0E0,0E0],"parents":[2147483647,0,0,1,1,2,2,3,3,5,5,6,6,7,7,9,9,16,16,17,17,18,18],"right_children":[2,4,6,8,-1,10,12,14,-1,16,-1,-1,-1,-1,-1,-1,18,20,22,-1,-1,-1,-1],"split_conditions":[1.7E0,1.7E0,2.8E1,1.2E1,-6.1789673E-2,2.6E1,3.3E0,2.28E2,-4.3996807E-2,1.01E2,-5.462243E-2,1.1356695E-1,-3.6581002E-2,6.8865963E-3,5.090726E-2,9.699479E-2,1E1,3.95E2,1.4E1,-5.7539087E-2,3.738826E-2,8.3685465E-2,6.125619E-3],"split_indices":[3,1,6,6,0,6,3,2,0,2,0,0,0,0,0,0,6,2,6,0,0,0,0],"split_type":[0,0,0,0,0,0,0,0,0,0,0,0,0,0,0,0,0,0,0,0,0,0,0],"sum_hessian":[6.9596466E1,1.8047062E1,5.1549404E1,4.3427696E0,1.3704292E1,4.676909E1,4.780314E0,2.4438617E0,1.8989079E0,4.2261692E1,4.5073967E0,3.6143448E0,1.1659689E0,1.2148311E0,1.2290307E0,1.7662776E0,4.0495415E1,9.6947155E0,3.08007E1,6.3564563E0,3.3382592E0,5.774242E0,2.5026459E1],"tree_param":{"num_deleted":"0","num_feature":"16","num_nodes":"23","size_leaf_vector":"1"}},{"base_weights":[2.5969392E-3,-3.123337E-1,1.7100431E-1,4.538629E-2,-3.9880416E-1,7.593552E-1,-4.3972254E-2,1.5413876E-1,-5.5434156E-2,-1.08393645E-2,1.0271776E0,-3.2214433E-1,3.3445287E-1,-4.371315E-2,1.092714E-1,1.7096413E-2,1.1369698E0,2.2728167E-2,-5.374181E-2,6.537278E-1,-4.5164246E-2,3.35946E-2,1.3556278E-1,-3.1402484E-1,6.72551E-2,1.17197566E-1,1.7004524E-1,1.6598446E-2,-4.6474498E-2,-4.3696016E-2,7.9926245E-2],"categories":[],"categories_nodes":[],"categories_segments":[],"categories_sizes":[],"default_left":[0,0,0,0,0,0,0,0,0,0,0,0,1,0,0,0,0,0,0,0,0,0,0,0,0,0,0,0,0,0,0],"id":15,"left_children":[1,3,5,-1,7,9,11,13,-1,-1,15,17,19,-1,-1,-1,21,23,-1,25,-1,-1,-1,27,-1,-1,29,-1,-1,-1,-1],"loss_changes":[2.906343E0,1.4461912E0,4.5482183E0,0E0,1.6070101E0,2.344061E0,2.959263E0,3.067321E0,0E0,0E0,5.047164E-1,1.2091122E0,3.2986884E0,0E0,0E0,0E0,6.680927E-1,1.7769728E0,0E0,2.036391E0,0E0,0E0,0E0,4.6742344E-1,0E0,0E0,2.558001E0,0E0,0E0,0E0,0E0],"parents":[2147483647,0,0,1,1,2,2,4,4,5,5,6,6,7,7,10,10,11,11,12,12,16,16,17,17,19,19,23,23,26,26],"right_children":[2,4,6,-1,8,10,12,14,-1,-1,16,18,20,-1,-1,-1,22,24,-1,26,-1,-1,-1,28,-1,-1,30,-1,-1,-1,-1],"split_conditions":[1.3E1,1.2E0,1.7E1,4.538629E-2,1.77E2,1.7E2,4.1E0,1.57E2,-5.5434156E-2,-1.08393645E-2,5.4E1,2.6E0,4.8E0,-4.371315E-2,1.092714E-1,1.7096413E-2,3.4E0,1E0,-5.374181E-2,2.3E1,-4.5164246E-2,3.35946E-2,1.3556278E-1,2E0,6.72551E-2,1.17197566E-1,2.5E1,1.6598446E-2,-4.6474498E-2,-4.3696016E-2,7.9926245E-2],"split_indices":[6,3,6,0,2,2,3,2,0,0,0,3,3,0,0,0,3,12,0,6,0,0,0,7,0,0,6,0,0,0,0],"split_type":[0,0,0,0,0,0,0,0,0,0,0,0,0,0,0,0,0,0,0,0,0,0,0,0,0,0,0,0,0,0,0],"sum_hessian":[5.2791733E1,1.809622E1,3.4695515E1,1.4042947E0,1.6691925E1,8.60713E0,2.6088383E1,3.6664639E0,1.302546E1,2.170371E0,6.436759E0,1.5121571E1,1.0966813E1,2.5771856E0,1.0892782E0,1.0222118E0,5.4145474E0,6.1552196E0,8.9663515E0,7.91891E0,3.047903E0,1.704981E0,3.709566E0,4.3945937E0,1.7606256E0,3.1358926E0,4.7830176E0,1.0259382E0,3.3686557E0,2.5899978E0,2.1930196E0],"tree_param":{"num_deleted":"0","num_feature":"16","num_nodes":"31","size_leaf_vector":"1"}},{"base_weights":[4.678147E-3,6.0057443E-1,-1.891453E-1,7.474214E-1,-3.226418E-2,-3.7767795E-1,5.191849E-1,2.7653718E-1,1.2399671E0,-5.399994E-2,-9.461629E-2,7.221993E-1,-3.1581994E-2,-3.9733656E-2,7.1739745E-1,4.532401E-2,1.4450459E-1,3.965262E-1,-4.90228E-2,-9.538865E-2,1.1759956E0,1.3892119E-1,-3.421036E-2,-3.9302338E-2,9.8853934E-1,1.785366E-2,-3.117483E-2,4.2893123E-2,1.4311293E-1,1.2741548E-1,1.7662218E-2],"categories":[],"categories_nodes":[],"categories_segments":[],"categories_sizes":[],"default_left":[0,0,0,0,0,0,0,0,0,0,0,0,0,0,0,0,0,0,0,0,0,0,0,0,0,0,0,0,0,0,0],"id":16,"left_children":[1,3,5,7,-1,9,11,13,15,-1,17,19,-1,-1,21,-1,-1,23,-1,25,27,-1,-1,-1,29,-1,-1,-1,-1,-1,-1],"loss_changes":[5.256204E0,1.7551427E0,4.784338E0,1.9616866E0,0E0,1.2222915E0,1.5238087E0,2.1765742E0,8.2295895E-2,0E0,2.3925192E0,2.506325E0,0E0,0E0,3.4685874E0,0E0,0E0,3.0060663E0,0E0,2.4698307E-1,1.9137573E-1,0E0,0E0,0E0,5.8306503E-1,0E0,0E0,0E0,0E0,0E0,0E0],"parents":[2147483647,0,0,1,1,2,2,3,3,5,5,6,6,7,7,8,8,10,10,11,11,14,14,17,17,19,19,20,20,24,24],"right_children":[2,4,6,8,-1,10,12,14,16,-1,18,20,-1,-1,22,-1,-1,24,-1,26,28,-1,-1,-1,30,-1,-1,-1,-1,-1,-1],"split_conditions":[9E0,5E0,2.7E1,4E0,-3.226418E-2,4E0,4.21E2,5E0,1.96E2,-5.399994E-2,4.1E0,2.69E2,-3.1581994E-2,-3.9733656E-2,3E0,4.532401E-2,1.4450459E-1,2.8E0,-4.90228E-2,1E0,5E0,1.3892119E-1,-3.421036E-2,-3.9302338E-2,4E0,1.785366E-2,-3.117483E-2,4.2893123E-2,1.4311293E-1,1.2741548E-1,1.7662218E-2],"split_indices":[6,7,6,5,0,5,2,6,2,0,3,2,0,0,5,0,0,3,0,14,5,0,0,0,7,0,0,0,0,0,0],"split_type":[0,0,0,0,0,0,0,0,0,0,0,0,0,0,0,0,0,0,0,0,0,0,0,0,0,0,0,0,0,0,0],"sum_hessian":[4.3525265E1,1.0167487E1,3.3357777E1,8.936466E0,1.2310207E0,2.67142E1,6.6435776E0,5.3669715E0,3.569495E0,1.640122E1,1.0312977E1,5.4529095E0,1.1906683E0,2.1615994E0,3.2053723E0,1.4018338E0,2.1676612E0,4.5999446E0,5.7130327E0,2.2282152E0,3.2246943E0,1.77113E0,1.4342424E0,2.1151538E0,2.4847908E0,1.0604423E0,1.1677729E0,1.5034882E0,1.7212061E0,1.4170029E0,1.067788E0],"tree_param":{"num_deleted":"0","num_feature":"16","num_nodes":"31","size_leaf_vector":"1"}},{"base_weights":[-1.6293616E-3,-5.4489028E-2,9.837517E-2,5.883818E-1,-3.3409588E-2,-3.829975E-2,7.98425E-1,4.3651244E-1,-1.42413E-1,1.0715826E0,2.1760732E-1,7.4865496E-1,-3.9605957E-2,1.6061547E-1,-2.487286E-1,1.24413565E-1,1.4338008E-2,7.498715E-2,-3.880453E-2,1.0266212E0,-1.1017005E-3,6.0681987E-1,-3.1734425E-1,-5.55516E-2,-4.274065E-2,1.729483E-2,1.224725E-1,8.499979E-2,1.5449662E-4,1.5353139E-2,-4.725829E-2,9.183249E-2,-2.3574715E-2],"categories":[],"categories_nodes":[],"categories_segments":[],"categories_sizes":[],"default_left":[0,0,1,0,0,0,0,0,0,0,0,0,0,0,0,0,0,0,0,0,0,0,0,0,0,0,0,0,0,0,0,0,0],"id":17,"left_children":[1,-1,3,5,7,-1,9,11,13,15,17,19,-1,21,23,-1,-1,-1,-1,25,-1,27,29,-1,31,-1,-1,-1,-1,-1,-1,-1,-1],"loss_changes":[3.2469945E0,0E0,3.2799578E0,2.5000322E0,2.14868E0,0E0,1.2211361E0,2.3536277E0,1.1294608E0,7.7934647E-1,1.6407005E0,1.300072E0,0E0,2.1953616E0,1.5831221E0,0E0,0E0,0E0,0E0,5.456276E-1,0E0,7.641034E-1,4.5199084E-1,0E0,3.2393053E0,0E0,0E0,0E0,0E0,0E0,0E0,0E0,0E0],"parents":[2147483647,0,0,2,2,3,3,4,4,6,6,7,7,8,8,9,9,10,10,11,11,13,13,14,14,19,19,21,21,22,22,24,24],"right_children":[2,-1,4,6,8,-1,10,12,14,16,18,20,-1,22,24,-1,-1,-1,-1,26,-1,28,30,-1,32,-1,-1,-1,-1,-1,-1,-1,-1],"split_conditions":[1.6E0,-5.4489028E-2,1.4E0,7E0,5.8E1,-3.829975E-2,7.8E1,2E1,1E1,1.3E1,1.3E0,2.82E2,-3.9605957E-2,2.33E2,2E1,1.24413565E-1,1.4338008E-2,7.498715E-2,-3.880453E-2,7E0,-1.1017005E-3,3.9E0,7E1,-5.55516E-2,2.1E1,1.729483E-2,1.224725E-1,8.499979E-2,1.5449662E-4,1.5353139E-2,-4.725829E-2,9.183249E-2,-2.3574715E-2],"split_indices":[1,0,3,6,0,0,0,6,6,6,3,2,0,2,6,0,0,0,0,6,0,1,0,0,6,0,0,0,0,0,0,0,0],"split_type":[0,0,0,0,0,0,0,0,0,0,0,0,0,0,0,0,0,0,0,0,0,0,0,0,0,0,0,0,0,0,0,0,0],"sum_hessian":[5.777924E1,8.290978E0,4.9488262E1,9.754398E0,3.9733864E1,1.5878236E0,8.1665745E0,6.9156017E0,3.281826E1,4.9796834E0,3.1868913E0,5.1031528E0,1.8124487E0,8.390968E0,2.4427292E1,3.9120598E0,1.0676239E0,1.5694735E0,1.6174178E0,3.4788358E0,1.624317E0,4.2002115E0,4.1907573E0,9.131094E0,1.5296198E1,1.0080302E0,2.4708056E0,2.7079403E0,1.4922712E0,1.0417823E0,3.148975E0,1.9296434E0,1.3366555E1],"tree_param":{"num_deleted":"0","num_feature":"16","num_nodes":"33","size_leaf_vector":"1"}},{"base_weights":[2.9239967E-3,3.4218517E-1,-2.4840955E-1,-3.5679343E-1,9.2893136E-1,2.6669773E-1,-4.0042347E-1,5.0611652E-2,-5.2863736E-2,1.0516888E0,2.8896497E-3,-2.7128878E-1,9.2658275E-1,1.1916102E-1,-5.5755254E-2,4.1740692E-1,1.1842421E0,-4.35694E-2,1.3632858E-2,1.1826718E-1,1.5809271E-2,-4.3004554E-2,6.334294E-1,-3.4621757E-2,1.0183298E-1,3.8155612E-1,1.4716046E-1,-3.3194487E-4,1.13502555E-1,-3.5508294E-2,1.03053145E-1],"categories":[],"categories_nodes":[],"categories_segments":[],"categories_sizes":[],"default_left":[0,0,0,0,0,0,0,0,0,0,0,0,0,0,0,0,0,0,0,0,0,0,0,0,0,0,0,0,0,0,0],"id":18,"left_children":[1,3,5,7,9,11,13,-1,-1,15,-1,17,19,21,-1,23,25,-1,-1,-1,-1,-1,27,-1,-1,29,-1,-1,-1,-1,-1],"loss_changes":[4.450335E0,9.439211E0,2.4549718E0,1.877484E0,1.3341637E0,2.8903332E0,1.9894857E0,0E0,0E0,4.1706657E-1,0E0,3.856573E-1,5.1462674E-1,2.049846E0,0E0,1.9210513E0,1.3810902E0,0E0,0E0,0E0,0E0,0E0,1.1709303E0,0E0,0E0,2.0727067E0,0E0,0E0,0E0,0E0,0E0],"parents":[2147483647,0,0,1,1,2,2,3,3,4,4,5,5,6,6,9,9,11,11,12,12,13,13,15,15,16,16,22,22,25,25],"right_children":[2,4,6,8,10,12,14,-1,-1,16,-1,18,20,22,-1,24,26,-1,-1,-1,-1,-1,28,-1,-1,30,-1,-1,-1,-1,-1],"split_conditions":[3E0,1.7E1,9E0,1.5E0,2.7E1,6E0,1.8E0,5.0611652E-2,-5.2863736E-2,2.5E0,2.8896497E-3,8.3E1,4E0,4E0,-5.5755254E-2,2.8E2,2.1E1,-4.35694E-2,1.3632858E-2,1.1826718E-1,1.5809271E-2,-4.3004554E-2,1.9E1,-3.4621757E-2,1.0183298E-1,4.35E2,1.4716046E-1,-3.3194487E-4,1.13502555E-1,-3.5508294E-2,1.03053145E-1],"split_indices":[5,6,6,3,6,6,1,0,0,3,0,0,5,7,0,2,6,0,0,0,0,0,6,0,0,2,0,0,0,0,0],"split_type":[0,0,0,0,0,0,0,0,0,0,0,0,0,0,0,0,0,0,0,0,0,0,0,0,0,0,0,0,0,0,0],"sum_hessian":[5.0195618E1,2.120742E1,2.8988195E1,9.856952E0,1.135047E1,6.4335012E0,2.2554693E1,1.313921E0,8.543031E0,9.8398905E0,1.5105793E0,3.8685012E0,2.5649998E0,5.2931786E0,1.7261515E1,2.4180822E0,7.4218082E0,2.7075706E0,1.1609306E0,1.5196437E0,1.0453563E0,2.638837E0,2.6543412E0,1.2515404E0,1.1665418E0,2.5702229E0,4.8515854E0,1.6073192E0,1.0470219E0,1.4159088E0,1.154314E0],"tree_param":{"num_deleted":"0","num_feature":"16","num_nodes":"31","size_leaf_vector":"1"}},{"base_weights":[-5.7188226E-3,-4.6286786E-1,1.5455455E-1,2.907886E-3,-6.0533404E-2,8.333357E-2,7.0376277E-1,3.5450494E-1,-4.291449E-2,1.5761943E-1,-5.3470403E-2,1.0353287E-1,-3.6049522E-2,6.1463406E-3,4.8659887E-2,9.078101E-2,1.0279799E-1,-1.8879665E-1,2.3091774E-1,4.8652057E-2,-3.583218E-2,3.6940616E-2,-5.9353723E-3],"categories":[],"categories_nodes":[],"categories_segments":[],"categories_sizes":[],"default_left":[1,0,0,0,0,0,0,0,0,0,0,0,0,0,0,0,0,0,0,0,0,0,0],"id":19,"left_children":[1,3,5,7,-1,9,11,13,-1,15,-1,-1,-1,-1,-1,-1,17,19,21,-1,-1,-1,-1],"loss_changes":[5.220795E0,1.2289491E0,2.0060577E0,9.6133804E-1,0E0,2.2816126E0,2.464021E0,1.04974836E-1,0E0,1.6955677E0,0E0,0E0,0E0,0E0,0E0,0E0,1.6000755E0,1.6932847E0,1.2035742E0,0E0,0E0,0E0,0E0],"parents":[2147483647,0,0,1,1,2,2,3,3,5,5,6,6,7,7,9,9,16,16,17,17,18,18],"right_children":[2,4,6,8,-1,10,12,14,-1,16,-1,-1,-1,-1,-1,-1,18,20,22,-1,-1,-1,-1],"split_conditions":[1.7E0,1.7E0,2.8E1,1.2E1,-6.0533404E-2,2.6E1,3.3E0,1.4E0,-4.291449E-2,1.01E2,-5.3470403E-2,1.0353287E-1,-3.6049522E-2,6.1463406E-3,4.8659887E-2,9.078101E-2,1.93E2,2E0,1E0,4.8652057E-2,-3.583218E-2,3.6940616E-2,-5.9353723E-3],"split_indices":[3,1,6,6,0,6,3,3,0,2,0,0,0,0,0,0,2,5,15,0,0,0,0],"split_type":[0,0,0,0,0,0,0,0,0,0,0,0,0,0,0,0,0,0,0,0,0,0,0],"sum_hessian":[6.927896E1,1.749366E1,5.17853E1,4.326918E0,1.3166742E1,4.686023E1,4.925072E0,2.4845343E0,1.8423837E0,4.249719E1,4.36304E0,3.7758892E0,1.1491829E0,1.227254E0,1.2572802E0,1.8344674E0,4.066272E1,1.2267915E1,2.8394806E1,2.0864542E0,1.0181461E1,1.9038786E1,9.35602E0],"tree_param":{"num_deleted":"0","num_feature":"16","num_nodes":"23","size_leaf_vector":"1"}},{"base_weights":[2.5926284E-3,1.5908377E-1,-3.082951E-1,-3.097339E-1,3.8732103E-1,-4.4042942E-1,2.9060218E-1,6.0132932E-2,-4.5250493E-1,8.1435376E-1,-9.145897E-2,1.2081152E-1,-5.591271E-2,-3.1189322E-2,6.369675E-2,7.825483E-3,-5.3278722E-2,9.6325463E-1,-3.4401976E-2,-3.9944854E-1,3.829868E-1,4.9655117E-2,-3.3201005E-2,1.2425348E0,1.8505675E-1,-5.0505754E-2,1.1941421E-2,-4.077862E-2,9.110966E-1,1.4306568E-1,3.0864542E-2,-3.1229025E-2,4.493096E-2,1.13319874E-1,1.7077316E-2],"categories":[],"categories_nodes":[],"categories_segments":[],"categories_sizes":[],"default_left":[0,0,1,0,0,0,0,0,0,0,0,0,0,0,0,0,0,0,0,0,0,0,0,0,0,0,0,0,0,0,0,0,0,0,0],"id":20,"left_children":[1,3,5,7,9,11,13,-1,15,17,19,21,-1,-1,-1,-1,-1,23,-1,25,27,-1,-1,29,31,-1,-1,-1,33,-1,-1,-1,-1,-1,-1],"loss_changes":[2.643264E0,3.9857798E0,1.5677944E0,1.8830968E0,5.1333613E0,1.0870183E0,1.0106759E0,0E0,5.222523E-1,2.6045952E0,1.9888762E0,7.593086E-1,0E0,0E0,0E0,0E0,0E0,2.365343E0,0E0,5.045941E-1,2.650057E0,0E0,0E0,1.0715523E0,7.0921856E-1,0E0,0E0,0E0,3.952148E-1,0E0,0E0,0E0,0E0,0E0,0E0],"parents":[2147483647,0,0,1,1,2,2,3,3,4,4,5,5,6,6,8,8,9,9,10,10,11,11,17,17,19,19,20,20,23,23,24,24,28,28],"right_children":[2,4,6,8,10,12,14,-1,16,18,20,22,-1,-1,-1,-1,-1,24,-1,26,28,-1,-1,30,32,-1,-1,-1,34,-1,-1,-1,-1,-1,-1],"split_conditions":[4E0,1.3E1,4.6E0,1.2E0,2.2E1,1.62E2,6.4E1,6.0132932E-2,5.7E1,1E0,3.35E2,5E0,-5.591271E-2,-3.1189322E-2,6.369675E-2,7.825483E-3,-5.3278722E-2,1E0,-3.4401976E-2,1E0,2E0,4.9655117E-2,-3.3201005E-2,4.44E2,3.4E0,-5.0505754E-2,1.1941421E-2,-4.077862E-2,5E0,1.4306568E-1,3.0864542E-2,-3.1229025E-2,4.493096E-2,1.13319874E-1,1.7077316E-2],"split_indices":[7,6,3,3,6,2,0,0,0,11,2,7,0,0,0,0,0,10,0,10,7,0,0,2,3,0,0,0,5,0,0,0,0,0,0],"split_type":[0,0,0,0,0,0,0,0,0,0,0,0,0,0,0,0,0,0,0,0,0,0,0,0,0,0,0,0,0,0,0,0,0,0,0],"sum_hessian":[5.2322845E1,3.5128536E1,1.7194311E1,1.138525E1,2.3743286E1,1.4303205E1,2.8911076E0,1.1073143E0,1.0277935E1,1.2179379E1,1.1563906E1,2.4938173E0,1.1809386E1,1.0916791E0,1.7994285E0,1.3536928E0,8.924243E0,1.0941382E1,1.2379969E0,7.1078634E0,4.456043E0,1.3101323E0,1.1836852E0,7.612663E0,3.3287196E0,5.927908E0,1.1799556E0,1.8755293E0,2.5805135E0,5.8935385E0,1.7191242E0,1.0918939E0,2.2368257E0,1.576786E0,1.0037274E0],"tree_param":{"num_deleted":"0","num_feature":"16","num_nodes":"35","size_leaf_vector":"1"}},{"base_weights":[6.278234E-3,5.572068E-1,-1.8161415E-1,6.9086266E-1,-3.1780444E-2,-3.6969516E-1,4.8898265E-1,2.5802243E-1,1.1271248E0,-5.3445455E-2,-9.153723E-2,6.7479163E-1,-3.1000692E-2,-3.9382946E-2,6.6972315E-1,1.3135119E-1,4.1630413E-2,3.7492147E-1,-4.8457425E-2,-8.965651E-2,1.072259E0,1.2655078E-1,-3.3666402E-2,-3.8766023E-2,9.1520274E-1,1.7355246E-2,-3.0412538E-2,1.3223478E-1,3.8404793E-2,1.16912246E-1,1.6821973E-2],"categories":[],"categories_nodes":[],"categories_segments":[],"categories_sizes":[],"default_left":[0,0,0,0,0,0,0,0,0,0,0,0,0,0,0,0,0,0,0,0,0,0,0,0,0,0,0,0,0,0,0],"id":21,"left_children":[1,3,5,7,-1,9,11,13,15,-1,17,19,-1,-1,21,-1,-1,23,-1,25,27,-1,-1,-1,29,-1,-1,-1,-1,-1,-1],"loss_changes":[4.6647553E0,1.5595126E0,4.4222064E0,1.6455202E0,0E0,1.1807663E0,1.3666325E0,1.9931831E0,9.045887E-2,0E0,2.232804E0,2.1137E0,0E0,0E0,3.0162628E0,0E0,0E0,2.6949341E0,0E0,2.3310016E-1,2.57349E-1,0E0,0E0,0E0,4.9033475E-1,0E0,0E0,0E0,0E0,0E0,0E0],"parents":[2147483647,0,0,1,1,2,2,3,3,5,5,6,6,7,7,8,8,10,10,11,11,14,14,17,17,19,19,20,20,24,24],"right_children":[2,4,6,8,-1,10,12,14,16,-1,18,20,-1,-1,22,-1,-1,24,-1,26,28,-1,-1,-1,30,-1,-1,-1,-1,-1,-1],"split_conditions":[9E0,5E0,2.7E1,4E0,-3.1780444E-2,4E0,4.21E2,5E0,1E0,-5.3445455E-2,4.1E0,2.69E2,-3.1000692E-2,-3.9382946E-2,3E0,1.3135119E-1,4.1630413E-2,2.8E0,-4.8457425E-2,1E0,2E0,1.2655078E-1,-3.3666402E-2,-3.8766023E-2,4E0,1.7355246E-2,-3.0412538E-2,1.3223478E-1,3.8404793E-2,1.16912246E-1,1.6821973E-2],"split_indices":[6,7,6,5,0,5,2,6,13,0,3,2,0,0,5,0,0,3,0,14,7,0,0,0,7,0,0,0,0,0,0],"split_type":[0,0,0,0,0,0,0,0,0,0,0,0,0,0,0,0,0,0,0,0,0,0,0,0,0,0,0,0,0,0,0],"sum_hessian":[4.3085846E1,1.0457456E1,3.2628387E1,9.254332E0,1.2031237E0,2.5832035E1,6.7963543E0,5.444237E0,3.8100948E0,1.5644203E1,1.0187831E1,5.640153E0,1.1562018E0,2.1242652E0,3.319972E0,2.34684E0,1.4632547E0,4.679849E0,5.5079823E0,2.1942968E0,3.4458559E0,1.9236743E0,1.3962977E0,2.0578187E0,2.6220303E0,1.0708572E0,1.1234397E0,1.8515825E0,1.5942733E0,1.5350866E0,1.0869436E0],"tree_param":{"num_deleted":"0","num_feature":"16","num_nodes":"31","size_leaf_vector":"1"}},{"base_weights":[-2.1397215E-3,-5.3639274E-2,9.2803195E-2,5.41228E-1,-3.1393584E-2,-3.7571695E-2,7.3107535E-1,8.881714E-2,-4.4005117E-1,9.728561E-1,2.0267934E-1,4.4927633E-1,-1.0245618E-1,-5.3108513E-2,2.3010152E-4,1.1224762E-1,1.3600475E-2,6.996718E-2,-3.829016E-2,-1.1317541E-1,1.0809475E0,-1.9470063E-1,5.1337775E-2,3.162953E-2,-3.157177E-2,1.4981915E-2,1.2654132E-1,1.9901048E-2,-2.8675467E-2],"categories":[],"categories_nodes":[],"categories_segments":[],"categories_sizes":[],"default_left":[0,0,1,0,0,0,0,0,0,0,0,0,0,0,0,0,0,0,0,0,0,0,0,0,0,0,0,0,0],"id":22,"left_children":[1,-1,3,5,7,-1,9,11,13,15,17,19,21,-1,-1,-1,-1,-1,-1,23,25,27,-1,-1,-1,-1,-1,-1,-1],"loss_changes":[3.0087667E0,0E0,2.823107E0,2.1865964E0,2.0238576E0,0E0,1.0086555E0,2.255837E0,3.7779224E-1,6.251874E-1,1.4978533E0,4.1360273E0,1.3357419E0,0E0,0E0,0E0,0E0,0E0,0E0,6.984287E-1,7.4065924E-1,7.690575E-1,0E0,0E0,0E0,0E0,0E0,0E0,0E0],"parents":[2147483647,0,0,2,2,3,3,4,4,6,6,7,7,8,8,9,9,10,10,11,11,12,12,19,19,20,20,21,21],"right_children":[2,-1,4,6,8,-1,10,12,14,16,18,20,22,-1,-1,-1,-1,-1,-1,24,26,28,-1,-1,-1,-1,-1,-1,-1],"split_conditions":[1.6E0,-5.3639274E-2,1.4E0,7E0,2.5E1,-3.7571695E-2,7.8E1,6.5E1,4.6E0,1.3E1,1.3E0,3.8E0,9.8E1,-5.3108513E-2,2.3010152E-4,1.1224762E-1,1.3600475E-2,6.996718E-2,-3.829016E-2,3E0,3.2E0,1.57E2,5.1337775E-2,3.162953E-2,-3.157177E-2,1.4981915E-2,1.2654132E-1,1.9901048E-2,-2.8675467E-2],"split_indices":[1,0,3,6,6,0,0,0,3,6,3,1,0,0,0,0,0,0,0,5,3,2,0,0,0,0,0,0,0],"split_type":[0,0,0,0,0,0,0,0,0,0,0,0,0,0,0,0,0,0,0,0,0,0,0,0,0,0,0,0,0],"sum_hessian":[5.733559E1,7.95008E0,4.938551E1,9.983015E0,3.9402496E1,1.544445E0,8.43857E0,3.105115E1,8.351345E0,5.212371E0,3.2261996E0,1.0297116E1,2.0754034E1,6.7596483E0,1.5916971E0,4.1322584E0,1.0801125E0,1.6397134E0,1.5864861E0,5.88121E0,4.415906E0,1.8645071E1,2.1089628E0,1.7047758E0,4.176434E0,1.0298259E0,3.3860803E0,3.3131185E0,1.5331952E1],"tree_param":{"num_deleted":"0","num_feature":"16","num_nodes":"29","size_leaf_vector":"1"}},{"base_weights":[4.3135267E-3,3.2459226E-1,-2.3987101E-1,-3.4727308E-1,8.538719E-1,-4.5493287E-1,1.2805502E-1,4.7907647E-2,-5.2168753E-2,9.648111E-1,2.2781694E-3,-7.425751E-2,-5.4669138E-2,9.7033566E-1,-2.936633E-1,3.951973E-1,1.079267E0,-4.2977374E-2,5.582313E-2,1.3341315E-1,8.760773E-3,1.4731066E-1,-4.9268004E-2,-3.3865523E-2,9.436757E-2,3.7291282E-1,1.3123752E-1,-3.4593027E-2,6.465238E-2,-3.4523603E-2,9.67988E-2],"categories":[],"categories_nodes":[],"categories_segments":[],"categories_sizes":[],"default_left":[0,0,0,0,0,0,0,0,0,0,0,0,0,1,0,0,0,0,0,0,0,0,0,0,0,0,0,0,0,0,0],"id":23,"left_children":[1,3,5,7,9,11,13,-1,-1,15,-1,17,-1,19,21,23,25,-1,-1,-1,-1,27,-1,-1,-1,29,-1,-1,-1,-1,-1],"loss_changes":[4.0380015E0,8.2372265E0,2.377184E0,1.7705524E0,1.1563025E0,6.131244E-1,4.4022694E0,0E0,0E0,3.0695343E-1,0E0,1.3174686E0,0E0,1.1996531E0,8.178206E-1,1.7122732E0,9.5798206E-1,0E0,0E0,0E0,0E0,1.0634224E0,0E0,0E0,0E0,1.8632832E0,0E0,0E0,0E0,0E0,0E0],"parents":[2147483647,0,0,1,1,2,2,3,3,4,4,5,5,6,6,9,9,11,11,13,13,14,14,15,15,16,16,21,21,25,25],"right_children":[2,4,6,8,10,12,14,-1,-1,16,-1,18,-1,20,22,24,26,-1,-1,-1,-1,28,-1,-1,-1,30,-1,-1,-1,-1,-1],"split_conditions":[3E0,1.7E1,4E0,1.5E0,2.7E1,7E0,5E0,4.7907647E-2,-5.2168753E-2,2.5E0,2.2781694E-3,6E0,-5.4669138E-2,4E0,1.3E1,2.8E2,2.1E1,-4.2977374E-2,5.582313E-2,1.3341315E-1,8.760773E-3,2.09E2,-4.9268004E-2,-3.3865523E-2,9.436757E-2,4.35E2,1.3123752E-1,-3.4593027E-2,6.465238E-2,-3.4523603E-2,9.67988E-2],"split_indices":[5,6,7,3,6,6,7,0,0,3,0,6,0,3,6,2,6,0,0,0,0,2,0,0,0,2,0,0,0,0,0],"split_type":[0,0,0,0,0,0,0,0,0,0,0,0,0,0,0,0,0,0,0,0,0,0,0,0,0,0,0,0,0,0,0],"sum_hessian":[4.9636585E1,2.1330135E1,2.8306448E1,9.550565E0,1.1779572E1,1.771507E1,1.0591376E1,1.3600552E0,8.19051E0,1.0250386E1,1.5291855E0,3.792116E0,1.39229555E1,3.0996547E0,7.491722E0,2.4600863E0,7.7903E0,2.6327658E0,1.1593502E0,1.8328959E0,1.2667588E0,2.410479E0,5.081243E0,1.2158542E0,1.2442322E0,2.5780737E0,5.212226E0,1.3669406E0,1.0435385E0,1.3584787E0,1.2195951E0],"tree_param":{"num_deleted":"0","num_feature":"16","num_nodes":"31","size_leaf_vector":"1"}},{"base_weights":[-7.276068E-3,-4.4926044E-1,1.4218889E-1,5.0892155E-3,-5.9308242E-2,7.5412095E-2,6.510975E-1,5.1355045E-2,-2.7153E-1,1.4493819E-1,-5.231724E-2,9.565997E-2,-3.5485234E-2,-4.4118315E-2,7.860083E-3,8.4475406E-2,9.3043424E-2,-2.3829839E-1,1.9816352E-1,-5.6246657E-2,3.3657108E-2,7.253074E-2,4.848979E-3],"categories":[],"categories_nodes":[],"categories_segments":[],"categories_sizes":[],"default_left":[1,0,0,0,0,0,0,0,0,0,0,0,0,0,0,0,0,0,0,0,0,0,0],"id":24,"left_children":[1,3,5,7,-1,9,11,-1,13,15,-1,-1,-1,-1,-1,-1,17,19,21,-1,-1,-1,-1],"loss_changes":[4.681835E0,1.1730864E0,1.7519575E0,8.8442737E-1,0E0,2.0726967E0,2.188461E0,0E0,2.7730447E-1,1.5110474E0,0E0,0E0,0E0,0E0,0E0,0E0,1.5057101E0,2.1533217E0,2.5160112E0,0E0,0E0,0E0,0E0],"parents":[2147483647,0,0,1,1,2,2,3,3,5,5,6,6,8,8,9,9,16,16,17,17,18,18],"right_children":[2,4,6,8,-1,10,12,-1,14,16,-1,-1,-1,-1,-1,-1,18,20,22,-1,-1,-1,-1],"split_conditions":[1.7E0,1.7E0,2.8E1,1E0,-5.9308242E-2,2.6E1,3.3E0,5.1355045E-2,1.5E0,1.01E2,-5.231724E-2,9.565997E-2,-3.5485234E-2,-4.4118315E-2,7.860083E-3,8.4475406E-2,1E1,3.95E2,1.4E1,-5.6246657E-2,3.3657108E-2,7.253074E-2,4.848979E-3],"split_indices":[3,1,6,7,0,6,3,0,1,2,0,0,0,0,0,0,6,2,6,0,0,0,0],"split_type":[0,0,0,0,0,0,0,0,0,0,0,0,0,0,0,0,0,0,0,0,0,0,0],"sum_hessian":[6.890423E1,1.690588E1,5.199835E1,4.2967095E0,1.2609171E1,4.6981785E1,5.0165634E0,1.2121322E0,3.0845776E0,4.2771683E1,4.210102E0,3.8855872E0,1.1309764E0,1.9026239E0,1.1819534E0,1.8980268E0,4.0873653E1,9.539124E0,3.1334532E1,6.1133747E0,3.425749E0,6.0789237E0,2.5255608E1],"tree_param":{"num_deleted":"0","num_feature":"16","num_nodes":"23","size_leaf_vector":"1"}},{"base_weights":[2.293925E-3,1.5179573E-1,-3.0054995E-1,-3.0007622E-1,3.638037E-1,-4.320485E-1,2.7139938E-1,5.624038E-2,-4.434133E-1,7.4784017E-1,-8.736347E-2,1.1574987E-1,-5.5217415E-2,-3.0751277E-2,5.941993E-2,8.209143E-3,-5.2580446E-2,8.803459E-1,-3.3687633E-2,-3.898344E-1,3.5638517E-1,4.694588E-2,-3.249831E-2,1.1260172E0,1.7070639E-1,-4.9672518E-2,1.1232E-2,-3.994667E-2,8.3369184E-1,1.2840597E-1,2.9522697E-2,-3.0927543E-2,4.2195197E-2,1.0352483E-1,1.5568159E-2],"categories":[],"categories_nodes":[],"categories_segments":[],"categories_sizes":[],"default_left":[0,0,1,0,0,0,0,0,0,0,0,0,0,0,0,0,0,0,0,0,0,0,0,0,0,0,0,0,0,0,0,0,0,0,0],"id":25,"left_children":[1,3,5,7,9,11,13,-1,15,17,19,21,-1,-1,-1,-1,-1,23,-1,25,27,-1,-1,29,31,-1,-1,-1,33,-1,-1,-1,-1,-1,-1],"loss_changes":[2.438057E0,3.5619707E0,1.4559944E0,1.7400237E0,4.3941493E0,1.0416565E0,9.193001E-1,0E0,5.150397E-1,2.2513933E0,1.8010254E0,6.9802177E-1,0E0,0E0,0E0,0E0,0E0,1.9690142E0,0E0,4.7668707E-1,2.3323698E0,0E0,0E0,8.065624E-1,6.570937E-1,0E0,0E0,0E0,3.4729695E-1,0E0,0E0,0E0,0E0,0E0,0E0],"parents":[2147483647,0,0,1,1,2,2,3,3,4,4,5,5,6,6,8,8,9,9,10,10,11,11,17,17,19,19,20,20,23,23,24,24,28,28],"right_children":[2,4,6,8,10,12,14,-1,16,18,20,22,-1,-1,-1,-1,-1,24,-1,26,28,-1,-1,30,32,-1,-1,-1,34,-1,-1,-1,-1,-1,-1],"split_conditions":[4E0,1.3E1,4.6E0,1.2E0,2.2E1,1.62E2,6.4E1,5.624038E-2,5.7E1,1E0,3.35E2,5E0,-5.5217415E-2,-3.0751277E-2,5.941993E-2,8.209143E-3,-5.2580446E-2,1E0,-3.3687633E-2,1E0,2E0,4.694588E-2,-3.249831E-2,4.44E2,3.4E0,-4.9672518E-2,1.1232E-2,-3.994667E-2,5E0,1.2840597E-1,2.9522697E-2,-3.0927543E-2,4.2195197E-2,1.0352483E-1,1.5568159E-2],"split_indices":[7,6,3,3,6,2,0,0,0,11,2,7,0,0,0,0,0,10,0,10,7,0,0,2,3,0,0,0,5,0,0,0,0,0,0],"split_type":[0,0,0,0,0,0,0,0,0,0,0,0,0,0,0,0,0,0,0,0,0,0,0,0,0,0,0,0,0,0,0,0,0,0,0],"sum_hessian":[5.1841465E1,3.5041603E1,1.679986E1,1.1057771E1,2.3983833E1,1.3858269E1,2.9415917E0,1.1591789E0,9.898591E0,1.26005745E1,1.1383259E1,2.4989505E0,1.1359319E1,1.070001E0,1.8715907E0,1.3420984E0,8.556493E0,1.1396787E1,1.2037882E0,6.8414445E0,4.5418143E0,1.3501856E0,1.1487647E0,8.03009E0,3.366696E0,5.6496477E0,1.1917968E0,1.8210782E0,2.720736E0,6.2882743E0,1.741816E0,1.0774183E0,2.2892778E0,1.6911155E0,1.0296206E0],"tree_param":{"num_deleted":"0","num_feature":"16","num_nodes":"35","size_leaf_vector":"1"}},{"base_weights":[7.4837287E-3,5.175901E-1,-1.7441873E-1,6.4066505E-1,-3.1392105E-2,-3.614402E-1,4.5692357E-1,3.9413877E-2,8.7384474E-1,-5.2887615E-2,-8.8005915E-2,6.261538E-1,-3.0383695E-2,6.400195E-2,-3.8875885E-2,7.574069E-3,1.0336854E0,3.6015913E-1,-4.7939822E-2,-8.652393E-2,9.7700185E-1,1.1970227E-1,3.5492532E-2,-3.8028218E-2,8.541729E-1,1.6638985E-2,-2.9763598E-2,3.50772E-2,1.2078837E-1,1.0835E-1,1.6091568E-2],"categories":[],"categories_nodes":[],"categories_segments":[],"categories_sizes":[],"default_left":[0,0,0,0,0,0,0,0,0,0,0,0,0,0,0,0,0,0,0,0,0,0,0,0,0,0,0,0,0,0,0],"id":26,"left_children":[1,3,5,7,-1,9,11,13,15,-1,17,19,-1,-1,-1,-1,21,23,-1,25,27,-1,-1,-1,29,-1,-1,-1,-1,-1,-1],"loss_changes":[4.133222E0,1.399008E0,4.0457764E0,1.4411464E0,0E0,1.1398399E0,1.2140876E0,1.2744806E0,8.831377E-1,0E0,2.1093647E0,1.7928493E0,0E0,0E0,0E0,0E0,2.625122E-1,2.4164994E0,0E0,2.1891353E-1,2.500205E-1,0E0,0E0,0E0,4.199159E-1,0E0,0E0,0E0,0E0,0E0,0E0],"parents":[2147483647,0,0,1,1,2,2,3,3,5,5,6,6,7,7,8,8,10,10,11,11,16,16,17,17,19,19,20,20,24,24],"right_children":[2,4,6,8,-1,10,12,14,16,-1,18,20,-1,-1,-1,-1,22,24,-1,26,28,-1,-1,-1,30,-1,-1,-1,-1,-1,-1],"split_conditions":[9E0,5E0,2.7E1,1.5E0,-3.1392105E-2,4E0,4.21E2,3E0,2E0,-5.2887615E-2,4.1E0,2.69E2,-3.0383695E-2,6.400195E-2,-3.8875885E-2,7.574069E-3,8.3E1,2.8E0,-4.7939822E-2,4E0,5E0,1.1970227E-1,3.5492532E-2,-3.8028218E-2,4E0,1.6638985E-2,-2.9763598E-2,3.50772E-2,1.2078837E-1,1.0835E-1,1.6091568E-2],"split_indices":[6,7,6,3,0,5,2,5,5,0,3,2,0,0,0,0,0,3,0,5,5,0,0,0,7,0,0,0,0,0,0],"split_type":[0,0,0,0,0,0,0,0,0,0,0,0,0,0,0,0,0,0,0,0,0,0,0,0,0,0,0,0,0,0,0],"sum_hessian":[4.25711E1,1.070521E1,3.186589E1,9.524911E0,1.1802989E0,2.4913355E1,6.952536E0,2.9883947E0,6.5365157E0,1.4872231E1,1.0041123E1,5.832124E0,1.1204118E0,1.0378352E0,1.9505596E0,1.3365935E0,5.1999226E0,4.718262E0,5.322861E0,2.1725037E0,3.6596208E0,3.5758777E0,1.6240447E0,1.9803215E0,2.7379405E0,1.0847756E0,1.087728E0,1.66442E0,1.9952008E0,1.6343808E0,1.1035596E0],"tree_param":{"num_deleted":"0","num_feature":"16","num_nodes":"31","size_leaf_vector":"1"}},{"base_weights":[-2.739684E-3,-5.282995E-2,8.7571956E-2,5.0042725E-1,-2.9486932E-2,-3.6833744E-2,6.737431E-1,1.01077445E-1,-3.797215E-1,8.9415026E-1,1.8618631E-1,-4.697734E-2,1.9302294E-1,-5.4758854E-2,4.8887547E-2,1.026505E-1,1.3064935E-2,6.492927E-2,-3.7771884E-2,6.582392E-1,4.3587167E-2,9.9546984E-2,-7.754476E-3,-1.7312434E-2,6.440918E-2],"categories":[],"categories_nodes":[],"categories_segments":[],"categories_sizes":[],"default_left":[0,0,1,0,0,0,0,0,0,0,0,0,0,0,0,0,0,0,0,0,0,0,0,0,0],"id":27,"left_children":[1,-1,3,5,7,-1,9,11,13,15,17,-1,19,-1,-1,-1,-1,-1,-1,21,23,-1,-1,-1,-1],"loss_changes":[2.7900958E0,0E0,2.44032E0,1.9259038E0,1.8696431E0,0E0,8.6974573E-1,1.6632715E0,1.8840214E0,5.103793E-1,1.3590559E0,0E0,1.8145554E0,0E0,0E0,0E0,0E0,0E0,0E0,1.6590686E0,2.8624187E0,0E0,0E0,0E0,0E0],"parents":[2147483647,0,0,2,2,3,3,4,4,6,6,7,7,8,8,9,9,10,10,12,12,19,19,20,20],"right_children":[2,-1,4,6,8,-1,10,12,14,16,18,-1,20,-1,-1,-1,-1,-1,-1,22,24,-1,-1,-1,-1],"split_conditions":[1.6E0,-5.282995E-2,1.4E0,7E0,2.4E1,-3.6833744E-2,7.8E1,1E0,1E0,1.3E1,1.3E0,-4.697734E-2,5.8E1,-5.4758854E-2,4.8887547E-2,1.026505E-1,1.3064935E-2,6.492927E-2,-3.7771884E-2,2.82E2,2E1,9.9546984E-2,-7.754476E-3,-1.7312434E-2,6.440918E-2],"split_indices":[1,0,3,6,6,0,0,7,11,6,3,0,0,0,0,0,0,0,0,2,6,0,0,0,0],"split_type":[0,0,0,0,0,0,0,0,0,0,0,0,0,0,0,0,0,0,0,0,0,0,0,0,0],"sum_hessian":[5.680848E1,7.619251E0,4.9189228E1,1.0142526E1,3.9046703E1,1.49973E0,8.642796E0,2.8961506E1,1.0085196E1,5.3777604E0,3.2650352E0,3.447593E0,2.5513914E1,8.761499E0,1.323696E0,4.289665E0,1.0880954E0,1.7096035E0,1.5554316E0,5.3752165E0,2.0138697E1,3.4438603E0,1.9313562E0,1.5321236E1,4.817461E0],"tree_param":{"num_deleted":"0","num_feature":"16","num_nodes":"25","size_leaf_vector":"1"}},{"base_weights":[5.268834E-3,3.095698E-1,-2.3238923E-1,-3.3786154E-1,7.918698E-1,-4.4668967E-1,1.1997662E-1,4.539853E-2,-5.1490474E-2,8.922566E-1,2.1042945E-3,-7.380347E-2,-5.397425E-2,8.924316E-1,-2.8856894E-1,3.757113E-1,9.923306E-1,-4.2330127E-2,5.2280676E-2,1.2133211E-1,8.134451E-3,1.383389E-1,-4.87147E-2,-3.2994613E-2,8.7690435E-2,3.5846806E-1,1.1914194E-1,-3.4128975E-2,6.090452E-2,-3.403243E-2,9.167537E-2],"categories":[],"categories_nodes":[],"categories_segments":[],"categories_sizes":[],"default_left":[0,0,0,0,0,0,0,0,0,0,0,0,0,1,0,0,0,0,0,0,0,0,0,0,0,0,0,0,0,0,0],"id":28,"left_children":[1,3,5,7,9,11,13,-1,-1,15,-1,17,-1,19,21,23,25,-1,-1,-1,-1,27,-1,-1,-1,29,-1,-1,-1,-1,-1],"loss_changes":[3.6868277E0,7.245844E0,2.2160258E0,1.6695473E0,9.9540615E-1,5.853832E-1,3.9240048E0,0E0,0E0,2.2535801E-1,0E0,1.213192E0,0E0,1.0109391E0,7.756563E-1,1.5227156E0,7.193489E-1,0E0,0E0,0E0,0E0,9.825168E-1,0E0,0E0,0E0,1.7171212E0,0E0,0E0,0E0,0E0,0E0],"parents":[2147483647,0,0,1,1,2,2,3,3,4,4,5,5,6,6,9,9,11,11,13,13,14,14,15,15,16,16,21,21,25,25],"right_children":[2,4,6,8,10,12,14,-1,-1,16,-1,18,-1,20,22,24,26,-1,-1,-1,-1,28,-1,-1,-1,30,-1,-1,-1,-1,-1],"split_conditions":[3E0,1.7E1,4E0,1.5E0,2.7E1,7E0,5E0,4.539853E-2,-5.1490474E-2,2.5E0,2.1042945E-3,6E0,-5.397425E-2,4E0,1.3E1,2.8E2,2.1E1,-4.2330127E-2,5.2280676E-2,1.2133211E-1,8.134451E-3,2.09E2,-4.87147E-2,-3.2994613E-2,8.7690435E-2,4.35E2,1.1914194E-1,-3.4128975E-2,6.090452E-2,-3.403243E-2,9.167537E-2],"split_indices":[5,6,7,3,6,6,7,0,0,3,0,6,0,3,6,2,6,0,0,0,0,2,0,0,0,2,0,0,0,0,0],"split_type":[0,0,0,0,0,0,0,0,0,0,0,0,0,0,0,0,0,0,0,0,0,0,0,0,0,0,0,0,0,0,0],"sum_hessian":[4.8984898E1,2.1348005E1,2.7636892E1,9.24165E0,1.2106356E1,1.701879E1,1.0618104E1,1.4028727E0,7.838777E0,1.0572003E1,1.534352E0,3.7569351E0,1.3261853E1,3.2634137E0,7.3546906E0,2.4873817E0,8.084622E0,2.5522823E0,1.2046527E0,1.9829729E0,1.2804408E0,2.4312606E0,4.92343E0,1.1748806E0,1.312501E0,2.6017299E0,5.482892E0,1.3403972E0,1.0908635E0,1.3288515E0,1.2728785E0],"tree_param":{"num_deleted":"0","num_feature":"16","num_nodes":"31","size_leaf_vector":"1"}},{"base_weights":[-7.968949E-3,-4.3710726E-1,1.3294038E-1,4.3894364E-3,-5.820712E-2,7.069609E-2,6.0101175E-1,3.3294177E-1,-4.148749E-2,1.3603008E-1,-5.1102813E-2,8.8750415E-2,-3.519544E-2,5.532678E-3,4.57719E-2,7.9378836E-2,8.657406E-2,-2.3161894E-1,1.8571958E-1,-5.5292048E-2,3.1868953E-2,6.64175E-2,4.6942066E-3],"categories":[],"categories_nodes":[],"categories_segments":[],"categories_sizes":[],"default_left":[1,0,0,0,0,0,0,0,0,0,0,0,0,0,0,0,0,0,0,0,0,0,0],"id":29,"left_children":[1,3,5,7,-1,9,11,13,-1,15,-1,-1,-1,-1,-1,-1,17,19,21,-1,-1,-1,-1],"loss_changes":[4.2488475E0,1.1138818E0,1.4998779E0,8.660941E-1,0E0,1.8884534E0,1.972378E0,9.652692E-2,0E0,1.3566248E0,0E0,0E0,0E0,0E0,0E0,0E0,1.3640493E0,2.013845E0,2.12556E0,0E0,0E0,0E0,0E0],"parents":[2147483647,0,0,1,1,2,2,3,3,5,5,6,6,7,7,9,9,16,16,17,17,18,18],"right_children":[2,4,6,8,-1,10,12,14,-1,16,-1,-1,-1,-1,-1,-1,18,20,22,-1,-1,-1,-1],"split_conditions":[1.7E0,1.7E0,2.8E1,1.2E1,-5.820712E-2,2.6E1,3.3E0,2.28E2,-4.148749E-2,1.01E2,-5.1102813E-2,8.8750415E-2,-3.519544E-2,5.532678E-3,4.57719E-2,7.9378836E-2,1E1,3.95E2,1.4E1,-5.5292048E-2,3.1868953E-2,6.64175E-2,4.6942066E-3],"split_indices":[3,1,6,6,0,6,3,2,0,2,0,0,0,0,0,0,6,2,6,0,0,0,0],"split_type":[0,0,0,0,0,0,0,0,0,0,0,0,0,0,0,0,0,0,0,0,0,0,0],"sum_hessian":[6.830323E1,1.6364185E1,5.193905E1,4.284671E0,1.2079514E1,4.6858788E1,5.08026E0,2.5176387E0,1.7670323E0,4.281622E1,4.042568E0,3.958808E0,1.1214521E0,1.2282741E0,1.2893646E0,1.9416844E0,4.0874535E1,9.392983E0,3.1481552E1,5.9274516E0,3.4655313E0,6.2270403E0,2.5254513E1],"tree_param":{"num_deleted":"0","num_feature":"16","num_nodes":"23","size_leaf_vector":"1"}},{"base_weights":[1.7916419E-3,1.445723E-1,-2.930004E-1,-2.9139832E-1,3.4279573E-1,-4.2343447E-1,2.501814E-1,5.26187E-2,-4.349121E-1,-4.790208E-2,5.1911014E-1,1.0857551E-1,-5.4504033E-2,-3.0394798E-2,5.5173527E-2,8.575853E-3,-5.1935602E-2,7.898658E-1,2.5125392E-2,-3.249174E-2,4.5754667E-2,9.0789354E-1,-3.1016085E-2,-3.0036387E-1,4.3722987E-1,1.0589003E-1,2.8096274E-2,8.6271325E-3,-4.398186E-2,-3.4829997E-2,9.515243E-2],"categories":[],"categories_nodes":[],"categories_segments":[],"categories_sizes":[],"default_left":[0,0,1,0,0,0,0,0,0,0,0,0,0,0,0,0,0,0,0,0,0,1,0,0,0,0,0,0,0,0,0],"id":30,"left_children":[1,3,5,7,9,11,13,-1,15,-1,17,19,-1,-1,-1,-1,-1,21,23,-1,-1,25,-1,27,29,-1,-1,-1,-1,-1,-1],"loss_changes":[2.2413418E0,3.1994424E0,1.3371354E0,1.6076319E0,3.887844E0,9.8977184E-1,8.350105E-1,0E0,5.081186E-1,0E0,2.810132E0,6.796578E-1,0E0,0E0,0E0,0E0,0E0,2.051838E0,1.2747166E0,0E0,0E0,8.923273E-1,0E0,3.2669312E-1,2.0155811E0,0E0,0E0,0E0,0E0,0E0,0E0],"parents":[2147483647,0,0,1,1,2,2,3,3,4,4,5,5,6,6,8,8,10,10,11,11,17,17,18,18,21,21,23,23,24,24],"right_children":[2,4,6,8,10,12,14,-1,16,-1,18,20,-1,-1,-1,-1,-1,22,24,-1,-1,26,-1,28,30,-1,-1,-1,-1,-1,-1],"split_conditions":[4E0,1.3E1,4.6E0,1.2E0,1E0,1.62E2,6.4E1,5.26187E-2,5.7E1,-4.790208E-2,2.3E1,6E0,-5.4504033E-2,-3.0394798E-2,5.5173527E-2,8.575853E-3,-5.1935602E-2,1E0,3.35E2,-3.249174E-2,4.5754667E-2,4.4E0,-3.1016085E-2,2.6E0,2.4E1,1.0589003E-1,2.8096274E-2,8.6271325E-3,-4.398186E-2,-3.4829997E-2,9.515243E-2],"split_indices":[7,6,3,3,7,2,0,0,0,0,6,6,0,0,0,0,0,11,2,0,0,3,0,1,6,0,0,0,0,0,0],"split_type":[0,0,0,0,0,0,0,0,0,0,0,0,0,0,0,0,0,0,0,0,0,0,0,0,0,0,0,0,0,0,0],"sum_hessian":[5.1244015E1,3.4866314E1,1.63777E1,1.0750883E1,2.4115433E1,1.3384211E1,2.9934907E0,1.2071872E0,9.543695E0,3.9565876E0,2.0158844E1,2.5100815E0,1.0874129E1,1.052147E0,1.9413438E0,1.3296534E0,8.214043E0,1.2634721E1,7.524124E0,1.1502124E0,1.359869E0,1.1568172E1,1.0665485E0,4.3553324E0,3.1687918E0,8.76738E0,2.800792E0,1.2555935E0,3.0997388E0,1.3814839E0,1.787308E0],"tree_param":{"num_deleted":"0","num_feature":"16","num_nodes":"31","size_leaf_vector":"1"}},{"base_weights":[8.168182E-3,4.7907585E-1,-1.6759296E-1,5.920324E-1,-3.095187E-2,-3.5317507E-1,4.265528E-1,3.955726E-2,7.9689485E-1,-5.235042E-2,-8.343277E-2,6.646231E-1,-1.1611692E-1,6.121117E-2,-3.8336948E-2,6.746938E-3,9.3983805E-1,3.4848484E-1,-4.7389437E-2,-2.8926631E-2,9.357035E-1,-3.3307076E-2,1.8209642E-2,1.16176106E-1,3.9820585E-1,-3.7276346E-2,8.040479E-1,1.1152238E-1,3.6430296E-2,6.4874613E-3,5.6802977E-2,1.00911714E-1,1.583541E-2],"categories":[],"categories_nodes":[],"categories_segments":[],"categories_sizes":[],"default_left":[0,0,0,0,0,0,0,0,0,0,0,0,0,0,0,0,0,0,0,0,0,0,0,0,0,0,0,0,0,0,0,0,0],"id":31,"left_children":[1,3,5,7,-1,9,11,13,15,-1,17,19,21,-1,-1,-1,23,25,-1,-1,27,-1,-1,-1,29,-1,31,-1,-1,-1,-1,-1,-1],"loss_changes":[3.641533E0,1.2480457E0,3.6871586E0,1.1907618E0,0E0,1.1043384E0,1.1219251E0,1.1968405E0,7.52563E-1,0E0,1.9967691E0,1.7625668E0,2.752655E-1,0E0,0E0,0E0,3.146205E-1,2.183384E0,0E0,0E0,7.880449E-2,0E0,0E0,0E0,1.5566498E-1,0E0,3.4738278E-1,0E0,0E0,0E0,0E0,0E0,0E0],"parents":[2147483647,0,0,1,1,2,2,3,3,5,5,6,6,7,7,8,8,10,10,11,11,12,12,16,16,17,17,20,20,24,24,26,26],"right_children":[2,4,6,8,-1,10,12,14,16,-1,18,20,22,-1,-1,-1,24,26,-1,-1,28,-1,-1,-1,30,-1,32,-1,-1,-1,-1,-1,-1],"split_conditions":[9E0,5E0,2.7E1,1.5E0,-3.095187E-2,4E0,3E0,3E0,2E0,-5.235042E-2,4.1E0,1.79E2,3.9E0,6.121117E-2,-3.8336948E-2,6.746938E-3,3E0,2.8E0,-4.7389437E-2,-2.8926631E-2,2E0,-3.3307076E-2,1.8209642E-2,1.16176106E-1,3.2E0,-3.7276346E-2,4E0,1.1152238E-1,3.6430296E-2,6.4874613E-3,5.6802977E-2,1.00911714E-1,1.583541E-2],"split_indices":[6,7,6,3,0,5,7,5,5,0,3,2,1,0,0,0,7,3,0,0,7,0,0,0,1,0,7,0,0,0,0,0,0],"split_type":[0,0,0,0,0,0,0,0,0,0,0,0,0,0,0,0,0,0,0,0,0,0,0,0,0,0,0,0,0,0,0,0,0],"sum_hessian":[4.2027187E1,1.0953724E1,3.1073463E1,9.799344E0,1.1543798E0,2.398675E1,7.086714E0,2.9734926E0,6.825852E0,1.4126068E1,9.860682E0,4.769567E0,2.3171468E0,1.0732343E0,1.9002582E0,1.3596566E0,5.4661956E0,4.732846E0,5.1278353E0,1.0406383E0,3.7289288E0,1.2736578E0,1.043489E0,3.0653172E0,2.4008784E0,1.9025217E0,2.8303242E0,2.1132572E0,1.6156716E0,1.2767934E0,1.124085E0,1.7209251E0,1.1093991E0],"tree_param":{"num_deleted":"0","num_feature":"16","num_nodes":"33","size_leaf_vector":"1"}},{"base_weights":[-3.3349644E-3,-5.203057E-2,8.255056E-2,4.659324E-1,-2.8055238E-2,-3.6224782E-2,6.269906E-1,-5.0355162E-2,6.1581213E-2,8.2930493E-1,1.7422226E-1,2.1594591E-1,-2.3979263E-1,9.48595E-2,1.2612276E-2,6.0888737E-2,-3.7172947E-2,8.1969845E-1,2.4301277E-2,-5.2683365E-2,1.6927338E-1,1.9478031E-3,1.077197E-1,6.6715345E-2,-1.52303595E-2,8.918953E-2,-4.421563E-2],"categories":[],"categories_nodes":[],"categories_segments":[],"categories_sizes":[],"default_left":[0,0,1,0,0,0,0,0,0,0,0,0,0,0,0,0,0,0,0,0,0,0,0,0,0,0,0],"id":32,"left_children":[1,-1,3,5,7,-1,9,-1,11,13,15,17,19,-1,-1,-1,-1,21,23,-1,25,-1,-1,-1,-1,-1,-1],"loss_changes":[2.5825312E0,0E0,2.129546E0,1.7253428E0,1.7222246E0,0E0,7.5043774E-1,0E0,1.6463985E0,4.2446518E-1,1.2427741E0,2.6636572E0,1.5080559E0,0E0,0E0,0E0,0E0,1.1241996E0,2.2173066E0,0E0,2.930321E0,0E0,0E0,0E0,0E0,0E0,0E0],"parents":[2147483647,0,0,2,2,3,3,4,4,6,6,8,8,9,9,10,10,11,11,12,12,17,17,18,18,20,20],"right_children":[2,-1,4,6,8,-1,10,-1,12,14,16,18,20,-1,-1,-1,-1,22,24,-1,26,-1,-1,-1,-1,-1,-1],"split_conditions":[1.6E0,-5.203057E-2,1.4E0,7E0,1E0,-3.6224782E-2,7.8E1,-5.0355162E-2,3.33E2,1.3E1,1.3E0,2E0,4.2E0,9.48595E-2,1.2612276E-2,6.0888737E-2,-3.7172947E-2,2.7E0,1.57E2,-5.2683365E-2,4.6E0,1.9478031E-3,1.077197E-1,6.6715345E-2,-1.52303595E-2,8.918953E-2,-4.421563E-2],"split_indices":[1,0,3,6,7,0,0,0,2,6,3,5,3,0,0,0,0,3,2,0,3,0,0,0,0,0,0],"split_type":[0,0,0,0,0,0,0,0,0,0,0,0,0,0,0,0,0,0,0,0,0,0,0,0,0,0,0],"sum_hessian":[5.619735E1,7.285516E0,4.8911835E1,1.0232252E1,3.867958E1,1.4625381E0,8.769714E0,5.402598E0,3.3276985E1,5.486502E0,3.2832117E0,2.2193077E1,1.1083907E1,4.3923645E0,1.0941379E0,1.763726E0,1.5194858E0,4.5576353E0,1.763544E1,6.3442574E0,4.7396502E0,1.3714046E0,3.1862307E0,3.2020667E0,1.4433374E1,1.9620659E0,2.7775843E0],"tree_param":{"num_deleted":"0","num_feature":"16","num_nodes":"27","size_leaf_vector":"1"}},{"base_weights":[6.227483E-3,2.9431957E-1,-2.2443835E-1,-3.299567E-1,7.3882395E-1,-4.383836E-1,1.139718E-1,4.2924248E-2,-5.089543E-2,8.3238375E-1,1.6068555E-3,-7.36008E-2,-5.3275324E-2,8.2876134E-1,-2.828649E-1,3.556424E-1,9.229163E-1,-4.164838E-2,4.8760112E-2,1.12491906E-1,7.0336424E-3,1.3257375E-1,-4.8162416E-2,-3.226223E-2,8.1825756E-2,3.501819E-1,1.0935008E-1,-3.3695113E-2,5.81622E-2,-3.3258405E-2,8.715358E-2],"categories":[],"categories_nodes":[],"categories_segments":[],"categories_sizes":[],"default_left":[0,0,0,0,0,0,0,0,0,0,0,0,0,0,0,0,0,0,0,0,0,0,0,0,0,0,0,0,0,0,0],"id":33,"left_children":[1,3,5,7,9,11,13,-1,-1,15,-1,17,-1,19,21,23,25,-1,-1,-1,-1,27,-1,-1,-1,29,-1,-1,-1,-1,-1],"loss_changes":[3.3374438E0,6.438032E0,2.070424E0,1.5740193E0,8.8916826E-1,5.564587E-1,3.5255978E0,0E0,0E0,1.8096733E-1,0E0,1.1107019E0,0E0,9.083879E-1,7.414591E-1,1.3652626E0,5.2450323E-1,0E0,0E0,0E0,0E0,9.212139E-1,0E0,0E0,0E0,1.5722487E0,0E0,0E0,0E0,0E0,0E0],"parents":[2147483647,0,0,1,1,2,2,3,3,4,4,5,5,6,6,9,9,11,11,13,13,14,14,15,15,16,16,21,21,25,25],"right_children":[2,4,6,8,10,12,14,-1,-1,16,-1,18,-1,20,22,24,26,-1,-1,-1,-1,28,-1,-1,-1,30,-1,-1,-1,-1,-1],"split_conditions":[3E0,1.7E1,4E0,1.5E0,2.7E1,7E0,5E0,4.2924248E-2,-5.089543E-2,2.5E0,1.6068555E-3,6E0,-5.3275324E-2,4.1E0,1.3E1,2.8E2,2.1E1,-4.164838E-2,4.8760112E-2,1.12491906E-1,7.0336424E-3,2.09E2,-4.8162416E-2,-3.226223E-2,8.1825756E-2,4.35E2,1.0935008E-1,-3.3695113E-2,5.81622E-2,-3.3258405E-2,8.715358E-2],"split_indices":[5,6,7,3,6,6,7,0,0,3,0,6,0,3,6,2,6,0,0,0,0,2,0,0,0,2,0,0,0,0,0],"split_type":[0,0,0,0,0,0,0,0,0,0,0,0,0,0,0,0,0,0,0,0,0,0,0,0,0,0,0,0,0,0,0],"sum_hessian":[4.822859E1,2.132215E1,2.6906439E1,8.975028E0,1.2347121E1,1.6303703E1,1.0602735E1,1.4456065E0,7.5294213E0,1.0797692E1,1.5494292E0,3.716728E0,1.2586975E1,3.396492E0,7.2062426E0,2.5097528E0,8.287939E0,2.4671943E0,1.2495338E0,2.0951324E0,1.3013597E0,2.439756E0,4.7664866E0,1.1403853E0,1.3693675E0,2.6025972E0,5.685342E0,1.3147187E0,1.1250372E0,1.2836297E0,1.3189676E0],"tree_param":{"num_deleted":"0","num_feature":"16","num_nodes":"31","size_leaf_vector":"1"}},{"base_weights":[-8.179844E-3,-4.250457E-1,1.246802E-1,1.7931512E-2,-5.204232E-1,6.6564046E-2,5.5814517E-1,-5.775335E-2,5.1576755E-4,1.284511E-1,-5.0073422E-2,8.291619E-2,-3.4828357E-2,7.4398786E-2,8.156609E-2,3.0192522E-2,6.7705534E-2,1.3022251E-2,-4.528901E-2],"categories":[],"categories_nodes":[],"categories_segments":[],"categories_sizes":[],"default_left":[1,0,0,0,0,0,0,0,0,0,0,0,0,0,0,0,0,0,0],"id":34,"left_children":[1,3,5,-1,7,9,11,-1,-1,13,-1,-1,-1,-1,15,17,-1,-1,-1],"loss_changes":[3.8506217E0,1.0616322E0,1.2921786E0,0E0,4.4616985E-1,1.7378068E0,1.7880661E0,0E0,0E0,1.2025983E0,0E0,0E0,0E0,0E0,1.258276E0,1.9689618E0,0E0,0E0,0E0],"parents":[2147483647,0,0,1,1,2,2,4,4,5,5,6,6,9,9,14,14,15,15],"right_children":[2,4,6,-1,8,10,12,-1,-1,14,-1,-1,-1,-1,16,18,-1,-1,-1],"split_conditions":[1.7E0,1.4E0,2.8E1,1.7931512E-2,9.6E1,2.6E1,3.3E0,-5.775335E-2,5.1576755E-4,1.01E2,-5.0073422E-2,8.291619E-2,-3.4828357E-2,7.4398786E-2,4.73E2,4.37E2,6.7705534E-2,1.3022251E-2,-4.528901E-2],"split_indices":[3,1,6,0,0,6,3,0,0,2,0,0,0,0,2,2,0,0,0],"split_type":[0,0,0,0,0,0,0,0,0,0,0,0,0,0,0,0,0,0,0],"sum_hessian":[6.7568016E1,1.5798608E1,5.176941E1,2.033465E0,1.3765142E1,4.6666264E1,5.1031456E0,1.2326844E1,1.4382988E0,4.2773624E1,3.8926375E0,3.9941592E0,1.1089866E0,1.9750844E0,4.0798542E1,3.8525593E1,2.2729468E0,3.252186E1,6.0037374E0],"tree_param":{"num_deleted":"0","num_feature":"16","num_nodes":"19","size_leaf_vector":"1"}},{"base_weights":[3.9735212E-4,1.3670498E-1,-2.859229E-1,-2.8224307E-1,3.2122257E-1,-4.1486552E-1,2.2835302E-1,2.6062652E-1,-5.0901026E-2,-4.7033172E-2,4.8292026E-1,1.0871831E-1,-5.3867966E-2,-3.008595E-2,5.1054884E-2,8.039217E-2,-3.6860514E-2,7.267238E-1,2.2190057E-2,-3.1723637E-2,4.4105336E-2,8.3185405E-1,-3.0251343E-2,-4.304735E-2,3.0025285E-1,9.748361E-2,2.4572995E-2,7.7598326E-2,-3.877069E-2],"categories":[],"categories_nodes":[],"categories_segments":[],"categories_sizes":[],"default_left":[0,0,1,0,0,0,0,0,0,0,0,0,0,0,0,0,0,0,0,0,0,0,0,0,0,0,0,0,0],"id":35,"left_children":[1,3,5,7,9,11,13,15,-1,-1,17,19,-1,-1,-1,-1,-1,21,23,-1,-1,25,-1,-1,27,-1,-1,-1,-1],"loss_changes":[2.0534089E0,2.8459764E0,1.2200384E0,1.5398238E0,3.4541204E0,9.6114993E-1,7.579632E-1,1.6737773E0,0E0,0E0,2.390945E0,6.3464385E-1,0E0,0E0,0E0,0E0,0E0,1.7645574E0,1.1924648E0,0E0,0E0,8.45973E-1,0E0,0E0,2.206222E0,0E0,0E0,0E0,0E0],"parents":[2147483647,0,0,1,1,2,2,3,3,4,4,5,5,6,6,7,7,10,10,11,11,17,17,18,18,21,21,24,24],"right_children":[2,4,6,8,10,12,14,16,-1,-1,18,20,-1,-1,-1,-1,-1,22,24,-1,-1,26,-1,-1,28,-1,-1,-1,-1],"split_conditions":[4E0,1.3E1,4.6E0,1.5E0,1E0,1.62E2,6.4E1,2.8E2,-5.0901026E-2,-4.7033172E-2,2.3E1,6E0,-5.3867966E-2,-3.008595E-2,5.1054884E-2,8.039217E-2,-3.6860514E-2,1E0,2.5E1,-3.1723637E-2,4.4105336E-2,1E0,-3.0251343E-2,-4.304735E-2,2.8E1,9.748361E-2,2.4572995E-2,7.7598326E-2,-3.877069E-2],"split_indices":[7,6,3,3,7,2,0,2,0,0,6,6,0,0,0,0,0,11,6,0,0,10,0,0,6,0,0,0,0],"split_type":[0,0,0,0,0,0,0,0,0,0,0,0,0,0,0,0,0,0,0,0,0,0,0,0,0,0,0,0,0],"sum_hessian":[5.06127E1,3.4642902E1,1.5969798E1,1.0430585E1,2.4212318E1,1.2922969E1,3.0468297E0,3.0292923E0,7.4012923E0,3.7833042E0,2.0429014E1,2.4948206E0,1.0428148E1,1.0366406E0,2.010189E0,1.4766712E0,1.552621E0,1.2982019E1,7.4469953E0,1.1133145E0,1.3815061E0,1.1952882E1,1.029137E0,2.6252258E0,4.821769E0,9.075715E0,2.8771667E0,2.774931E0,2.0468383E0],"tree_param":{"num_deleted":"0","num_feature":"16","num_nodes":"29","size_leaf_vector":"1"}},{"base_weights":[9.448713E-3,4.4976878E-1,-1.6126998E-1,5.5441535E-1,-3.0400878E-2,-3.4546763E-1,4.0087903E-1,2.0996355E-1,8.7875503E-1,-5.1838517E-2,-7.972102E-2,6.237535E-1,-1.1569531E-1,-3.9964378E-2,5.98188E-1,3.135996E-2,1.0380407E-1,3.3677986E-1,-4.6856366E-2,1.0344698E-1,9.3116045E-2,-3.2903597E-2,1.7337924E-2,1.07190445E-1,-3.2071397E-2,-3.6481556E-2,7.5604427E-1,-3.5597775E-2,6.030063E-2,9.4526015E-2,1.5154454E-2],"categories":[],"categories_nodes":[],"categories_segments":[],"categories_sizes":[],"default_left":[0,0,0,0,0,0,0,0,0,0,0,0,0,0,0,0,0,0,0,0,0,0,0,0,0,0,0,0,0,0,0],"id":36,"left_children":[1,3,5,7,-1,9,11,13,15,-1,17,19,21,-1,23,-1,-1,25,-1,-1,27,-1,-1,-1,-1,-1,29,-1,-1,-1,-1],"loss_changes":[3.2596684E0,1.1237626E0,3.3783412E0,1.0430219E0,0E0,1.0663025E0,1.0145068E0,1.8111141E0,1.5564013E-1,0E0,1.8879957E0,1.1839507E0,2.612128E-1,0E0,2.2846198E0,0E0,0E0,1.9642632E0,0E0,0E0,1.0531998E0,0E0,0E0,0E0,0E0,0E0,3.0494213E-1,0E0,0E0,0E0,0E0],"parents":[2147483647,0,0,1,1,2,2,3,3,5,5,6,6,7,7,8,8,10,10,11,11,12,12,14,14,17,17,20,20,26,26],"right_children":[2,4,6,8,-1,10,12,14,16,-1,18,20,22,-1,24,-1,-1,26,-1,-1,28,-1,-1,-1,-1,-1,30,-1,-1,-1,-1],"split_conditions":[9E0,5E0,2.7E1,4E0,-3.0400878E-2,4E0,3E0,5E0,1.96E2,-5.1838517E-2,4.1E0,1.5E0,3.9E0,-3.9964378E-2,3E0,3.135996E-2,1.0380407E-1,2.8E0,-4.6856366E-2,1.0344698E-1,1E0,-3.2903597E-2,1.7337924E-2,1.07190445E-1,-3.2071397E-2,-3.6481556E-2,4E0,-3.5597775E-2,6.030063E-2,9.4526015E-2,1.5154454E-2],"split_indices":[6,7,6,5,0,5,7,6,2,0,3,3,1,0,5,0,0,3,0,0,15,0,0,0,0,0,7,0,0,0,0],"split_type":[0,0,0,0,0,0,0,0,0,0,0,0,0,0,0,0,0,0,0,0,0,0,0,0,0,0,0,0,0,0,0],"sum_hessian":[4.139853E1,1.1109693E1,3.0288837E1,9.987603E0,1.1220902E0,2.3103905E1,7.184933E0,5.6425343E0,4.3450685E0,1.3420621E1,9.683283E0,4.874405E0,2.3105283E0,2.1838856E0,3.4586487E0,1.608125E0,2.7369432E0,4.74001E0,4.9432735E0,2.2124622E0,2.6619427E0,1.2498696E0,1.0606587E0,2.1722796E0,1.2863692E0,1.8216071E0,2.918403E0,1.5758461E0,1.0860968E0,1.7933542E0,1.1250486E0],"tree_param":{"num_deleted":"0","num_feature":"16","num_nodes":"31","size_leaf_vector":"1"}},{"base_weights":[-3.2930363E-3,-5.1248312E-2,7.864175E-2,4.5993146E-1,-2.5042165E-2,-3.404521E-2,6.112738E-1,3.353664E-1,-1.2248131E-1,7.92491E-1,-1.0034315E-2,-3.260827E-2,4.7890928E-1,1.4451429E-1,-2.2204426E-1,1.1536411E-2,8.8851325E-2,6.552115E-1,-3.3348102E-2,5.1264125E-1,-2.9649237E-1,-5.3926595E-2,-1.5153807E-2,7.4777626E-2,1.0594997E-2,7.0849255E-2,-3.830077E-4,1.3081217E-2,-4.469434E-2,4.451419E-2,-3.381431E-2],"categories":[],"categories_nodes":[],"categories_segments":[],"categories_sizes":[],"default_left":[0,0,0,0,1,0,0,0,0,0,0,0,0,0,0,0,0,0,0,0,0,0,0,0,0,0,0,0,0,0,0],"id":37,"left_children":[1,-1,3,5,7,-1,9,11,13,15,-1,-1,17,19,21,-1,-1,23,-1,25,27,-1,29,-1,-1,-1,-1,-1,-1,-1,-1],"loss_changes":[2.3958468E0,0E0,1.9684862E0,1.4963083E0,1.4411111E0,0E0,1.2789893E0,9.871291E-1,8.857908E-1,3.8681936E-1,0E0,0E0,1.306506E0,1.666462E0,1.5529153E0,0E0,0E0,2.5527048E-1,0E0,5.5407655E-1,3.7204874E-1,0E0,2.443855E0,0E0,0E0,0E0,0E0,0E0,0E0,0E0,0E0],"parents":[2147483647,0,0,2,2,3,3,4,4,6,6,7,7,8,8,9,9,12,12,13,13,14,14,17,17,19,19,20,20,22,22],"right_children":[2,-1,4,6,8,-1,10,12,14,16,-1,-1,18,20,22,-1,-1,24,-1,26,28,-1,30,-1,-1,-1,-1,-1,-1,-1,-1],"split_conditions":[1.6E0,-5.1248312E-2,5.8E1,2E0,1.4E0,-3.404521E-2,1E0,7E0,1E1,7E0,-1.0034315E-2,-3.260827E-2,1E0,2.33E2,2E1,1.1536411E-2,8.8851325E-2,1E0,-3.3348102E-2,3.9E0,7E1,-5.3926595E-2,2.4E1,7.4777626E-2,1.0594997E-2,7.0849255E-2,-3.830077E-4,1.3081217E-2,-4.469434E-2,4.451419E-2,-3.381431E-2],"split_indices":[1,0,0,7,3,0,9,6,6,6,0,0,8,2,6,0,0,14,0,1,0,0,6,0,0,0,0,0,0,0,0],"split_type":[0,0,0,0,0,0,0,0,0,0,0,0,0,0,0,0,0,0,0,0,0,0,0,0,0,0,0,0,0,0,0],"sum_hessian":[5.5460278E1,6.958898E0,4.850138E1,9.634679E0,3.8866703E1,1.3333937E0,8.301286E0,7.7519464E0,3.1114756E1,6.525805E0,1.7754807E0,1.1555357E0,6.5964108E0,8.328615E0,2.2786139E1,1.0838897E0,5.441915E0,5.5791245E0,1.0172861E0,4.45086E0,3.8777559E0,8.360538E0,1.4425602E1,4.465202E0,1.1139228E0,2.9575372E0,1.4933227E0,1.0437825E0,2.8339734E0,5.7924795E0,8.633122E0],"tree_param":{"num_deleted":"0","num_feature":"16","num_nodes":"31","size_leaf_vector":"1"}},{"base_weights":[6.235426E-3,2.8062218E-1,-2.1785681E-1,-3.214813E-1,6.9173396E-1,-4.3078312E-1,1.0654206E-1,4.0344317E-2,-5.025056E-2,7.784308E-1,1.4836562E-3,-7.423445E-2,-5.2619398E-2,7.667194E-1,-2.7752897E-1,3.378499E-1,8.601679E-1,-4.1758787E-2,4.438997E-2,1.04223035E-1,5.841657E-3,1.2523669E-1,-4.7592018E-2,-3.1456023E-2,7.656979E-2,3.3657232E-1,1.0108795E-1,-3.3208933E-2,5.5048157E-2,-3.253078E-2,8.199895E-2],"categories":[],"categories_nodes":[],"categories_segments":[],"categories_sizes":[],"default_left":[0,0,0,0,0,0,0,0,0,0,0,0,0,1,0,0,0,0,0,0,0,0,0,0,0,0,0,0,0,0,0],"id":38,"left_children":[1,3,5,7,9,11,13,-1,-1,15,-1,17,-1,19,21,23,25,-1,-1,-1,-1,27,-1,-1,-1,29,-1,-1,-1,-1,-1],"loss_changes":[3.037126E0,5.716391E0,1.9249882E0,1.4741307E0,7.8109455E-1,5.264087E-1,3.149469E0,0E0,0E0,1.398716E-1,0E0,1.0167644E0,0E0,8.2226586E-1,7.033531E-1,1.2226979E0,4.0440607E-1,0E0,0E0,0E0,0E0,8.538319E-1,0E0,0E0,0E0,1.4212492E0,0E0,0E0,0E0,0E0,0E0],"parents":[2147483647,0,0,1,1,2,2,3,3,4,4,5,5,6,6,9,9,11,11,13,13,14,14,15,15,16,16,21,21,25,25],"right_children":[2,4,6,8,10,12,14,-1,-1,16,-1,18,-1,20,22,24,26,-1,-1,-1,-1,28,-1,-1,-1,30,-1,-1,-1,-1,-1],"split_conditions":[3E0,1.7E1,4E0,1.5E0,2.7E1,7E0,5E0,4.0344317E-2,-5.025056E-2,2.5E0,1.4836562E-3,3.01E2,-5.2619398E-2,4E0,1.3E1,2.8E2,2.1E1,-4.1758787E-2,4.438997E-2,1.04223035E-1,5.841657E-3,2.09E2,-4.7592018E-2,-3.1456023E-2,7.656979E-2,4.35E2,1.0108795E-1,-3.3208933E-2,5.5048157E-2,-3.253078E-2,8.199895E-2],"split_indices":[5,6,7,3,6,6,7,0,0,3,0,2,0,3,6,2,6,0,0,0,0,2,0,0,0,2,0,0,0,0,0],"split_type":[0,0,0,0,0,0,0,0,0,0,0,0,0,0,0,0,0,0,0,0,0,0,0,0,0,0,0,0,0,0,0],"sum_hessian":[4.7399582E1,2.1195173E1,2.6204409E1,8.688396E0,1.2506777E1,1.5622376E1,1.0582032E1,1.4905832E0,7.1978135E0,1.0953816E1,1.5529606E0,3.6733143E0,1.1949062E1,3.5256016E0,7.056431E0,2.5174701E0,8.436346E0,2.325995E0,1.3473194E0,2.1988573E0,1.3267443E0,2.4504225E0,4.606008E0,1.1019424E0,1.4155277E0,2.6082163E0,5.82813E0,1.2862256E0,1.164197E0,1.2389498E0,1.3692664E0],"tree_param":{"num_deleted":"0","num_feature":"16","num_nodes":"31","size_leaf_vector":"1"}},{"base_weights":[-7.912975E-3,-4.1380906E-1,1.1789281E-1,1.1082108E-2,-5.6264162E-2,6.358877E-2,5.217257E-1,3.2403514E-1,-4.01718E-2,1.2186169E-1,-4.8945613E-2,7.809909E-2,-3.4479227E-2,5.5362517E-3,4.420691E-2,-1.6975597E-1,2.105294E-1,4.3820375E-1,-4.5364347E-1,3.3954534E-1,-1.9574279E-1,-6.0944767E-3,7.834866E-2,3.2262206E-3,-5.5111825E-2,4.5950778E-2,-2.041163E-2,-5.6737073E-2,2.2605348E-2],"categories":[],"categories_nodes":[],"categories_segments":[],"categories_sizes":[],"default_left":[1,0,0,0,0,0,0,0,0,0,0,0,0,0,0,0,0,0,0,0,0,0,0,0,0,0,0,0,0],"id":39,"left_children":[1,3,5,7,-1,9,11,13,-1,15,-1,-1,-1,-1,-1,17,19,21,23,25,27,-1,-1,-1,-1,-1,-1,-1,-1],"loss_changes":[3.5140672E0,1.0356429E0,1.1199577E0,8.024015E-1,0E0,1.5901015E0,1.6383435E0,8.6939454E-2,0E0,1.1673188E0,0E0,0E0,0E0,0E0,0E0,2.0554328E0,1.848881E0,7.2557265E-1,3.8837743E-1,1.8009062E0,1.5124285E0,0E0,0E0,0E0,0E0,0E0,0E0,0E0,0E0],"parents":[2147483647,0,0,1,1,2,2,3,3,5,5,6,6,7,7,9,9,15,15,16,16,17,17,18,18,19,19,20,20],"right_children":[2,4,6,8,-1,10,12,14,-1,16,-1,-1,-1,-1,-1,18,20,22,24,26,28,-1,-1,-1,-1,-1,-1,-1,-1],"split_conditions":[1.7E0,1.7E0,2.8E1,1.2E1,-5.6264162E-2,2.6E1,3.3E0,2.28E2,-4.01718E-2,1E1,-4.8945613E-2,7.809909E-2,-3.4479227E-2,5.5362517E-3,4.420691E-2,2.3E0,1E0,2.09E2,2.4E0,4.4E0,2.82E2,-6.0944767E-3,7.834866E-2,3.2262206E-3,-5.5111825E-2,4.5950778E-2,-2.041163E-2,-5.6737073E-2,2.2605348E-2],"split_indices":[3,1,6,6,0,6,3,2,0,6,0,0,0,0,0,1,12,2,3,3,2,0,0,0,0,0,0,0,0],"split_type":[0,0,0,0,0,0,0,0,0,0,0,0,0,0,0,0,0,0,0,0,0,0,0,0,0,0,0,0,0],"sum_hessian":[6.686145E1,1.52784E1,5.158305E1,4.203546E0,1.1074854E1,4.6489056E1,5.0939937E0,2.5132363E0,1.6903095E0,4.2762894E1,3.7261631E0,3.9968302E0,1.0971633E0,1.2155046E0,1.2977316E0,9.757408E0,3.3005486E1,2.9328904E0,6.824518E0,2.517511E1,7.8303742E0,1.5359621E0,1.3969282E0,1.2520664E0,5.5724516E0,2.0751049E1,4.424061E0,3.979269E0,3.8511055E0],"tree_param":{"num_deleted":"0","num_feature":"16","num_nodes":"29","size_leaf_vector":"1"}},{"base_weights":[-9.5367985E-4,1.287536E-1,-2.7835238E-1,-2.7548802E-1,3.0263937E-1,-4.0537766E-1,2.0500696E-1,2.4396263E-1,-5.026048E-2,-4.605828E-2,4.50882E-1,1.0766895E-1,-5.3156186E-2,-3.0134266E-2,4.749727E-2,7.462078E-2,-3.6299717E-2,6.746456E-1,1.7313194E-2,4.3126892E-2,-3.1302303E-2,2.9261738E-1,8.7882966E-2,-4.2342763E-2,2.814596E-1,8.17988E-2,-1.0821492E-2,7.16416E-2,-3.8039535E-2],"categories":[],"categories_nodes":[],"categories_segments":[],"categories_sizes":[],"default_left":[0,0,1,0,0,0,0,0,0,0,0,0,0,0,0,0,0,0,0,0,0,0,0,0,0,0,0,0,0],"id":40,"left_children":[1,3,5,7,9,11,13,15,-1,-1,17,19,-1,-1,-1,-1,-1,21,23,-1,-1,25,-1,-1,27,-1,-1,-1,-1],"loss_changes":[1.8663462E0,2.5681489E0,1.0977455E0,1.4387172E0,3.0581403E0,9.261644E-1,7.040226E-1,1.5106478E0,0E0,0E0,2.0840306E0,6.08901E-1,0E0,0E0,0E0,0E0,0E0,8.521943E-1,1.094748E0,0E0,0E0,1.4473755E0,0E0,0E0,1.9538027E0,0E0,0E0,0E0,0E0],"parents":[2147483647,0,0,1,1,2,2,3,3,4,4,5,5,6,6,7,7,10,10,11,11,17,17,18,18,21,21,24,24],"right_children":[2,4,6,8,10,12,14,16,-1,-1,18,20,-1,-1,-1,-1,-1,22,24,-1,-1,26,-1,-1,28,-1,-1,-1,-1],"split_conditions":[4E0,1.3E1,4.6E0,1.5E0,1E0,1.62E2,6.4E1,2.8E2,-5.026048E-2,-4.605828E-2,2.3E1,5E0,-5.3156186E-2,-3.0134266E-2,4.749727E-2,7.462078E-2,-3.6299717E-2,3E0,2.5E1,4.3126892E-2,-3.1302303E-2,2.74E2,8.7882966E-2,-4.2342763E-2,2.8E1,8.17988E-2,-1.0821492E-2,7.16416E-2,-3.8039535E-2],"split_indices":[7,6,3,3,7,2,0,2,0,0,6,7,0,0,0,0,0,5,6,0,0,2,0,0,6,0,0,0,0],"split_type":[0,0,0,0,0,0,0,0,0,0,0,0,0,0,0,0,0,0,0,0,0,0,0,0,0,0,0,0,0],"sum_hessian":[4.9874798E1,3.4349407E1,1.5525391E1,1.0155668E1,2.4193739E1,1.2422207E1,3.1031833E0,3.0669389E0,7.0887294E0,3.5922437E0,2.0601496E1,2.481109E0,9.941098E0,1.0387225E0,2.0644608E0,1.5526981E0,1.5142407E0,1.3221755E1,7.3797398E0,1.3881727E0,1.0929363E0,5.452757E0,7.7689986E0,2.5394847E0,4.840255E0,1.9093931E0,3.5433638E0,2.8710365E0,1.9692184E0],"tree_param":{"num_deleted":"0","num_feature":"16","num_nodes":"29","size_leaf_vector":"1"}},{"base_weights":[1.0881811E-2,4.204189E-1,-1.5391126E-1,5.194364E-1,-3.0136008E-2,-3.367E-1,3.7932754E-1,3.245274E-2,6.916499E-1,-5.1314235E-2,-7.377235E-2,5.220419E-1,-2.963847E-2,5.5145126E-2,-3.7455406E-2,2.4040675E-1,9.112077E-2,3.3016285E-1,-4.630239E-2,-7.1364366E-3,7.7734214E-1,-3.612962E-2,8.1142135E-2,-3.5751686E-2,7.224804E-1,9.607885E-2,2.8225426E-2,9.020416E-2,1.4608623E-2],"categories":[],"categories_nodes":[],"categories_segments":[],"categories_sizes":[],"default_left":[0,0,0,0,0,0,0,0,0,0,0,0,0,0,0,0,0,0,0,0,0,0,0,0,0,0,0,0,0],"id":41,"left_children":[1,3,5,7,-1,9,11,13,15,-1,17,19,-1,-1,-1,21,-1,23,-1,-1,25,-1,-1,-1,27,-1,-1,-1,-1],"loss_changes":[2.8755057E0,1.0297554E0,3.0937476E0,9.0941167E-1,0E0,1.0380414E0,9.491948E-1,1.041363E0,5.893171E-1,0E0,1.8008599E0,1.1408024E0,0E0,0E0,0E0,1.6774496E0,0E0,1.8034722E0,0E0,0E0,1.9137907E-1,0E0,0E0,0E0,2.7992654E-1,0E0,0E0,0E0,0E0],"parents":[2147483647,0,0,1,1,2,2,3,3,5,5,6,6,7,7,8,8,10,10,11,11,15,15,17,17,20,20,24,24],"right_children":[2,4,6,8,-1,10,12,14,16,-1,18,20,-1,-1,-1,22,-1,24,-1,-1,26,-1,-1,-1,28,-1,-1,-1,-1],"split_conditions":[9E0,5E0,2.7E1,1.5E0,-3.0136008E-2,4E0,4.21E2,3E0,4E0,-5.1314235E-2,4.1E0,2.69E2,-2.963847E-2,5.5145126E-2,-3.7455406E-2,3E0,9.112077E-2,2.8E0,-4.630239E-2,-7.1364366E-3,2E0,-3.612962E-2,8.1142135E-2,-3.5751686E-2,4E0,9.607885E-2,2.8225426E-2,9.020416E-2,1.4608623E-2],"split_indices":[6,7,6,3,0,5,2,5,5,0,3,2,0,0,0,6,0,3,0,0,7,0,0,0,7,0,0,0,0],"split_type":[0,0,0,0,0,0,0,0,0,0,0,0,0,0,0,0,0,0,0,0,0,0,0,0,0,0,0,0,0],"sum_hessian":[4.0648323E1,1.1218175E1,2.943015E1,1.011138E1,1.1067951E0,2.2191654E1,7.2384944E0,2.9520485E0,7.1593313E0,1.2710439E1,9.481216E0,6.164034E0,1.0744603E0,1.1415263E0,1.8105223E0,3.0289931E0,4.130338E0,4.727344E0,4.753872E0,2.0709343E0,4.0931E0,1.6536955E0,1.3752977E0,1.749468E0,2.977876E0,2.3001695E0,1.7929304E0,1.8397688E0,1.1381072E0],"tree_param":{"num_deleted":"0","num_feature":"16","num_nodes":"29","size_leaf_vector":"1"}},{"base_weights":[-4.025418E-3,-5.0521966E-2,7.424894E-2,3.3004045E-1,-6.405141E-2,-3.9152917E-2,6.3244605E-1,3.5107892E-2,-4.0596503E-1,3.2437158E-1,-3.242939E-1,2.4683574E-1,9.6619755E-2,-5.7307877E-2,6.888355E-2,-8.55987E-3,-5.065117E-2,-1.16359815E-2,7.148154E-2,1.2828516E-2,-4.588049E-2,-2.2055572E-1,6.8609916E-2,3.2672563E-1,-1.7600785E-1,-3.7933677E-2,9.052939E-3,-3.2027036E-2,5.4209024E-2,3.879046E-2,-2.4574798E-2],"categories":[],"categories_nodes":[],"categories_segments":[],"categories_sizes":[],"default_left":[0,0,0,0,0,0,0,0,0,0,0,0,0,1,0,0,0,0,0,0,0,0,0,0,0,0,0,0,0,0,0],"id":42,"left_children":[1,-1,3,5,7,9,11,13,15,17,19,21,-1,23,-1,-1,-1,-1,-1,-1,-1,25,-1,27,29,-1,-1,-1,-1,-1,-1],"loss_changes":[2.223169E0,0E0,1.7566594E0,1.965069E0,1.122236E0,1.013952E0,9.9854994E-1,1.6255776E0,1.9586492E-1,8.323798E-1,3.8840318E-1,1.3426545E0,0E0,1.148124E0,0E0,0E0,0E0,0E0,0E0,0E0,0E0,2.1058306E-1,0E0,1.0095196E0,8.3963645E-1,0E0,0E0,0E0,0E0,0E0,0E0],"parents":[2147483647,0,0,2,2,3,3,4,4,5,5,6,6,7,7,8,8,9,9,10,10,11,11,13,13,21,21,23,23,24,24],"right_children":[2,-1,4,6,8,10,12,14,16,18,20,22,-1,24,-1,-1,-1,-1,-1,-1,-1,26,-1,28,30,-1,-1,-1,-1,-1,-1],"split_conditions":[1.6E0,-5.0521966E-2,6.8E1,3.6E0,1E0,2.4E0,3.9E0,9.8E1,2E0,5.7E1,1.5E1,1E0,9.6619755E-2,1.4E0,6.888355E-2,-8.55987E-3,-5.065117E-2,-1.16359815E-2,7.148154E-2,1.2828516E-2,-4.588049E-2,1E0,6.8609916E-2,7E0,2E0,-3.7933677E-2,9.052939E-3,-3.2027036E-2,5.4209024E-2,3.879046E-2,-2.4574798E-2],"split_indices":[1,0,0,3,8,3,1,0,7,0,6,11,0,3,0,0,0,0,0,0,0,8,0,6,6,0,0,0,0,0,0],"split_type":[0,0,0,0,0,0,0,0,0,0,0,0,0,0,0,0,0,0,0,0,0,0,0,0,0,0,0,0,0,0,0],"sum_hessian":[5.471299E1,6.6538186E0,4.8059174E1,1.6379076E1,3.1680096E1,7.767101E0,8.611975E0,2.5253561E1,6.426535E0,3.3537908E0,4.41331E0,4.8026557E0,3.8093193E0,2.2925045E1,2.328517E0,1.9773966E0,4.4491386E0,1.905195E0,1.4485958E0,1.0217588E0,3.3915513E0,2.568054E0,2.2346017E0,4.999024E0,1.792602E1,1.5549784E0,1.0130756E0,1.126799E0,3.8722248E0,1.4708349E0,1.6455185E1],"tree_param":{"num_deleted":"0","num_feature":"16","num_nodes":"31","size_leaf_vector":"1"}},{"base_weights":[7.968716E-3,1.8350536E-1,-3.204394E-1,-1.8432786E-1,4.9517152E-1,-5.1716413E-2,2.1770066E-2,5.205073E-1,-5.2051723E-2,-3.654599E-2,6.149608E-1,4.200525E-1,-4.251299E-2,-6.701042E-3,8.5170396E-2,-4.1331956E-4,6.859728E-1,7.4133866E-2,-3.9131893E-3,7.830831E-1,-1.234573E-3,8.607768E-2,2.2099486E-2],"categories":[],"categories_nodes":[],"categories_segments":[],"categories_sizes":[],"default_left":[0,0,0,0,0,0,0,0,0,0,1,0,0,0,0,0,0,0,0,0,0,0,0],"id":43,"left_children":[1,3,5,7,9,-1,11,13,-1,-1,15,17,-1,-1,-1,-1,19,-1,-1,21,-1,-1,-1],"loss_changes":[2.794706E0,3.709777E0,1.1486697E0,3.8741357E0,2.0142212E0,0E0,1.4470983E0,1.1099018E0,0E0,0E0,6.890836E-1,6.591671E-1,0E0,0E0,0E0,0E0,9.596982E-1,0E0,0E0,3.4755945E-1,0E0,0E0,0E0],"parents":[2147483647,0,0,1,1,2,2,3,3,4,4,6,6,7,7,10,10,11,11,16,16,19,19],"right_children":[2,4,6,8,10,-1,12,14,-1,-1,16,18,-1,-1,-1,-1,20,-1,-1,22,-1,-1,-1],"split_conditions":[4E0,1.7E1,4E0,1.5E0,1.7E2,-5.1716413E-2,3.2E0,6E0,-5.2051723E-2,-3.654599E-2,1.3E0,1.3E1,-4.251299E-2,-6.701042E-3,8.5170396E-2,-4.1331956E-4,2.7E1,7.4133866E-2,-3.9131893E-3,1E0,-1.234573E-3,8.607768E-2,2.2099486E-2],"split_indices":[5,6,7,3,2,0,1,6,0,0,3,6,0,0,0,0,6,0,0,10,0,0,0],"split_type":[0,0,0,0,0,0,0,0,0,0,0,0,0,0,0,0,0,0,0,0,0,0,0],"sum_hessian":[4.6459057E1,3.0563736E1,1.5895322E1,1.4206078E1,1.6357658E1,9.768493E0,6.126828E0,4.4106684E0,9.795409E0,1.7480266E0,1.46096325E1,3.2713966E0,2.8554318E0,1.8776073E0,2.533061E0,1.600245E0,1.3009387E1,1.5631855E0,1.7082111E0,1.1314567E1,1.6948204E0,9.47369E0,1.8408763E0],"tree_param":{"num_deleted":"0","num_feature":"16","num_nodes":"23","size_leaf_vector":"1"}},{"base_weights":[-8.33714E-3,-4.021931E-1,1.1017507E-1,1.3693774E-2,-5.5304475E-2,6.890493E-2,7.348688E-2,3.1290266E-1,-3.9175015E-2,-4.220538E-2,2.9822153E-1,4.2285327E-2,5.4530557E-3,-4.0755606E-1,1.9772768E-1,9.332967E-2,-6.8798736E-2,3.1319964E-1,-5.9369106E-2,-5.5056106E-2,3.817878E-1,-2.7883682E-1,4.2023426E-1,7.329916E-2,-3.3475023E-2,-3.4408823E-2,5.9678096E-2,-4.5837674E-2,4.1712992E-2,-1.9066901E-3,6.9562264E-2],"categories":[],"categories_nodes":[],"categories_segments":[],"categories_sizes":[],"default_left":[1,0,0,0,0,0,0,0,0,0,0,0,0,0,0,0,0,0,0,0,0,0,0,0,0,0,0,0,0,0,0],"id":44,"left_children":[1,3,5,7,-1,-1,9,11,-1,13,15,-1,-1,17,19,-1,21,23,-1,-1,25,27,29,-1,-1,-1,-1,-1,-1,-1,-1],"loss_changes":[3.1717832E0,9.9336123E-1,1.0598874E0,7.48338E-1,0E0,0E0,1.320199E0,7.704911E-2,0E0,3.0677648E0,4.076933E0,0E0,0E0,2.04198E0,3.1359005E0,0E0,1.3335066E0,1.1957936E0,0E0,0E0,2.9580965E0,1.3014145E0,4.919451E-1,0E0,0E0,0E0,0E0,0E0,0E0,0E0,0E0],"parents":[2147483647,0,0,1,1,2,2,3,3,6,6,7,7,9,9,10,10,13,13,14,14,16,16,17,17,20,20,21,21,22,22],"right_children":[2,4,6,8,-1,-1,10,12,-1,14,16,-1,-1,18,20,-1,22,24,-1,-1,26,28,30,-1,-1,-1,-1,-1,-1,-1,-1],"split_conditions":[1.7E0,1.7E0,1.01E2,1.2E1,-5.5304475E-2,6.890493E-2,3.97E2,1.4E0,-3.9175015E-2,3E0,4.23E2,4.2285327E-2,5.4530557E-3,1.46E2,2.9E0,9.332967E-2,4.73E2,3E0,-5.9369106E-2,-5.5056106E-2,1.2E1,4E0,3.1E0,7.329916E-2,-3.3475023E-2,-3.4408823E-2,5.9678096E-2,-4.5837674E-2,4.1712992E-2,-1.9066901E-3,6.9562264E-2],"split_indices":[3,1,2,6,0,0,2,1,0,5,2,0,0,2,3,0,2,7,0,0,6,7,1,0,0,0,0,0,0,0,0],"split_type":[0,0,0,0,0,0,0,0,0,0,0,0,0,0,0,0,0,0,0,0,0,0,0,0,0,0,0,0,0,0,0],"sum_hessian":[6.600279E1,1.4712967E1,5.128982E1,4.158237E0,1.0554729E1,1.9971486E0,4.9292675E1,2.5239E0,1.6343371E0,3.3077E1,1.6215673E1,1.3239048E0,1.1999953E0,1.2834713E1,2.0242287E1,5.373944E0,1.084173E1,2.4941537E0,1.0340559E1,3.6030471E0,1.663924E1,7.8849783E0,2.956752E0,1.4339092E0,1.0602446E0,3.6649387E0,1.2974301E1,6.539382E0,1.3455963E0,1.4979603E0,1.4587919E0],"tree_param":{"num_deleted":"0","num_feature":"16","num_nodes":"31","size_leaf_vector":"1"}},{"base_weights":[-1.5959684E-3,1.21588424E-1,-2.6973134E-1,-2.6693875E-1,2.839511E-1,-3.9743334E-1,2.0072243E-1,2.3086444E-1,-4.9533557E-2,-4.5102492E-2,4.2017213E-1,9.761811E-2,-5.246193E-2,-9.794854E-3,5.0764617E-2,6.9645904E-2,-3.559289E-2,5.153541E-1,-3.7438363E-2,-3.1034723E-2,4.0866952E-2,8.4265983E-1,2.8368542E-1,9.148292E-2,3.17804E-2,8.108535E-2,4.9021114E-3],"categories":[],"categories_nodes":[],"categories_segments":[],"categories_sizes":[],"default_left":[0,0,1,0,0,0,0,0,0,0,0,0,0,0,0,0,0,1,0,0,0,0,0,0,0,0,0],"id":45,"left_children":[1,3,5,7,9,11,13,15,-1,-1,17,19,-1,-1,-1,-1,-1,21,-1,-1,-1,23,25,-1,-1,-1,-1],"loss_changes":[1.6859467E0,2.282658E0,1.0449859E0,1.3452528E0,2.7082732E0,8.6795044E-1,4.250545E-1,1.364496E0,0E0,0E0,1.8372078E0,5.7027835E-1,0E0,0E0,0E0,0E0,0E0,1.2650905E0,0E0,0E0,0E0,1.452446E-3,1.583637E0,0E0,0E0,0E0,0E0],"parents":[2147483647,0,0,1,1,2,2,3,3,4,4,5,5,6,6,7,7,10,10,11,11,17,17,21,21,22,22],"right_children":[2,4,6,8,10,12,14,16,-1,-1,18,20,-1,-1,-1,-1,-1,22,-1,-1,-1,24,26,-1,-1,-1,-1],"split_conditions":[4E0,1.3E1,4.6E0,1.5E0,1E0,1.62E2,2E1,2.8E2,-4.9533557E-2,-4.5102492E-2,2.8E1,6E0,-5.246193E-2,-9.794854E-3,5.0764617E-2,6.9645904E-2,-3.559289E-2,2.8E0,-3.7438363E-2,-3.1034723E-2,4.0866952E-2,8.1E1,1.78E2,9.148292E-2,3.17804E-2,8.108535E-2,4.9021114E-3],"split_indices":[7,6,3,3,7,2,6,2,0,0,6,6,0,0,0,0,0,3,0,0,0,0,2,0,0,0,0],"split_type":[0,0,0,0,0,0,0,0,0,0,0,0,0,0,0,0,0,0,0,0,0,0,0,0,0,0,0],"sum_hessian":[4.9049828E1,3.398382E1,1.5066008E1,9.826155E0,2.4157667E1,1.1971598E1,3.0944095E0,3.0870209E0,6.7391334E0,3.4159644E0,2.0741703E1,2.4945245E0,9.477074E0,1.9133638E0,1.1810458E0,1.617063E0,1.469958E0,1.8836609E1,1.9050949E0,1.0801272E0,1.4143972E0,6.713834E0,1.2122774E1,5.2490606E0,1.4647732E0,2.9778118E0,9.144962E0],"tree_param":{"num_deleted":"0","num_feature":"16","num_nodes":"27","size_leaf_vector":"1"}},{"base_weights":[1.1655983E-2,3.9597595E-1,-1.4764191E-1,4.8944575E-1,-2.9655099E-2,-3.2880825E-1,3.5941333E-1,3.4444228E-2,6.4602596E-1,-5.081706E-2,-6.900851E-2,4.903327E-1,-2.873453E-2,5.246536E-2,-3.6701884E-2,5.516387E-3,7.5353056E-1,3.1994462E-1,-4.5712955E-2,-6.8597705E-3,7.243137E-1,9.3256675E-2,3.1529194E-1,-3.5134844E-2,6.882739E-1,8.9973085E-2,2.60683E-2,3.1149003E-3,4.6734393E-2,8.571738E-2,1.4132464E-2],"categories":[],"categories_nodes":[],"categories_segments":[],"categories_sizes":[],"default_left":[0,0,0,0,0,0,0,0,0,0,0,0,0,0,0,0,0,0,0,0,0,0,0,0,0,0,0,0,0,0,0],"id":46,"left_children":[1,3,5,7,-1,9,11,13,15,-1,17,19,-1,-1,-1,-1,21,23,-1,-1,25,-1,27,-1,29,-1,-1,-1,-1,-1,-1],"loss_changes":[2.560844E0,9.3803465E-1,2.839589E0,7.7352834E-1,0E0,1.0063546E0,8.4167206E-1,9.632413E-1,4.8271084E-1,0E0,1.6988715E0,9.981576E-1,0E0,0E0,0E0,0E0,2.4767327E-1,1.6574204E0,0E0,0E0,1.8827105E-1,0E0,1.3723233E-1,0E0,2.515911E-1,0E0,0E0,0E0,0E0,0E0,0E0],"parents":[2147483647,0,0,1,1,2,2,3,3,5,5,6,6,7,7,8,8,10,10,11,11,16,16,17,17,20,20,22,22,24,24],"right_children":[2,4,6,8,-1,10,12,14,16,-1,18,20,-1,-1,-1,-1,22,24,-1,-1,26,-1,28,-1,30,-1,-1,-1,-1,-1,-1],"split_conditions":[9E0,5E0,2.7E1,1.5E0,-2.9655099E-2,4E0,4.21E2,3E0,2E0,-5.081706E-2,4.1E0,2.69E2,-2.873453E-2,5.246536E-2,-3.6701884E-2,5.516387E-3,3E0,2.8E0,-4.5712955E-2,-6.8597705E-3,2E0,9.3256675E-2,3.2E0,-3.5134844E-2,4E0,8.9973085E-2,2.60683E-2,3.1149003E-3,4.6734393E-2,8.571738E-2,1.4132464E-2],"split_indices":[6,7,6,3,0,5,2,5,5,0,3,2,0,0,0,0,7,3,0,0,7,0,1,0,7,0,0,0,0,0,0],"split_type":[0,0,0,0,0,0,0,0,0,0,0,0,0,0,0,0,0,0,0,0,0,0,0,0,0,0,0,0,0,0,0],"sum_hessian":[3.9874317E1,1.1249109E1,2.8625208E1,1.0169753E1,1.0793563E0,2.1348951E1,7.2762566E0,2.9160557E0,7.253697E0,1.2064067E1,9.284884E0,6.252469E0,1.0237875E0,1.1747565E0,1.7412992E0,1.3495411E0,5.9041557E0,4.725206E0,4.5596786E0,2.0536246E0,4.1988444E0,3.3908737E0,2.5132823E0,1.6904335E0,3.0347722E0,2.3638499E0,1.8349948E0,1.2960962E0,1.217186E0,1.8853719E0,1.1494004E0],"tree_param":{"num_deleted":"0","num_feature":"16","num_nodes":"31","size_leaf_vector":"1"}},{"base_weights":[-3.5850802E-3,-4.9739044E-2,7.116271E-2,4.1486582E-1,-2.5303088E-2,-3.2780435E-2,5.487058E-1,2.8675076E-1,-1.12105876E-1,7.056872E-1,-9.47231E-3,-3.1382505E-2,4.1408515E-1,-4.723377E-2,-3.8582742E-2,1.0036794E-2,7.898589E-2,7.2673E-2,1.2608773E-1,6.8122976E-2,-3.733249E-1,-2.0070648E-2,4.8225477E-2,-2.90238E-3,5.424891E-2,-4.965714E-2,1.0237586E-2],"categories":[],"categories_nodes":[],"categories_segments":[],"categories_sizes":[],"default_left":[0,0,0,0,1,0,0,0,0,0,0,0,0,0,0,0,0,0,0,0,0,0,0,0,0,0,0],"id":47,"left_children":[1,-1,3,5,7,-1,9,11,13,15,-1,-1,17,-1,19,-1,-1,-1,21,23,25,-1,-1,-1,-1,-1,-1],"loss_changes":[2.0593321E0,0E0,1.6185111E0,1.2420802E0,1.0834707E0,0E0,1.0191908E0,7.9740196E-1,8.050695E-1,3.1292772E-1,0E0,0E0,5.955777E-1,0E0,9.864414E-1,0E0,0E0,0E0,7.000129E-1,9.9487853E-1,4.4116616E-1,0E0,0E0,0E0,0E0,0E0,0E0],"parents":[2147483647,0,0,2,2,3,3,4,4,6,6,7,7,8,8,9,9,12,12,14,14,18,18,19,19,20,20],"right_children":[2,-1,4,6,8,-1,10,12,14,16,-1,-1,18,-1,20,-1,-1,-1,22,24,26,-1,-1,-1,-1,-1,-1],"split_conditions":[1.6E0,-4.9739044E-2,5.8E1,2E0,1.4E0,-3.2780435E-2,1E0,7E0,1E0,7E0,-9.47231E-3,-3.1382505E-2,2.8E2,-4.723377E-2,5E0,1.0036794E-2,7.898589E-2,7.2673E-2,3.56E2,1E0,1E0,-2.0070648E-2,4.8225477E-2,-2.90238E-3,5.424891E-2,-4.965714E-2,1.0237586E-2],"split_indices":[1,0,0,7,3,0,9,6,7,6,0,0,2,0,5,0,0,0,2,11,9,0,0,0,0,0,0],"split_type":[0,0,0,0,0,0,0,0,0,0,0,0,0,0,0,0,0,0,0,0,0,0,0,0,0,0,0],"sum_hessian":[5.3833096E1,6.334082E0,4.7499016E1,9.68635E0,3.7812664E1,1.2577797E0,8.428571E0,7.727831E0,3.0084833E1,6.697724E0,1.7308464E0,1.0956405E0,6.6321907E0,4.180048E0,2.5904785E1,1.0852909E0,5.6124334E0,2.44958E0,4.1826105E0,2.0247108E1,5.6576767E0,2.4088755E0,1.7737352E0,1.7584703E1,2.6624053E0,4.4586406E0,1.1990361E0],"tree_param":{"num_deleted":"0","num_feature":"16","num_nodes":"27","size_leaf_vector":"1"}},{"base_weights":[6.4385706E-3,1.7218006E-1,-3.1129283E-1,-1.7819536E-1,4.594344E-1,-5.10994E-2,2.4611535E-2,4.89888E-1,-5.142361E-2,-3.5643425E-2,5.6793606E-1,4.008798E-1,-4.173853E-2,-6.3116304E-3,7.924868E-2,-3.9252668E-4,6.321975E-1,6.950756E-2,-3.4845024E-3,7.1928257E-1,-9.947208E-4,7.913779E-2,2.0154132E-2],"categories":[],"categories_nodes":[],"categories_segments":[],"categories_sizes":[],"default_left":[0,0,0,0,0,0,0,0,0,0,1,0,0,0,0,0,0,0,0,0,0,0,0],"id":48,"left_children":[1,3,5,7,9,-1,11,13,-1,-1,15,17,-1,-1,-1,-1,19,-1,-1,21,-1,-1,-1],"loss_changes":[2.5099702E0,3.2319262E0,1.1091162E0,3.5791552E0,1.7496104E0,0E0,1.339621E0,9.65685E-1,0E0,0E0,5.8354187E-1,5.7769257E-1,0E0,0E0,0E0,0E0,8.023896E-1,0E0,0E0,3.0843258E-1,0E0,0E0,0E0],"parents":[2147483647,0,0,1,1,2,2,3,3,4,4,6,6,7,7,10,10,11,11,16,16,19,19],"right_children":[2,4,6,8,10,-1,12,14,-1,-1,16,18,-1,-1,-1,-1,20,-1,-1,22,-1,-1,-1],"split_conditions":[4E0,1.7E1,4E0,1.5E0,1.7E2,-5.10994E-2,3.2E0,6E0,-5.142361E-2,-3.5643425E-2,1.3E0,1.3E1,-4.173853E-2,-6.3116304E-3,7.924868E-2,-3.9252668E-4,2.7E1,6.950756E-2,-3.4845024E-3,1E0,-9.947208E-4,7.913779E-2,2.0154132E-2],"split_indices":[5,6,7,3,2,0,1,6,0,0,3,6,0,0,0,0,6,0,0,10,0,0,0],"split_type":[0,0,0,0,0,0,0,0,0,0,0,0,0,0,0,0,0,0,0,0,0,0,0],"sum_hessian":[4.5644745E1,3.029812E1,1.5346624E1,1.3820443E1,1.6477678E1,9.297715E0,6.048909E0,4.471942E0,9.348501E0,1.6659155E0,1.4811762E1,3.3176482E0,2.7312608E0,1.8614781E0,2.6104636E0,1.5911416E0,1.3220621E1,1.6251503E0,1.6924978E0,1.1536026E1,1.6845945E0,9.662066E0,1.8739597E0],"tree_param":{"num_deleted":"0","num_feature":"16","num_nodes":"23","size_leaf_vector":"1"}},{"base_weights":[-7.594084E-3,-3.910735E-1,1.05044566E-1,1.4098267E-2,-5.437402E-2,6.526333E-2,6.990533E-2,4.6311907E-2,-2.4897318E-1,-4.136017E-2,2.847146E-1,-4.1267756E-2,7.8554E-3,-3.954384E-1,1.835228E-1,8.745505E-2,-6.283394E-2,2.914415E-1,-5.8061272E-2,-5.3496856E-2,3.5449472E-1,-2.6678157E-1,4.0145352E-1,6.90176E-2,-3.3061665E-2,-3.3412628E-2,5.5236578E-2,-4.4483636E-2,3.997371E-2,-1.8458834E-3,6.615913E-2],"categories":[],"categories_nodes":[],"categories_segments":[],"categories_sizes":[],"default_left":[1,0,0,0,0,0,0,0,0,0,0,0,0,0,0,0,0,0,0,0,0,0,0,0,0,0,0,0,0,0,0],"id":49,"left_children":[1,3,5,7,-1,-1,9,-1,11,13,15,-1,-1,17,19,-1,21,23,-1,-1,25,27,29,-1,-1,-1,-1,-1,-1,-1,-1],"loss_changes":[2.8867333E0,9.459686E-1,9.493875E-1,7.2082657E-1,0E0,0E0,1.1999469E0,0E0,2.4060012E-1,2.7497945E0,3.5583591E0,0E0,0E0,1.8706386E0,2.7994962E0,0E0,1.2137139E0,1.0978615E0,0E0,0E0,2.6049504E0,1.2127527E0,4.4544303E-1,0E0,0E0,0E0,0E0,0E0,0E0,0E0,0E0],"parents":[2147483647,0,0,1,1,2,2,3,3,6,6,8,8,9,9,10,10,13,13,14,14,16,16,17,17,20,20,21,21,22,22],"right_children":[2,4,6,8,-1,-1,10,-1,12,14,16,-1,-1,18,20,-1,