{"learner":{"attributes":{"scikit_learn":"{\"_estimator_type\": \"classifier\"}"},"feature_names":["engagement_score","purchase_interest_score","purchase_amount","customer_rating","social_media_platform_Instagram","social_media_platform_LinkedIn","social_media_platform_TikTok","social_media_platform_Twitter","review_sentiment_Neutral","review_sentiment_Positive","purchase_date_2024-01-02","purchase_date_2024-01-03","purchase_date_2024-01-05","purchase_date_2024-01-06","purchase_date_2024-01-07","purchase_date_2024-01-08","purchase_date_2024-01-09","purchase_date_2024-01-10","purchase_date_2024-01-11","purchase_date_2024-01-12","purchase_date_2024-01-14","purchase_date_2024-01-15","purchase_date_2024-01-16","purchase_date_2024-01-17","purchase_date_2024-01-18","purchase_date_2024-01-19","purchase_date_2024-01-20","purchase_date_2024-01-21","purchase_date_2024-01-22","purchase_date_2024-01-24","purchase_date_2024-01-25","purchase_date_2024-01-28","purchase_date_2024-01-29","purchase_date_2024-01-30","purchase_date_2024-01-31","purchase_date_2024-02-01","purchase_date_2024-02-02","purchase_date_2024-02-03","purchase_date_2024-02-05","purchase_date_2024-02-06","purchase_date_2024-02-09","purchase_date_2024-02-11","purchase_date_2024-02-12","purchase_date_2024-02-13","purchase_date_2024-02-14","purchase_date_2024-02-15","purchase_date_2024-02-16","purchase_date_2024-02-17","purchase_date_2024-02-18","purchase_date_2024-02-19","purchase_date_2024-02-20","purchase_date_2024-02-21","purchase_date_2024-02-22","purchase_date_2024-02-24","purchase_date_2024-02-26","purchase_date_2024-02-27","purchase_date_2024-02-28","purchase_date_2024-02-29","purchase_date_2024-03-01","purchase_date_2024-03-04","purchase_date_2024-03-05","purchase_date_2024-03-06","purchase_date_2024-03-08","purchase_date_2024-03-09","purchase_date_2024-03-10","purchase_date_2024-03-11","purchase_date_2024-03-12","purchase_date_2024-03-13","purchase_date_2024-03-14","purchase_date_2024-03-16","purchase_date_2024-03-18","purchase_date_2024-03-19","purchase_date_2024-03-20","purchase_date_2024-03-21","purchase_date_2024-03-22","purchase_date_2024-03-23","purchase_date_2024-03-24","purchase_date_2024-03-26","purchase_date_2024-03-27","purchase_date_2024-03-28","purchase_date_2024-03-29","purchase_date_2024-03-30","purchase_date_2024-04-01","purchase_date_2024-04-02","purchase_date_2024-04-04","purchase_date_2024-04-06","purchase_date_2024-04-07","purchase_date_2024-04-08","purchase_date_2024-04-10","purchase_date_2024-04-11","purchase_date_2024-04-13","purchase_date_2024-04-14","purchase_date_2024-04-15","purchase_date_2024-04-16","purchase_date_2024-04-18","purchase_date_2024-04-21","purchase_date_2024-04-22","purchase_date_2024-04-23","purchase_date_2024-04-24","purchase_date_2024-04-25","purchase_date_2024-04-27","purchase_date_2024-04-28","purchase_date_2024-05-01","purchase_date_2024-05-02","purchase_date_2024-05-03","purchase_date_2024-05-04","purchase_date_2024-05-05","purchase_date_2024-05-06","purchase_date_2024-05-08","purchase_date_2024-05-09","purchase_date_2024-05-10","purchase_date_2024-05-11","purchase_date_2024-05-12","purchase_date_2024-05-14","purchase_date_2024-05-16","purchase_date_2024-05-17","purchase_date_2024-05-18","purchase_date_2024-05-19","purchase_date_2024-05-22","purchase_date_2024-05-23","purchase_date_2024-05-24","purchase_date_2024-05-25","purchase_date_2024-05-26","purchase_date_2024-05-27","purchase_date_2024-05-28","purchase_date_2024-05-29"],"feature_types":["int","float","int","float","i","i","i","i","i","i","i","i","i","i","i","i","i","i","i","i","i","i","i","i","i","i","i","i","i","i","i","i","i","i","i","i","i","i","i","i","i","i","i","i","i","i","i","i","i","i","i","i","i","i","i","i","i","i","i","i","i","i","i","i","i","i","i","i","i","i","i","i","i","i","i","i","i","i","i","i","i","i","i","i","i","i","i","i","i","i","i","i","i","i","i","i","i","i","i","i","i","i","i","i","i","i","i","i","i","i","i","i","i","i","i","i","i","i","i","i","i","i","i","i","i","i"],"gradient_booster":{"model":{"cats":{"enc":[],"feature_segments":[],"sorted_idx":[]},"gbtree_model_param":{"num_parallel_tree":"1","num_trees":"1000"},"iteration_indptr":[0,5,10,15,20,25,30,35,40,45,50,55,60,65,70,75,80,85,90,95,100,105,110,115,120,125,130,135,140,145,150,155,160,165,170,175,180,185,190,195,200,205,210,215,220,225,230,235,240,245,250,255,260,265,270,275,280,285,290,295,300,305,310,315,320,325,330,335,340,345,350,355,360,365,370,375,380,385,390,395,400,405,410,415,420,425,430,435,440,445,450,455,460,465,470,475,480,485,490,495,500,505,510,515,520,525,530,535,540,545,550,555,560,565,570,575,580,585,590,595,600,605,610,615,620,625,630,635,640,645,650,655,660,665,670,675,680,685,690,695,700,705,710,715,720,725,730,735,740,745,750,755,760,765,770,775,780,785,790,795,800,805,810,815,820,825,830,835,840,845,850,855,860,865,870,875,880,885,890,895,900,905,910,915,920,925,930,935,940,945,950,955,960,965,970,975,980,985,990,995,1000],"tree_info":[0,1,2,3,4,0,1,2,3,4,0,1,2,3,4,0,1,2,3,4,0,1,2,3,4,0,1,2,3,4,0,1,2,3,4,0,1,2,3,4,0,1,2,3,4,0,1,2,3,4,0,1,2,3,4,0,1,2,3,4,0,1,2,3,4,0,1,2,3,4,0,1,2,3,4,0,1,2,3,4,0,1,2,3,4,0,1,2,3,4,0,1,2,3,4,0,1,2,3,4,0,1,2,3,4,0,1,2,3,4,0,1,2,3,4,0,1,2,3,4,0,1,2,3,4,0,1,2,3,4,0,1,2,3,4,0,1,2,3,4,0,1,2,3,4,0,1,2,3,4,0,1,2,3,4,0,1,2,3,4,0,1,2,3,4,0,1,2,3,4,0,1,2,3,4,0,1,2,3,4,0,1,2,3,4,0,1,2,3,4,0,1,2,3,4,0,1,2,3,4,0,1,2,3,4,0,1,2,3,4,0,1,2,3,4,0,1,2,3,4,0,1,2,3,4,0,1,2,3,4,0,1,2,3,4,0,1,2,3,4,0,1,2,3,4,0,1,2,3,4,0,1,2,3,4,0,1,2,3,4,0,1,2,3,4,0,1,2,3,4,0,1,2,3,4,0,1,2,3,4,0,1,2,3,4,0,1,2,3,4,0,1,2,3,4,0,1,2,3,4,0,1,2,3,4,0,1,2,3,4,0,1,2,3,4,0,1,2,3,4,0,1,2,3,4,0,1,2,3,4,0,1,2,3,4,0,1,2,3,4,0,1,2,3,4,0,1,2,3,4,0,1,2,3,4,0,1,2,3,4,0,1,2,3,4,0,1,2,3,4,0,1,2,3,4,0,1,2,3,4,0,1,2,3,4,0,1,2,3,4,0,1,2,3,4,0,1,2,3,4,0,1,2,3,4,0,1,2,3,4,0,1,2,3,4,0,1,2,3,4,0,1,2,3,4,0,1,2,3,4,0,1,2,3,4,0,1,2,3,4,0,1,2,3,4,0,1,2,3,4,0,1,2,3,4,0,1,2,3,4,0,1,2,3,4,0,1,2,3,4,0,1,2,3,4,0,1,2,3,4,0,1,2,3,4,0,1,2,3,4,0,1,2,3,4,0,1,2,3,4,0,1,2,3,4,0,1,2,3,4,0,1,2,3,4,0,1,2,3,4,0,1,2,3,4,0,1,2,3,4,0,1,2,3,4,0,1,2,3,4,0,1,2,3,4,0,1,2,3,4,0,1,2,3,4,0,1,2,3,4,0,1,2,3,4,0,1,2,3,4,0,1,2,3,4,0,1,2,3,4,0,1,2,3,4,0,1,2,3,4,0,1,2,3,4,0,1,2,3,4,0,1,2,3,4,0,1,2,3,4,0,1,2,3,4,0,1,2,3,4,0,1,2,3,4,0,1,2,3,4,0,1,2,3,4,0,1,2,3,4,0,1,2,3,4,0,1,2,3,4,0,1,2,3,4,0,1,2,3,4,0,1,2,3,4,0,1,2,3,4,0,1,2,3,4,0,1,2,3,4,0,1,2,3,4,0,1,2,3,4,0,1,2,3,4,0,1,2,3,4,0,1,2,3,4,0,1,2,3,4,0,1,2,3,4,0,1,2,3,4,0,1,2,3,4,0,1,2,3,4,0,1,2,3,4,0,1,2,3,4,0,1,2,3,4,0,1,2,3,4,0,1,2,3,4,0,1,2,3,4,0,1,2,3,4,0,1,2,3,4,0,1,2,3,4,0,1,2,3,4,0,1,2,3,4,0,1,2,3,4,0,1,2,3,4,0,1,2,3,4,0,1,2,3,4,0,1,2,3,4,0,1,2,3,4,0,1,2,3,4,0,1,2,3,4,0,1,2,3,4,0,1,2,3,4,0,1,2,3,4,0,1,2,3,4,0,1,2,3,4,0,1,2,3,4,0,1,2,3,4,0,1,2,3,4,0,1,2,3,4,0,1,2,3,4,0,1,2,3,4,0,1,2,3,4,0,1,2,3,4,0,1,2,3,4,0,1,2,3,4,0,1,2,3,4,0,1,2,3,4,0,1,2,3,4,0,1,2,3,4,0,1,2,3,4,0,1,2,3,4,0,1,2,3,4,0,1,2,3,4,0,1,2,3,4,0,1,2,3,4,0,1,2,3,4,0,1,2,3,4,0,1,2,3,4,0,1,2,3,4,0,1,2,3,4,0,1,2,3,4,0,1,2,3,4,0,1,2,3,4,0,1,2,3,4,0,1,2,3,4],"trees":[{"base_weights":[-2.3107953E-7,-7.669227E-2,8.9909995E-1,3.5045904E-1,-2.0256211E-1,1.6035359E-1,-4.634068E-3,5.9778285E-1,-4.3749593E-2,-3.786839E-1,4.6626173E-2,-1.7013721E-2,9.3419766E-1,4.1782256E-2,-4.5268452E-1,1.6035359E-1,-2.0256093E-1,5.600984E-2,-4.200917E-2,1.6035359E-1,3.717963E-2,1.1047803E-2,-4.9096998E-2,-4.6644934E-2,2.892879E-2],"categories":[],"categories_nodes":[],"categories_segments":[],"categories_sizes":[],"default_left":[0,0,0,0,0,0,0,0,0,0,0,0,0,0,0,0,0,0,0,0,0,0,0,0,0],"id":0,"left_children":[1,3,5,7,9,-1,-1,11,-1,13,15,17,19,-1,21,-1,23,-1,-1,-1,-1,-1,-1,-1,-1],"loss_changes":[3.8306816E0,2.823138E0,2.9822545E0,2.6033785E0,1.7806674E0,0E0,0E0,1.9949541E0,0E0,1.5828731E0,7.1239705E0,1.2509799E0,1.7386289E0,0E0,5.3107643E-1,0E0,2.2110066E0,0E0,0E0,0E0,0E0,0E0,0E0,0E0,0E0],"parents":[2147483647,0,0,1,1,2,2,3,3,4,4,7,7,9,9,10,10,11,11,12,12,14,14,16,16],"right_children":[2,4,6,8,10,-1,-1,12,-1,14,16,18,20,-1,22,-1,24,-1,-1,-1,-1,-1,-1,-1,-1],"split_conditions":[4.66E2,1.78E2,2.8E0,1E0,3.43E2,1.6035359E-1,-4.634068E-3,6.6E1,-4.3749593E-2,1.2E0,3.56E2,2.8E0,7.2E1,4.1782256E-2,5.3E1,1.6035359E-1,4.1E0,5.600984E-2,-4.200917E-2,1.6035359E-1,3.717963E-2,1.1047803E-2,-4.9096998E-2,-4.6644934E-2,2.892879E-2],"split_indices":[2,2,1,4,2,0,0,0,0,3,2,3,0,0,0,0,1,0,0,0,0,0,0,0,0],"split_type":[0,0,0,0,0,0,0,0,0,0,0,0,0,0,0,0,0,0,0,0,0,0,0,0,0],"sum_hessian":[5.3554302E1,5.018803E1,3.3662703E0,1.1016885E1,3.9171146E1,1.5301229E0,1.8361475E0,8.568688E0,2.4481966E0,2.2645819E1,1.6525328E1,3.3662703E0,5.202418E0,1.5301229E0,2.1115696E1,1.5301229E0,1.4995205E1,1.2240983E0,2.142172E0,1.5301229E0,3.672295E0,1.2240983E0,1.9891598E1,9.792787E0,5.202418E0],"tree_param":{"num_deleted":"0","num_feature":"126","num_nodes":"25","size_leaf_vector":"1"}},{"base_weights":[-9.824539E-7,4.1122836E-1,-1.0767223E-1,1.7961228E-1,1.1956914E-1,-3.2419166E-1,1.7873594E-1,4.9976954E-1,-4.208874E-2,-4.5606074E-1,8.3740614E-2,-3.77791E-1,5.885406E-1,-4.767005E-2,1.4380434E-1,2.0164823E-2,-5.0241303E-1,1.1352923E-2,-4.9422525E-2,1.1598437E0,-2.5622305E-1,6.986698E-2,-4.3201324E-2,-5.5358518E-2,1.1352923E-2,1.5621363E-1,4.289799E-2,-4.208874E-2,1.1352923E-2],"categories":[],"categories_nodes":[],"categories_segments":[],"categories_sizes":[],"default_left":[0,0,0,0,0,0,0,0,0,0,0,0,0,0,0,0,0,0,0,0,0,0,0,0,0,0,0,0,0],"id":1,"left_children":[1,3,5,7,-1,9,11,13,-1,15,-1,17,19,21,-1,-1,23,-1,-1,25,27,-1,-1,-1,-1,-1,-1,-1,-1],"loss_changes":[2.0489163E0,1.529844E0,2.3321126E0,1.8617898E0,0E0,3.635381E0,3.9701235E0,3.181222E0,0E0,7.0255375E-1,0E0,4.8961437E-1,5.0532975E0,1.6772676E0,0E0,0E0,6.525612E-1,0E0,0E0,1.1116219E0,3.397233E-1,0E0,0E0,0E0,0E0,0E0,0E0,0E0,0E0],"parents":[2147483647,0,0,1,1,2,2,3,3,5,5,6,6,7,7,9,9,11,11,12,12,13,13,16,16,19,19,20,20],"right_children":[2,4,6,8,-1,10,12,14,-1,16,-1,18,20,22,-1,-1,24,-1,-1,26,28,-1,-1,-1,-1,-1,-1,-1,-1],"split_conditions":[1.6E0,4.01E2,3.8E0,3.17E2,1.1956914E-1,4.44E2,7.2E1,2.86E2,-4.208874E-2,5.1E1,8.3740614E-2,1.4E0,8.8E1,2.19E2,1.4380434E-1,2.0164823E-2,4.8E0,1.1352923E-2,-4.9422525E-2,3.16E2,3.6E0,6.986698E-2,-4.3201324E-2,-5.5358518E-2,1.1352923E-2,1.5621363E-1,4.289799E-2,-4.208874E-2,1.1352923E-2],"split_indices":[3,2,3,2,0,2,0,2,0,0,0,1,0,2,0,0,1,0,0,2,1,0,0,0,0,0,0,0,0],"split_type":[0,0,0,0,0,0,0,0,0,0,0,0,0,0,0,0,0,0,0,0,0,0,0,0,0,0,0,0,0],"sum_hessian":[4.4274353E1,8.601874E0,3.5672478E1,7.589889E0,1.0119852E0,2.0239704E1,1.5432774E1,5.059926E0,2.529963E0,1.8721725E1,1.5179777E0,6.5779037E0,8.854871E0,3.7949445E0,1.2649815E0,1.0119852E0,1.7709742E1,1.2649815E0,5.312922E0,5.059926E0,3.7949445E0,1.0119852E0,2.7829592E0,1.644476E1,1.2649815E0,2.529963E0,2.529963E0,2.529963E0,1.2649815E0],"tree_param":{"num_deleted":"0","num_feature":"126","num_nodes":"29","size_leaf_vector":"1"}},{"base_weights":[1.7724453E-7,-5.4364882E-2,1.3515596E-1,-5.7271738E-2,5.680995E-2,6.120489E-1,-7.307932E-2,1.380541E-1,1.1271615E-1,-1.3506153E-1,1.182645E-1,-2.8400142E-2,9.230761E-2,-2.3708781E-2,4.7128778E-2],"categories":[],"categories_nodes":[],"categories_segments":[],"categories_sizes":[],"default_left":[0,0,0,0,0,0,0,0,0,0,0,0,0,0,0],"id":2,"left_children":[1,3,-1,-1,5,7,9,11,-1,13,-1,-1,-1,-1,-1],"loss_changes":[4.434687E0,3.3761246E0,0E0,0E0,3.5557814E0,2.123954E0,3.300076E0,2.2506866E0,0E0,2.5458875E0,0E0,0E0,0E0,0E0,0E0],"parents":[2147483647,0,0,1,1,4,4,5,5,6,6,7,7,9,9],"right_children":[2,4,-1,-1,6,8,10,12,-1,14,-1,-1,-1,-1,-1],"split_conditions":[1E0,1.6E0,1.3515596E-1,-5.7271738E-2,5.8E1,3.0755E0,1E0,5.7E1,1.1271615E-1,1E0,1.182645E-1,-2.8400142E-2,9.230761E-2,-2.3708781E-2,4.7128778E-2],"split_indices":[88,1,0,0,0,3,97,0,0,6,0,0,0,0,0],"split_type":[0,0,0,0,0,0,0,0,0,0,0,0,0,0,0],"sum_hessian":[5.835427E1,5.702046E1,1.3338119E0,9.336683E0,4.7683773E1,8.336325E0,3.934745E1,5.0017943E0,3.3345296E0,3.834709E1,1.0003589E0,3.6679826E0,1.3338119E0,3.33453E1,5.0017943E0],"tree_param":{"num_deleted":"0","num_feature":"126","num_nodes":"15","size_leaf_vector":"1"}},{"base_weights":[-4.4688724E-7,-8.137551E-2,1.674084E-1,4.4918004E-1,-2.0766899E-1,7.188729E-1,-4.078029E-2,2.8364867E-1,-3.0550128E-1,-1.639982E-1,1.1805272E0,-3.6039345E-2,5.017784E-1,-3.669694E-1,1.943579E-1,-3.6039345E-2,1.3454002E-2,-3.2711774E-2,1.6761999E-1,1.068378E-1,1.2224776E-3,3.4088306E-2,-4.1984852E-2,-4.078029E-2,8.602931E-2],"categories":[],"categories_nodes":[],"categories_segments":[],"categories_sizes":[],"default_left":[0,0,0,0,0,0,0,0,0,0,0,0,0,0,0,0,0,0,0,0,0,0,0,0,0],"id":3,"left_children":[1,3,-1,5,7,9,-1,11,13,15,17,-1,19,21,23,-1,-1,-1,-1,-1,-1,-1,-1,-1,-1],"loss_changes":[7.222463E0,3.4810581E0,0E0,2.6130075E0,2.0824924E0,3.4528852E0,0E0,1.2223337E0,1.1500502E0,2.609526E-1,4.5634747E0,0E0,1.6390067E0,1.3263116E0,2.154657E0,0E0,0E0,0E0,0E0,0E0,0E0,0E0,0E0,0E0,0E0],"parents":[2147483647,0,0,1,1,3,3,4,4,5,5,7,7,8,8,9,9,10,10,12,12,13,13,14,14],"right_children":[2,4,-1,6,8,10,-1,12,14,16,18,-1,20,22,24,-1,-1,-1,-1,-1,-1,-1,-1,-1,-1],"split_conditions":[1E0,1.5E0,1.674084E-1,3.97E2,1.6E0,1.3E0,-4.078029E-2,2.6E0,4.8E0,3.3E0,2.19E2,-3.6039345E-2,3.7E0,5.1E1,4.08E2,-3.6039345E-2,1.3454002E-2,-3.2711774E-2,1.6761999E-1,1.068378E-1,1.2224776E-3,3.4088306E-2,-4.1984852E-2,-4.078029E-2,8.602931E-2],"split_indices":[54,3,0,2,1,3,0,3,3,1,2,0,3,0,2,0,0,0,0,0,0,0,0,0,0],"split_type":[0,0,0,0,0,0,0,0,0,0,0,0,0,0,0,0,0,0,0,0,0,0,0,0,0],"sum_hessian":[5.1017174E1,4.955954E1,1.4576335E0,9.037328E0,4.0522213E1,6.996641E0,2.0406868E0,6.4135876E0,3.4108624E1,2.6237404E0,4.3729005E0,1.4576335E0,4.955954E0,3.0610304E1,3.4983206E0,1.4576335E0,1.1661068E0,1.1661068E0,3.2067938E0,1.7491603E0,3.2067938E0,1.7491603E0,2.8861143E1,2.0406868E0,1.4576335E0],"tree_param":{"num_deleted":"0","num_feature":"126","num_nodes":"25","size_leaf_vector":"1"}},{"base_weights":[9.3157934E-7,-5.135906E-1,1.3977279E-1,3.4826826E-2,-6.3883E-2,7.812444E-2,1.2133551E-1,-7.875073E-2,4.418986E-1,1.8427023E-1,-4.6024513E-1,1.4840339E-1,-5.598021E-2,-9.902943E-3,9.370994E-2,-6.3574515E-2,1.9253211E-2,-2.9486397E-2,5.492858E-2],"categories":[],"categories_nodes":[],"categories_segments":[],"categories_sizes":[],"default_left":[0,0,0,0,0,0,0,0,0,0,0,0,0,0,0,0,0,0,0],"id":4,"left_children":[1,3,5,-1,-1,7,-1,9,11,13,15,-1,17,-1,-1,-1,-1,-1,-1],"loss_changes":[5.1447697E0,1.8773794E0,3.6338274E0,0E0,0E0,3.1361802E0,0E0,3.980053E0,8.657774E0,5.1457477E0,1.9700668E0,0E0,1.9182723E0,0E0,0E0,0E0,0E0,0E0,0E0],"parents":[2147483647,0,0,1,1,2,2,5,5,7,7,8,8,9,9,10,10,12,12],"right_children":[2,4,6,-1,-1,8,-1,10,12,14,16,-1,18,-1,-1,-1,-1,-1,-1],"split_conditions":[1.7E0,1.4E0,1E0,3.4826826E-2,-6.3883E-2,3.97E2,1.2133551E-1,3.8E0,4.23E2,4.1E0,1E0,1.4840339E-1,4.73E2,-9.902943E-3,9.370994E-2,-6.3574515E-2,1.9253211E-2,-2.9486397E-2,5.492858E-2],"split_indices":[3,1,124,0,0,2,0,1,2,3,5,0,2,0,0,0,0,0,0],"split_type":[0,0,0,0,0,0,0,0,0,0,0,0,0,0,0,0,0,0,0],"sum_hessian":[6.966852E1,1.4331809E1,5.5336708E1,1.5924232E0,1.2739386E1,5.3346176E1,1.9905291E0,3.782005E1,1.5526126E1,2.269203E1,1.512802E1,4.3791637E0,1.1146962E1,1.711855E1,5.573481E0,1.1943174E1,3.1848464E0,8.360222E0,2.7867405E0],"tree_param":{"num_deleted":"0","num_feature":"126","num_nodes":"19","size_leaf_vector":"1"}},{"base_weights":[1.1167646E-3,-7.3683046E-2,8.478098E-1,-1.22486524E-1,1.1801531E-1,1.460617E-1,-3.964124E-3,-1.7285138E-1,1.1485851E-1,1.441395E-1,-2.6093635E-1,-1.4197523E-2,1.1540347E-1,-3.7996676E-2,6.7155324E-3],"categories":[],"categories_nodes":[],"categories_segments":[],"categories_sizes":[],"default_left":[0,0,0,0,0,0,0,0,0,0,0,0,0,0,0],"id":5,"left_children":[1,3,5,7,-1,-1,-1,9,-1,11,13,-1,-1,-1,-1],"loss_changes":[3.5098565E0,3.2613292E0,2.5043123E0,3.3950758E0,0E0,0E0,0E0,1.4029622E0,0E0,3.4223728E0,1.5337863E0,0E0,0E0,0E0,0E0],"parents":[2147483647,0,0,1,1,2,2,3,3,7,7,9,9,10,10],"right_children":[2,4,6,8,-1,-1,-1,10,-1,12,14,-1,-1,-1,-1],"split_conditions":[4.66E2,1E0,2.8E0,1E0,1.1801531E-1,1.460617E-1,-3.964124E-3,1.78E2,1.1485851E-1,1.73E2,4.1E0,-1.4197523E-2,1.1540347E-1,-3.7996676E-2,6.7155324E-3],"split_indices":[2,71,1,73,0,0,0,2,0,2,1,0,0,0,0],"split_type":[0,0,0,0,0,0,0,0,0,0,0,0,0,0,0],"sum_hessian":[5.343317E1,4.9934734E1,3.498433E0,4.8932434E1,1.0023026E0,1.6873909E0,1.8110422E0,4.7898518E1,1.0339161E0,1.0277296E1,3.762122E1,8.678106E0,1.5991898E0,2.7489885E1,1.0131336E1],"tree_param":{"num_deleted":"0","num_feature":"126","num_nodes":"15","size_leaf_vector":"1"}},{"base_weights":[1.4204662E-3,3.8712004E-1,-1.0268411E-1,1.6964127E-1,1.09356776E-1,-3.1508958E-1,1.687458E-1,4.7011176E-1,-4.162727E-2,-4.4848254E-1,7.866783E-2,-3.6885083E-1,5.3973854E-1,-4.7353897E-2,1.3012671E-1,1.9854631E-2,-4.9583104E-1,1.1463909E-2,-4.874031E-2,1.034901E0,-2.513917E-1,6.534793E-2,-4.2684212E-2,-5.481119E-2,1.06215915E-2,1.3660552E-1,3.9758906E-2,-4.1707627E-2,1.1513761E-2],"categories":[],"categories_nodes":[],"categories_segments":[],"categories_sizes":[],"default_left":[0,0,0,0,0,0,0,0,0,0,0,0,0,0,0,0,0,0,0,0,0,0,0,0,0,0,0,0,0],"id":6,"left_children":[1,3,5,7,-1,9,11,13,-1,15,-1,17,19,21,-1,-1,23,-1,-1,25,27,-1,-1,-1,-1,-1,-1,-1,-1],"loss_changes":[1.8525851E0,1.3209859E0,2.1484313E0,1.723998E0,0E0,3.4004557E0,3.511002E0,2.7316298E0,0E0,6.8463755E-1,0E0,4.7856987E-1,4.2681456E0,1.5530984E0,0E0,0E0,6.2840986E-1,0E0,0E0,8.261862E-1,3.3606273E-1,0E0,0E0,0E0,0E0,0E0,0E0,0E0,0E0],"parents":[2147483647,0,0,1,1,2,2,3,3,5,5,6,6,7,7,9,9,11,11,12,12,13,13,16,16,19,19,20,20],"right_children":[2,4,6,8,-1,10,12,14,-1,16,-1,18,20,22,-1,-1,24,-1,-1,26,28,-1,-1,-1,-1,-1,-1,-1,-1],"split_conditions":[1.6E0,4.01E2,3.8E0,3.17E2,1.09356776E-1,4.44E2,7.2E1,2.86E2,-4.162727E-2,5.1E1,7.866783E-2,4.1E0,8.8E1,2.19E2,1.3012671E-1,1.9854631E-2,4.8E0,1.1463909E-2,-4.874031E-2,3.16E2,1E0,6.534793E-2,-4.2684212E-2,-5.481119E-2,1.06215915E-2,1.3660552E-1,3.9758906E-2,-4.1707627E-2,1.1513761E-2],"split_indices":[3,2,3,2,0,2,0,2,0,0,0,3,0,2,0,0,1,0,0,2,9,0,0,0,0,0,0,0,0],"split_type":[0,0,0,0,0,0,0,0,0,0,0,0,0,0,0,0,0,0,0,0,0,0,0,0,0,0,0,0,0],"sum_hessian":[4.4148056E1,8.805559E0,3.53425E1,7.6810827E0,1.124476E0,1.9736778E1,1.56057205E1,5.2079616E0,2.4731216E0,1.8134184E1,1.6025945E0,6.374443E0,9.231277E0,3.790855E0,1.4171064E0,1.018796E0,1.7115387E1,1.2617352E0,5.1127076E0,5.488154E0,3.7431235E0,1.0780067E0,2.7128482E0,1.5830295E1,1.2850931E0,2.8590806E0,2.6290734E0,2.4828694E0,1.260254E0],"tree_param":{"num_deleted":"0","num_feature":"126","num_nodes":"29","size_leaf_vector":"1"}},{"base_weights":[1.4599899E-4,-5.2345503E-2,1.2326355E-1,-5.622552E-2,5.2602604E-2,5.646707E-1,-7.1321316E-2,1.2750179E-1,1.0204122E-1,-1.3183975E-1,1.10198736E-1,-2.7897665E-2,8.477421E-2,1.400371E-3,-5.6664493E-2],"categories":[],"categories_nodes":[],"categories_segments":[],"categories_sizes":[],"default_left":[0,0,0,0,0,0,0,0,0,0,0,0,0,0,0],"id":7,"left_children":[1,3,-1,-1,5,7,9,11,-1,13,-1,-1,-1,-1,-1],"loss_changes":[3.900976E0,3.1246812E0,0E0,0E0,3.142052E0,1.789815E0,3.0028298E0,2.010995E0,0E0,2.4913645E0,0E0,0E0,0E0,0E0,0E0],"parents":[2147483647,0,0,1,1,4,4,5,5,6,6,7,7,9,9],"right_children":[2,4,-1,-1,6,8,10,12,-1,14,-1,-1,-1,-1,-1],"split_conditions":[1E0,1.6E0,1.2326355E-1,-5.622552E-2,5.8E1,3.0755E0,1E0,5.7E1,1.0204122E-1,4.01E2,1.10198736E-1,-2.7897665E-2,8.477421E-2,1.400371E-3,-5.6664493E-2],"split_indices":[88,1,0,0,0,3,97,0,0,2,0,0,0,0,0],"split_type":[0,0,0,0,0,0,0,0,0,0,0,0,0,0,0],"sum_hessian":[5.83004E1,5.6837242E1,1.463159E0,8.957606E0,4.7879635E1,8.636406E0,3.924323E1,5.0612154E0,3.5751908E0,3.816247E1,1.0807593E0,3.6269522E0,1.4342633E0,2.9301785E1,8.860686E0],"tree_param":{"num_deleted":"0","num_feature":"126","num_nodes":"15","size_leaf_vector":"1"}},{"base_weights":[-3.1260255E-4,-7.884441E-2,1.4876391E-1,4.036963E-1,-1.9967633E-1,6.4554244E-1,-4.044513E-2,2.6590127E-1,-2.9591045E-1,-1.6526853E-1,1.0440288E0,-3.5563856E-2,4.6958107E-1,3.3757668E-2,-3.4037507E-1,-3.5948183E-2,1.2918477E-2,-3.223804E-2,1.4515498E-1,7.327109E-2,-3.33324E-2,-4.1070696E-2,1.8562185E-2],"categories":[],"categories_nodes":[],"categories_segments":[],"categories_sizes":[],"default_left":[0,0,0,0,0,0,0,0,0,0,0,0,0,0,0,0,0,0,0,0,0,0,0],"id":8,"left_children":[1,3,-1,5,7,9,-1,11,13,15,17,-1,19,-1,21,-1,-1,-1,-1,-1,-1,-1,-1],"loss_changes":[6.1921024E0,3.015214E0,0E0,2.2957425E0,1.9121083E0,2.8857925E0,0E0,1.1210344E0,1.0834372E0,2.5405666E-1,3.6793127E0,0E0,1.5344472E0,0E0,1.2832603E0,0E0,0E0,0E0,0E0,0E0,0E0,0E0,0E0],"parents":[2147483647,0,0,1,1,3,3,4,4,5,5,7,7,8,8,9,9,10,10,12,12,14,14],"right_children":[2,4,-1,6,8,10,-1,12,14,16,18,-1,20,-1,22,-1,-1,-1,-1,-1,-1,-1,-1],"split_conditions":[1E0,1.5E0,1.4876391E-1,3.97E2,1.6E0,1.3E0,-4.044513E-2,2.6E0,5.1E1,1E0,2.19E2,-3.5563856E-2,4.6E2,3.3757668E-2,4.8E0,-3.5948183E-2,1.2918477E-2,-3.223804E-2,1.4515498E-1,7.327109E-2,-3.33324E-2,-4.1070696E-2,1.8562185E-2],"split_indices":[54,3,0,2,1,3,0,3,0,9,2,0,2,0,3,0,0,0,0,0,0,0,0],"split_type":[0,0,0,0,0,0,0,0,0,0,0,0,0,0,0,0,0,0,0,0,0,0,0],"sum_hessian":[5.098742E1,4.9330826E1,1.656594E0,9.410228E0,3.9920597E1,7.3976235E0,2.0126042E0,6.5360985E0,3.33845E1,2.6305108E0,4.7671127E0,1.4290892E0,5.1070094E0,1.7572298E0,3.162727E1,1.4519799E0,1.1785308E0,1.1431338E0,3.623979E0,3.9122903E0,1.1947192E0,2.8090439E1,3.5368316E0],"tree_param":{"num_deleted":"0","num_feature":"126","num_nodes":"23","size_leaf_vector":"1"}},{"base_weights":[-1.6598599E-3,-4.9974486E-1,1.2969813E-1,3.3338625E-2,-6.258499E-2,7.1278706E-2,1.1082937E-1,1.08936764E-1,1.943384E-2,-1.5967219E-1,4.147501E-1,-5.1822998E-2,1.0637332E-2,1.3247766E-1,-5.038414E-3],"categories":[],"categories_nodes":[],"categories_segments":[],"categories_sizes":[],"default_left":[0,0,0,0,0,0,0,0,0,0,0,0,0,0,0],"id":9,"left_children":[1,3,5,-1,-1,7,-1,-1,9,11,13,-1,-1,-1,-1],"loss_changes":[4.6895757E0,1.7800956E0,3.164084E0,0E0,0E0,2.8608167E0,0E0,0E0,3.8169284E0,3.601657E0,7.175889E0,0E0,0E0,0E0,0E0],"parents":[2147483647,0,0,1,1,2,2,5,5,8,8,9,9,10,10],"right_children":[2,4,6,-1,-1,8,-1,-1,10,12,14,-1,-1,-1,-1],"split_conditions":[1.7E0,1.4E0,1E0,3.3338625E-2,-6.258499E-2,1.01E2,1.1082937E-1,1.08936764E-1,3.97E2,3.5E0,4.23E2,-5.1822998E-2,1.0637332E-2,1.3247766E-1,-5.038414E-3],"split_indices":[3,1,124,0,0,2,0,0,2,3,2,0,0,0,0],"split_type":[0,0,0,0,0,0,0,0,0,0,0,0,0,0,0],"sum_hessian":[6.968531E1,1.3957318E1,5.5727997E1,1.6187949E0,1.2338524E1,5.3601E1,2.126993E0,1.6275904E0,5.197341E1,3.6178226E1,1.5795187E1,1.5006117E1,2.1172108E1,4.7174416E0,1.1077745E1],"tree_param":{"num_deleted":"0","num_feature":"126","num_nodes":"15","size_leaf_vector":"1"}},{"base_weights":[2.9454767E-3,-6.9178395E-2,7.833258E-1,-1.1746248E-1,1.1280234E-1,1.3244437E-1,-4.172012E-3,-1.6749492E-1,1.10644616E-1,-2.1913087E-1,1.06376804E-1,4.5261397E-3,-3.6353793E-2],"categories":[],"categories_nodes":[],"categories_segments":[],"categories_sizes":[],"default_left":[0,0,0,0,0,0,0,0,0,0,0,0,0],"id":10,"left_children":[1,3,5,7,-1,-1,-1,9,-1,11,-1,-1,-1],"loss_changes":[3.1061046E0,3.0548654E0,2.13953E0,3.2165065E0,0E0,0E0,0E0,3.3118505E0,0E0,1.8225737E0,0E0,0E0,0E0],"parents":[2147483647,0,0,1,1,2,2,3,3,7,7,9,9],"right_children":[2,4,6,8,-1,-1,-1,10,-1,12,-1,-1,-1],"split_conditions":[4.66E2,1E0,2.8E0,1E0,1.1280234E-1,1.3244437E-1,-4.172012E-3,1E0,1.10644616E-1,2.6E0,1.06376804E-1,4.5261397E-3,-3.6353793E-2],"split_indices":[2,45,1,71,0,0,0,73,0,3,0,0,0],"split_type":[0,0,0,0,0,0,0,0,0,0,0,0,0],"sum_hessian":[5.3223457E1,4.955488E1,3.6685798E0,4.8500694E1,1.0541849E0,1.8499606E0,1.8186194E0,4.7425137E1,1.0755559E0,4.6305244E1,1.1198933E0,1.6599707E1,2.9705536E1],"tree_param":{"num_deleted":"0","num_feature":"126","num_nodes":"13","size_leaf_vector":"1"}},{"base_weights":[2.8491258E-3,3.6275303E-1,-9.739504E-2,1.590553E-1,9.990323E-2,-3.0665964E-1,1.6243589E-1,4.418908E-1,-4.1211814E-2,-4.4102073E-1,7.278684E-2,-3.5986704E-1,5.031555E-1,-4.7952045E-2,1.1864469E-1,1.926032E-2,-4.8932633E-1,1.2034875E-2,-4.810918E-2,9.4158614E-1,-2.4531834E-1,6.1161935E-2,-4.2208053E-2,-5.4287232E-2,1.0217366E-2,1.225292E-1,3.723351E-2,-4.11093E-2,1.1197603E-2],"categories":[],"categories_nodes":[],"categories_segments":[],"categories_sizes":[],"default_left":[0,0,0,0,0,0,0,0,0,0,0,0,0,0,0,0,0,0,0,0,0,0,0,0,0,0,0,0,0],"id":11,"left_children":[1,3,5,7,-1,9,11,13,-1,15,-1,17,19,21,-1,-1,23,-1,-1,25,27,-1,-1,-1,-1,-1,-1,-1,-1],"loss_changes":[1.6574159E0,1.138005E0,2.0047464E0,1.5987443E0,0E0,3.1372952E0,3.1517053E0,2.3719144E0,0E0,6.621628E-1,0E0,4.7548628E-1,3.6830077E0,1.4400996E0,0E0,0E0,6.1045885E-1,0E0,0E0,6.4850426E-1,3.2317817E-1,0E0,0E0,0E0,0E0,0E0,0E0,0E0,0E0],"parents":[2147483647,0,0,1,1,2,2,3,3,5,5,6,6,7,7,9,9,11,11,12,12,13,13,16,16,19,19,20,20],"right_children":[2,4,6,8,-1,10,12,14,-1,16,-1,18,20,22,-1,-1,24,-1,-1,26,28,-1,-1,-1,-1,-1,-1,-1,-1],"split_conditions":[1.6E0,4.01E2,3.8E0,3.17E2,9.990323E-2,4.44E2,7.2E1,2.86E2,-4.1211814E-2,5.1E1,7.278684E-2,1.4E0,8.8E1,2.19E2,1.1864469E-1,1.926032E-2,4.8E0,1.2034875E-2,-4.810918E-2,3.16E2,1E0,6.1161935E-2,-4.2208053E-2,-5.4287232E-2,1.0217366E-2,1.225292E-1,3.723351E-2,-4.11093E-2,1.1197603E-2],"split_indices":[3,2,3,2,0,2,0,2,0,0,0,1,0,2,0,0,1,0,0,2,9,0,0,0,0,0,0,0,0],"split_type":[0,0,0,0,0,0,0,0,0,0,0,0,0,0,0,0,0,0,0,0,0,0,0,0,0,0,0,0,0],"sum_hessian":[4.3960186E1,9.006326E0,3.495386E1,7.769109E0,1.2372167E0,1.9261036E1,1.5692824E1,5.3474746E0,2.4216342E0,1.7554777E1,1.706258E0,6.1733108E0,9.519514E0,3.7897787E0,1.5576957E0,1.0319202E0,1.6522858E1,1.2457325E0,4.927578E0,5.840399E0,3.6791153E0,1.1418917E0,2.647887E0,1.5226663E1,1.296194E0,3.1286604E0,2.7117386E0,2.4102528E0,1.2688625E0],"tree_param":{"num_deleted":"0","num_feature":"126","num_nodes":"29","size_leaf_vector":"1"}},{"base_weights":[-3.1969132E-4,-5.5275936E-2,1.0442306E-1,4.3899965E-1,-6.470439E-2,1.4186583E-1,1.2106391E-1,4.7463387E-1,-1.5237187E-1,4.3614954E-1,-3.4422845E-1,7.915725E-2,8.8738374E-2,7.262151E-2,-4.3553904E-1,5.7589997E-2,-3.2371502E-2,-4.864427E-2,6.69256E-3,-3.5959378E-2,4.7601283E-2,4.447563E-2,-2.6706401E-2,-5.616476E-2,-1.0044007E-2],"categories":[],"categories_nodes":[],"categories_segments":[],"categories_sizes":[],"default_left":[0,0,0,0,0,0,0,0,0,0,0,0,0,0,0,0,0,0,0,0,0,0,0,0,0],"id":12,"left_children":[1,-1,3,5,7,9,-1,11,13,15,17,19,-1,21,23,-1,-1,-1,-1,-1,-1,-1,-1,-1,-1],"loss_changes":[3.4841006E0,0E0,2.8926656E0,3.7545035E0,1.7032571E0,2.0807629E0,0E0,7.566738E-1,1.970196E0,1.1259915E0,3.6282682E-1,8.128077E-1,0E0,2.3704436E0,5.18945E-1,0E0,0E0,0E0,0E0,0E0,0E0,0E0,0E0,0E0,0E0],"parents":[2147483647,0,0,2,2,3,3,4,4,5,5,7,7,8,8,9,9,10,10,11,11,13,13,14,14],"right_children":[2,-1,4,6,8,10,-1,12,14,16,18,20,-1,22,24,-1,-1,-1,-1,-1,-1,-1,-1,-1,-1],"split_conditions":[1.6E0,-5.5275936E-2,6.8E1,4.1E0,1.4E0,5.8E1,1.2106391E-1,3.17E2,3.43E2,4.01E2,6E1,2.8E0,8.8738374E-2,3.3E0,4.44E2,5.7589997E-2,-3.2371502E-2,-4.864427E-2,6.69256E-3,-3.5959378E-2,4.7601283E-2,4.447563E-2,-2.6706401E-2,-5.616476E-2,-1.0044007E-2],"split_indices":[1,0,0,1,3,0,0,2,2,2,0,1,0,3,2,0,0,0,0,0,0,0,0,0,0],"split_type":[0,0,0,0,0,0,0,0,0,0,0,0,0,0,0,0,0,0,0,0,0,0,0,0,0],"sum_hessian":[5.8214314E1,8.596564E0,4.961775E1,1.6124252E1,3.3493496E1,1.2496209E1,3.6280427E0,4.06587E0,2.9427626E1,7.847839E0,4.6483703E0,2.6850076E0,1.3808622E0,1.6812567E1,1.2615059E1,6.8332114E0,1.0146273E0,3.3176959E0,1.3306744E0,1.3197863E0,1.3652215E0,7.8754635E0,8.937104E0,8.6744995E0,3.940559E0],"tree_param":{"num_deleted":"0","num_feature":"126","num_nodes":"25","size_leaf_vector":"1"}},{"base_weights":[-1.5774088E-3,-7.735403E-2,1.340331E-1,-1.2537616E-1,1.07571326E-1,3.1119066E-1,-2.216255E-1,5.8069974E-1,-6.292905E-2,-4.711973E-1,-1.06745094E-1,1.1836498E-1,-3.991029E-2,-4.204559E-2,4.315136E-2,-5.4502703E-2,7.4372827E-3,4.9086936E-2,-1.9898206E-2],"categories":[],"categories_nodes":[],"categories_segments":[],"categories_sizes":[],"default_left":[0,0,0,0,0,0,0,0,0,0,0,0,0,0,0,0,0,0,0],"id":13,"left_children":[1,3,-1,5,-1,7,9,11,13,15,17,-1,-1,-1,-1,-1,-1,-1,-1],"loss_changes":[5.384531E0,2.9092011E0,0E0,2.1277122E0,0E0,9.708801E-1,1.1174297E0,3.712265E0,1.0268587E0,5.458524E-1,1.7063206E0,0E0,0E0,0E0,0E0,0E0,0E0,0E0,0E0],"parents":[2147483647,0,0,1,1,3,3,5,5,6,6,7,7,8,8,9,9,10,10],"right_children":[2,4,-1,6,-1,8,10,12,14,16,18,-1,-1,-1,-1,-1,-1,-1,-1],"split_conditions":[1E0,1E0,1.340331E-1,1.6E0,1.07571326E-1,2.39E2,1.92E2,3.7E0,3.4E0,9.5E1,2.21E2,1.1836498E-1,-3.991029E-2,-4.204559E-2,4.315136E-2,-5.4502703E-2,7.4372827E-3,4.9086936E-2,-1.9898206E-2],"split_indices":[54,47,0,1,0,2,2,3,3,0,2,0,0,0,0,0,0,0,0],"split_type":[0,0,0,0,0,0,0,0,0,0,0,0,0,0,0,0,0,0,0],"sum_hessian":[5.093329E1,4.9102844E1,1.8304476E0,4.799524E1,1.1076047E0,8.2665825E0,3.9728657E1,4.484124E0,3.7824583E0,1.1545348E1,2.8183308E1,2.6471033E0,1.837021E0,2.2820013E0,1.500457E0,1.0170072E1,1.375277E0,3.190412E0,2.4992895E1],"tree_param":{"num_deleted":"0","num_feature":"126","num_nodes":"19","size_leaf_vector":"1"}},{"base_weights":[-2.6500525E-3,-4.871438E-1,1.21488266E-1,3.1998217E-2,-6.142431E-2,6.588647E-2,1.02464154E-1,1.01385035E-1,1.6078385E-2,-1.5412892E-1,3.8315418E-1,-5.0666597E-2,1.0082128E-2,1.194391E-1,-5.114601E-3],"categories":[],"categories_nodes":[],"categories_segments":[],"categories_sizes":[],"default_left":[0,0,0,0,0,0,0,0,0,0,0,0,0,0,0],"id":14,"left_children":[1,3,5,-1,-1,7,-1,-1,9,11,13,-1,-1,-1,-1],"loss_changes":[4.30235E0,1.6931772E0,2.792882E0,0E0,0E0,2.5676584E0,0E0,0E0,3.3710842E0,3.3703418E0,6.078767E0,0E0,0E0,0E0,0E0],"parents":[2147483647,0,0,1,1,2,2,5,5,8,8,9,9,10,10],"right_children":[2,4,6,-1,-1,8,-1,-1,10,12,14,-1,-1,-1,-1],"split_conditions":[1.7E0,1.4E0,1E0,3.1998217E-2,-6.142431E-2,1.01E2,1.02464154E-1,1.01385035E-1,3.97E2,3.5E0,4.23E2,-5.0666597E-2,1.0082128E-2,1.194391E-1,-5.114601E-3],"split_indices":[3,1,124,0,0,2,0,0,2,3,2,0,0,0,0],"split_type":[0,0,0,0,0,0,0,0,0,0,0,0,0,0,0],"sum_hessian":[6.954986E1,1.3589157E1,5.5960697E1,1.6423118E0,1.1946845E1,5.3726055E1,2.234644E0,1.7157723E0,5.201028E1,3.593015E1,1.6080132E1,1.4664808E1,2.1265343E1,4.9966507E0,1.1083482E1],"tree_param":{"num_deleted":"0","num_feature":"126","num_nodes":"15","size_leaf_vector":"1"}},{"base_weights":[5.02104E-3,-6.4776905E-2,7.3317575E-1,-1.12091064E-1,1.0558837E-1,1.21936224E-1,-4.1597257E-3,-1.612307E-1,1.035039E-1,-2.1181421E-1,9.834099E-2,4.1206037E-3,-3.538687E-2],"categories":[],"categories_nodes":[],"categories_segments":[],"categories_sizes":[],"default_left":[0,0,0,0,0,0,0,0,0,0,0,0,0],"id":15,"left_children":[1,3,5,7,-1,-1,-1,9,-1,11,-1,-1,-1],"loss_changes":[2.7896745E0,2.7776818E0,1.8590596E0,2.9304767E0,0E0,0E0,0E0,2.9804196E0,0E0,1.6921799E0,0E0,0E0,0E0],"parents":[2147483647,0,0,1,1,2,2,3,3,7,7,9,9],"right_children":[2,4,6,8,-1,-1,-1,10,-1,12,-1,-1,-1],"split_conditions":[4.66E2,1E0,2.8E0,1E0,1.0558837E-1,1.21936224E-1,-4.1597257E-3,1E0,1.035039E-1,2.6E0,9.834099E-2,4.1206037E-3,-3.538687E-2],"split_indices":[2,45,1,71,0,0,0,73,0,3,0,0,0],"split_type":[0,0,0,0,0,0,0,0,0,0,0,0,0],"sum_hessian":[5.295478E1,4.9154106E1,3.800673E0,4.8026413E1,1.127692E0,1.9826723E0,1.8180006E0,4.6877758E1,1.1486547E0,4.567429E1,1.2034692E0,1.6678078E1,2.8996212E1],"tree_param":{"num_deleted":"0","num_feature":"126","num_nodes":"13","size_leaf_vector":"1"}},{"base_weights":[3.8963964E-3,-4.987187E-2,1.1697644E-1,6.7250334E-2,-8.333443E-2,-2.278119E-1,1.5182379E-1,7.4449465E-2,-3.2209376E-1,-3.5205024E-1,4.6318883E-1,-3.8814466E-2,4.3099362E-2,1.1911011E-2,-4.7503937E-2,8.509575E-2,-2.4076251E-2],"categories":[],"categories_nodes":[],"categories_segments":[],"categories_sizes":[],"default_left":[0,0,0,0,0,0,0,0,0,0,0,0,0,0,0,0,0],"id":16,"left_children":[1,3,-1,-1,5,7,9,-1,11,13,15,-1,-1,-1,-1,-1,-1],"loss_changes":[2.8624995E0,1.1128651E0,0E0,0E0,1.4844445E0,2.6996589E0,2.8051555E0,0E0,1.4187815E0,4.622199E-1,3.163998E0,0E0,0E0,0E0,0E0,0E0,0E0],"parents":[2147483647,0,0,1,1,4,4,5,5,6,6,8,8,9,9,10,10],"right_children":[2,4,-1,-1,6,8,10,-1,12,14,16,-1,-1,-1,-1,-1,-1],"split_conditions":[1E0,8.8E1,1.1697644E-1,6.7250334E-2,3.8E0,5.1E1,7.2E1,7.4449465E-2,4.44E2,4.1E0,8.8E1,-3.8814466E-2,4.3099362E-2,1.1911011E-2,-4.7503937E-2,8.509575E-2,-2.4076251E-2],"split_indices":[123,2,0,0,3,0,0,0,2,3,0,0,0,0,0,0,0],"split_type":[0,0,0,0,0,0,0,0,0,0,0,0,0,0,0,0,0],"sum_hessian":[4.3732952E1,4.271999E1,1.0129652E0,1.0458324E0,4.1674156E1,2.5833628E1,1.5840529E1,1.6739632E0,2.4159664E1,6.0000825E0,9.840447E0,2.265708E1,1.5025842E0,1.2485474E0,4.751535E0,6.2105575E0,3.6298897E0],"tree_param":{"num_deleted":"0","num_feature":"126","num_nodes":"17","size_leaf_vector":"1"}},{"base_weights":[-2.570422E-3,-5.435971E-2,9.5536E-2,4.1833784E-2,1.0490862E-1,-4.5326203E-3,1.0884124E-1,1.367444E-1,-3.660448E-1,6.3507385E-3,9.32548E-2,-5.737827E-2,1.00594416E-1],"categories":[],"categories_nodes":[],"categories_segments":[],"categories_sizes":[],"default_left":[0,0,0,0,0,0,0,0,0,0,0,0,0],"id":17,"left_children":[1,-1,3,5,-1,7,-1,9,11,-1,-1,-1,-1],"loss_changes":[3.1932926E0,0E0,2.5651226E0,2.396039E0,0E0,2.510774E0,0E0,2.00223E0,4.513218E0,0E0,0E0,0E0,0E0],"parents":[2147483647,0,0,2,2,3,3,5,5,7,7,8,8],"right_children":[2,-1,4,6,-1,8,-1,10,12,-1,-1,-1,-1],"split_conditions":[1.6E0,-5.435971E-2,1E0,1E0,1.0490862E-1,3.87E2,1.0884124E-1,3.64E2,1E0,6.3507385E-3,9.32548E-2,-5.737827E-2,1.00594416E-1],"split_indices":[1,0,88,109,0,2,0,2,97,0,0,0,0],"split_type":[0,0,0,0,0,0,0,0,0,0,0,0,0],"sum_hessian":[5.8183624E1,8.234117E0,4.9949505E1,4.827464E1,1.6748682E0,4.7180096E1,1.094543E0,3.4370163E1,1.2809932E1,3.246248E1,1.9076864E0,1.1630676E1,1.1792557E0],"tree_param":{"num_deleted":"0","num_feature":"126","num_nodes":"13","size_leaf_vector":"1"}},{"base_weights":[-1.099288E-3,-7.421291E-2,1.21844105E-1,-1.2117261E-1,1.00669004E-1,2.9040322E-1,-2.1462476E-1,4.136652E-1,-3.2191638E-2,-4.620114E-1,-1.040188E-1,2.8969217E-3,6.294658E-2,-5.374154E-2,7.150496E-3,4.5283157E-2,-1.9345319E-2],"categories":[],"categories_nodes":[],"categories_segments":[],"categories_sizes":[],"default_left":[0,0,0,0,0,0,0,0,0,0,0,0,0,0,0,0,0],"id":18,"left_children":[1,3,-1,5,-1,7,9,11,-1,13,15,-1,-1,-1,-1,-1,-1],"loss_changes":[4.7038383E0,2.6475577E0,0E0,1.9307365E0,0E0,8.436849E-1,1.0509092E0,6.6865456E-1,0E0,5.259409E-1,1.5340872E0,0E0,0E0,0E0,0E0,0E0,0E0],"parents":[2147483647,0,0,1,1,3,3,5,5,6,6,7,7,9,9,10,10],"right_children":[2,4,-1,6,-1,8,10,12,-1,14,16,-1,-1,-1,-1,-1,-1],"split_conditions":[1E0,1E0,1.21844105E-1,1.6E0,1.00669004E-1,4.6E2,1.92E2,2.6E0,-3.2191638E-2,9.5E1,2.21E2,2.8969217E-3,6.294658E-2,-5.374154E-2,7.150496E-3,4.5283157E-2,-1.9345319E-2],"split_indices":[54,47,0,1,0,2,2,3,0,0,2,0,0,0,0,0,0],"split_type":[0,0,0,0,0,0,0,0,0,0,0,0,0,0,0,0,0],"sum_hessian":[5.0740196E1,4.8756313E1,1.9838815E0,4.7577225E1,1.17909E0,8.4138775E0,3.9163345E1,7.2740216E0,1.1398557E0,1.1118371E1,2.8044975E1,3.0216792E0,4.252342E0,9.735155E0,1.3832164E0,3.3186426E0,2.4726334E1],"tree_param":{"num_deleted":"0","num_feature":"126","num_nodes":"17","size_leaf_vector":"1"}},{"base_weights":[-3.360716E-3,-4.729993E-1,1.1320216E-1,3.140654E-2,-6.0202487E-2,4.587525E-1,-1.7559797E-2,2.0699987E-1,1.11494124E-1,-6.9224186E-2,9.3187466E-2,-1.3513865E-1,7.3383856E-1,-1.2359897E-1,9.140596E-2,1.0145559E-1,-5.75973E-2,2.843494E-3,9.5931225E-2,-1.8136948E-2,9.070855E-2],"categories":[],"categories_nodes":[],"categories_segments":[],"categories_sizes":[],"default_left":[0,0,0,0,0,0,0,0,0,0,0,0,0,0,0,0,0,0,0,0,0],"id":19,"left_children":[1,3,5,-1,-1,7,9,11,-1,13,-1,15,17,19,-1,-1,-1,-1,-1,-1,-1],"loss_changes":[3.901037E0,1.6279173E0,2.5887856E0,0E0,0E0,2.3655505E0,2.1442287E0,2.3679512E0,0E0,2.3126202E0,0E0,4.8799505E0,7.8566265E-1,2.5382733E0,0E0,0E0,0E0,0E0,0E0,0E0,0E0],"parents":[2147483647,0,0,1,1,2,2,5,5,6,6,7,7,9,9,11,11,12,12,13,13],"right_children":[2,4,6,-1,-1,8,10,12,-1,14,-1,16,18,20,-1,-1,-1,-1,-1,-1,-1],"split_conditions":[1.7E0,1.4E0,3.0755E0,3.140654E-2,-6.0202487E-2,3E0,1E0,3.97E2,1.11494124E-1,1E0,9.3187466E-2,1.15E2,6.4E1,1E0,9.140596E-2,1.0145559E-1,-5.75973E-2,2.843494E-3,9.5931225E-2,-1.8136948E-2,9.070855E-2],"split_indices":[3,1,3,0,0,3,69,2,0,66,0,2,0,98,0,0,0,0,0,0,0],"split_type":[0,0,0,0,0,0,0,0,0,0,0,0,0,0,0,0,0,0,0,0,0],"sum_hessian":[6.928355E1,1.3168601E1,5.611495E1,1.6527262E0,1.1515875E1,1.4716625E1,4.1398323E1,1.1586731E1,3.1298947E0,4.0141094E1,1.2572273E0,7.475499E0,4.111232E0,3.886613E1,1.2749653E0,1.7112137E0,5.764285E0,1.26857E0,2.8426619E0,3.7583576E1,1.282553E0],"tree_param":{"num_deleted":"0","num_feature":"126","num_nodes":"21","size_leaf_vector":"1"}},{"base_weights":[5.6593423E-3,-6.1536178E-2,6.8377006E-1,-1.0779334E-1,9.90593E-2,1.1187309E-1,-4.056006E-3,-1.5591688E-1,9.6974164E-2,-2.0564216E-1,9.268058E-2,3.3892707E-3,-3.4433257E-2],"categories":[],"categories_nodes":[],"categories_segments":[],"categories_sizes":[],"default_left":[0,0,0,0,0,0,0,0,0,0,0,0,0],"id":20,"left_children":[1,3,5,7,-1,-1,-1,9,-1,11,-1,-1,-1],"loss_changes":[2.4902909E0,2.5305824E0,1.5975509E0,2.671695E0,0E0,0E0,0E0,2.7420201E0,0E0,1.5440899E0,0E0,0E0,0E0],"parents":[2147483647,0,0,1,1,2,2,3,3,7,7,9,9],"right_children":[2,4,6,8,-1,-1,-1,10,-1,12,-1,-1,-1],"split_conditions":[4.66E2,1E0,2.8E0,1E0,9.90593E-2,1.1187309E-1,-4.056006E-3,1E0,9.6974164E-2,2.6E0,9.268058E-2,3.3892707E-3,-3.4433257E-2],"split_indices":[2,45,1,71,0,0,0,73,0,3,0,0,0],"split_type":[0,0,0,0,0,0,0,0,0,0,0,0,0],"sum_hessian":[5.272897E1,4.880229E1,3.9266756E0,4.7606792E1,1.1954988E0,2.1131957E0,1.8134799E0,4.639027E1,1.2165234E0,4.5127792E1,1.2624761E0,1.6824863E1,2.830293E1],"tree_param":{"num_deleted":"0","num_feature":"126","num_nodes":"13","size_leaf_vector":"1"}},{"base_weights":[3.7509247E-3,-4.84536E-2,1.0829776E-1,6.401442E-2,-8.129529E-2,-2.0928141E-1,1.5929264E-1,6.966328E-2,-2.962836E-1,-3.3644143E-1,4.8106644E-1,-3.569214E-2,4.122894E-2,1.9747468E-2,-4.6929505E-2,8.302971E-2,-1.9603964E-2],"categories":[],"categories_nodes":[],"categories_segments":[],"categories_sizes":[],"default_left":[0,0,0,0,0,0,0,0,0,0,0,0,0,0,0,0,0],"id":21,"left_children":[1,3,-1,-1,5,7,9,-1,11,13,15,-1,-1,-1,-1,-1,-1],"loss_changes":[2.5646105E0,1.0355164E0,0E0,0E0,1.338789E0,2.421639E0,2.6007693E0,0E0,1.2791076E0,5.6129175E-1,2.452507E0,0E0,0E0,0E0,0E0,0E0,0E0],"parents":[2147483647,0,0,1,1,4,4,5,5,6,6,8,8,9,9,10,10],"right_children":[2,4,-1,-1,6,8,10,-1,12,14,16,-1,-1,-1,-1,-1,-1],"split_conditions":[1E0,8.8E1,1.0829776E-1,6.401442E-2,4E0,5.1E1,7.2E1,6.966328E-2,4.44E2,4.1E0,8.8E1,-3.569214E-2,4.122894E-2,1.9747468E-2,-4.6929505E-2,8.302971E-2,-1.9603964E-2],"split_indices":[123,2,0,0,3,0,0,0,2,3,0,0,0,0,0,0,0],"split_type":[0,0,0,0,0,0,0,0,0,0,0,0,0,0,0,0,0],"sum_hessian":[4.358846E1,4.248831E1,1.1001481E0,1.0923792E0,4.139593E1,2.710627E1,1.4289661E1,1.7611492E0,2.5345121E1,5.606516E0,8.6831455E0,2.3804293E1,1.5408274E0,1.0201796E0,4.5863366E0,5.57928E0,3.1038654E0],"tree_param":{"num_deleted":"0","num_feature":"126","num_nodes":"17","size_leaf_vector":"1"}},{"base_weights":[-3.1558254E-3,-5.357442E-2,8.985225E-2,3.8365284E-1,-6.457839E-2,1.16304316E-1,1.04531705E-1,1.1995383E-1,-2.8017503E-1,3.727949E-1,-3.3357817E-1,-6.7859635E-2,6.476342E-1,-3.8998982E-1,-2.831257E-2,1.2137076E-2,8.4539846E-2,-4.7598682E-2,6.5429914E-3,2.9753989E-2,-3.455683E-2,-9.66132E-3,1.16257094E-1,1.1505167E-3,-4.5662984E-2,3.2790747E-2,-4.3216508E-2],"categories":[],"categories_nodes":[],"categories_segments":[],"categories_sizes":[],"default_left":[0,0,0,0,0,0,0,0,0,0,0,0,0,0,0,0,0,0,0,0,0,0,0,0,0,0,0],"id":22,"left_children":[1,-1,3,5,7,9,-1,11,13,15,17,19,21,23,25,-1,-1,-1,-1,-1,-1,-1,-1,-1,-1,-1,-1],"loss_changes":[2.97122E0,0E0,2.3429873E0,3.0178757E0,1.4000516E0,1.7127545E0,0E0,1.9474189E0,4.35351E-1,9.9524295E-1,3.4514922E-1,1.6320482E0,2.080816E0,3.0387068E-1,1.0018064E0,0E0,0E0,0E0,0E0,0E0,0E0,0E0,0E0,0E0,0E0,0E0,0E0],"parents":[2147483647,0,0,2,2,3,3,4,4,5,5,7,7,8,8,9,9,10,10,11,11,12,12,13,13,14,14],"right_children":[2,-1,4,6,8,10,-1,12,14,16,18,20,22,24,26,-1,-1,-1,-1,-1,-1,-1,-1,-1,-1,-1,-1],"split_conditions":[1.6E0,-5.357442E-2,6.8E1,4.1E0,3.3E0,5.8E1,1.04531705E-1,1E0,9E1,5.7E1,6E1,8.5E1,8.7E1,1.57E2,9.7E1,1.2137076E-2,8.4539846E-2,-4.7598682E-2,6.5429914E-3,2.9753989E-2,-3.455683E-2,-9.66132E-3,1.16257094E-1,1.1505167E-3,-4.5662984E-2,3.2790747E-2,-4.3216508E-2],"split_indices":[1,0,0,1,3,0,0,5,0,0,0,0,0,2,0,0,0,0,0,0,0,0,0,0,0,0,0],"split_type":[0,0,0,0,0,0,0,0,0,0,0,0,0,0,0,0,0,0,0,0,0,0,0,0,0,0,0],"sum_hessian":[5.8010418E1,7.916767E0,5.009365E1,1.6747545E1,3.3346104E1,1.2765401E1,3.9821446E0,1.8206512E1,1.5139593E1,8.239297E0,4.5261035E0,1.4070058E1,4.136454E0,1.0160904E1,4.978689E0,6.198513E0,2.040784E0,3.1934237E0,1.3326797E0,6.044932E0,8.0251255E0,2.0237992E0,2.112655E0,1.5642022E0,8.596702E0,2.745266E0,2.2334232E0],"tree_param":{"num_deleted":"0","num_feature":"126","num_nodes":"27","size_leaf_vector":"1"}},{"base_weights":[-2.0648623E-3,-7.268522E-2,1.1243512E-1,-1.22938484E-1,1.1825486E-1,3.153616E-1,-2.6421016E-1,4.856919E-1,-3.9442133E-2,2.6566032E-1,-3.4100282E-1,-1.6170293E-2,7.244603E-2,7.646673E-2,-3.9500143E-2,6.311038E-3,-4.276031E-2],"categories":[],"categories_nodes":[],"categories_segments":[],"categories_sizes":[],"default_left":[0,0,0,0,0,0,0,0,0,0,0,0,0,0,0,0,0],"id":23,"left_children":[1,3,-1,5,-1,7,9,11,-1,13,15,-1,-1,-1,-1,-1,-1],"loss_changes":[4.18782E0,3.268574E0,0E0,3.0871468E0,0E0,1.676277E0,1.6055322E0,1.7173574E0,0E0,2.0410428E0,1.1803334E0,0E0,0E0,0E0,0E0,0E0,0E0],"parents":[2147483647,0,0,1,1,3,3,5,5,6,6,7,7,9,9,10,10],"right_children":[2,4,-1,6,-1,8,10,12,-1,14,16,-1,-1,-1,-1,-1,-1],"split_conditions":[1E0,1E0,1.1243512E-1,1.7E0,1.1825486E-1,3.97E2,5.4E1,1.3E0,-3.9442133E-2,3.33E2,1.6E0,-1.6170293E-2,7.244603E-2,7.646673E-2,-3.9500143E-2,6.311038E-3,-4.276031E-2],"split_indices":[54,24,0,3,0,2,0,3,0,2,1,0,0,0,0,0,0],"split_type":[0,0,0,0,0,0,0,0,0,0,0,0,0,0,0,0,0],"sum_hessian":[5.0617912E1,4.851194E1,2.1059713E0,4.7511864E1,1.0000772E0,1.1280727E1,3.6231136E1,9.3521595E0,1.9285687E0,4.2748885E0,3.1956247E1,2.6068175E0,6.745342E0,2.3457127E0,1.9291761E0,5.687451E0,2.6268795E1],"tree_param":{"num_deleted":"0","num_feature":"126","num_nodes":"17","size_leaf_vector":"1"}},{"base_weights":[-2.5537864E-3,-4.61987E-1,1.0865396E-1,2.9693956E-2,-5.9172135E-2,4.327235E-1,-1.5449608E-2,1.9534823E-1,1.035018E-1,-6.544342E-2,8.7485954E-2,-1.3153733E-1,6.877868E-1,-1.1872809E-1,8.7486535E-2,9.559511E-2,-5.6718793E-2,2.4725066E-3,8.972608E-2,-1.7513445E-2,8.581749E-2],"categories":[],"categories_nodes":[],"categories_segments":[],"categories_sizes":[],"default_left":[0,0,0,0,0,0,0,0,0,0,0,0,0,0,0,0,0,0,0,0,0],"id":24,"left_children":[1,3,5,-1,-1,7,9,11,-1,13,-1,15,17,19,-1,-1,-1,-1,-1,-1,-1],"loss_changes":[3.6215355E0,1.5356746E0,2.302616E0,0E0,0E0,2.062795E0,1.9375533E0,2.1181233E0,0E0,2.154571E0,0E0,4.526692E0,6.9813704E-1,2.333189E0,0E0,0E0,0E0,0E0,0E0,0E0,0E0],"parents":[2147483647,0,0,1,1,2,2,5,5,6,6,7,7,9,9,11,11,12,12,13,13],"right_children":[2,4,6,-1,-1,8,10,12,-1,14,-1,16,18,20,-1,-1,-1,-1,-1,-1,-1],"split_conditions":[1.7E0,1.4E0,3.0755E0,2.9693956E-2,-5.9172135E-2,3E0,1E0,3.97E2,1.035018E-1,1E0,8.7485954E-2,1.15E2,6.4E1,1E0,8.7486535E-2,9.559511E-2,-5.6718793E-2,2.4725066E-3,8.972608E-2,-1.7513445E-2,8.581749E-2],"split_indices":[3,1,3,0,0,3,69,2,0,66,0,2,0,98,0,0,0,0,0,0,0],"split_type":[0,0,0,0,0,0,0,0,0,0,0,0,0,0,0,0,0,0,0,0,0],"sum_hessian":[6.889943E1,1.281256E1,5.6086872E1,1.6823335E0,1.1130226E1,1.4842392E1,4.1244476E1,1.1596385E1,3.2460072E0,3.9928837E1,1.3156431E0,7.4102645E0,4.1861205E0,3.86144E1,1.314435E0,1.7778978E0,5.6323667E0,1.2733946E0,2.912726E0,3.7282436E1,1.3319619E0],"tree_param":{"num_deleted":"0","num_feature":"126","num_nodes":"21","size_leaf_vector":"1"}},{"base_weights":[6.6774506E-3,-5.8073163E-2,6.418151E-1,-1.0323046E-1,9.304154E-2,1.035161E-1,-3.8642727E-3,-1.5033627E-1,9.12106E-2,-1.9899566E-1,8.692134E-2,3.19794E-3,-3.3581316E-2],"categories":[],"categories_nodes":[],"categories_segments":[],"categories_sizes":[],"default_left":[0,0,0,0,0,0,0,0,0,0,0,0,0],"id":25,"left_children":[1,3,5,7,-1,-1,-1,9,-1,11,-1,-1,-1],"loss_changes":[2.234589E0,2.3012924E0,1.3852472E0,2.4398263E0,0E0,0E0,0E0,2.498179E0,0E0,1.450116E0,0E0,0E0,0E0],"parents":[2147483647,0,0,1,1,2,2,3,3,7,7,9,9],"right_children":[2,4,6,8,-1,-1,-1,10,-1,12,-1,-1,-1],"split_conditions":[4.66E2,1E0,2.8E0,1E0,9.304154E-2,1.035161E-1,-3.8642727E-3,1E0,9.12106E-2,2.6E0,8.692134E-2,3.19794E-3,-3.3581316E-2],"split_indices":[2,45,1,71,0,0,0,73,0,3,0,0,0],"split_type":[0,0,0,0,0,0,0,0,0,0,0,0,0],"sum_hessian":[5.2429478E1,4.8403442E1,4.026037E0,4.7145264E1,1.2581782E0,2.2209322E0,1.805105E0,4.5869133E1,1.2761308E0,4.4547848E1,1.3212866E0,1.6856684E1,2.7691162E1],"tree_param":{"num_deleted":"0","num_feature":"126","num_nodes":"13","size_leaf_vector":"1"}},{"base_weights":[4.04717E-3,-4.6759292E-2,1.0123648E-1,6.1609488E-2,-7.916622E-2,-2.0169184E-1,1.449235E-1,6.513506E-2,-2.880959E-1,-3.292027E-1,4.3656176E-1,-3.49066E-2,3.9858785E-2,1.8939132E-2,-4.63452E-2,7.4080646E-2,-1.9093646E-2],"categories":[],"categories_nodes":[],"categories_segments":[],"categories_sizes":[],"default_left":[0,0,0,0,0,0,0,0,0,0,0,0,0,0,0,0,0],"id":26,"left_children":[1,3,-1,-1,5,7,9,-1,11,13,15,-1,-1,-1,-1,-1,-1],"loss_changes":[2.3210518E0,9.7697234E-1,0E0,0E0,1.1846678E0,2.223757E0,2.2810876E0,0E0,1.2183506E0,5.373193E-1,2.0506763E0,0E0,0E0,0E0,0E0,0E0,0E0],"parents":[2147483647,0,0,1,1,4,4,5,5,6,6,8,8,9,9,10,10],"right_children":[2,4,-1,-1,6,8,10,-1,12,14,16,-1,-1,-1,-1,-1,-1],"split_conditions":[1E0,8.8E1,1.0123648E-1,6.1609488E-2,4E0,5.1E1,7.2E1,6.513506E-2,4.44E2,4.1E0,8.8E1,-3.49066E-2,3.9858785E-2,1.8939132E-2,-4.63452E-2,7.4080646E-2,-1.9093646E-2],"split_indices":[123,2,0,0,3,0,0,0,2,3,0,0,0,0,0,0,0],"split_type":[0,0,0,0,0,0,0,0,0,0,0,0,0,0,0,0,0],"sum_hessian":[4.3383305E1,4.2210075E1,1.1732278E0,1.1279371E0,4.1082138E1,2.6624565E1,1.4457573E1,1.8473902E0,2.4777176E1,5.4570527E0,9.00052E0,2.3208202E1,1.568973E0,1.0377117E0,4.4193406E0,5.939945E0,3.0605748E0],"tree_param":{"num_deleted":"0","num_feature":"126","num_nodes":"17","size_leaf_vector":"1"}},{"base_weights":[-4.812733E-3,-5.2854072E-2,8.33842E-2,3.6042112E-1,-6.440283E-2,1.10729866E-1,9.547693E-2,3.9330375E-1,-1.4432202E-1,3.4996668E-1,-3.2396695E-1,-6.141956E-3,6.384537E-1,5.9391826E-2,-4.1699398E-1,1.1369439E-2,7.8442745E-2,-4.6568695E-2,6.0113384E-3,6.077995E-3,9.591056E-2,3.850416E-2,-2.5609678E-2,-5.4741796E-2,-8.116216E-3],"categories":[],"categories_nodes":[],"categories_segments":[],"categories_sizes":[],"default_left":[0,0,0,0,0,0,0,0,0,0,0,0,0,0,0,0,0,0,0,0,0,0,0,0,0],"id":27,"left_children":[1,-1,3,5,7,9,-1,11,13,15,17,-1,19,21,23,-1,-1,-1,-1,-1,-1,-1,-1,-1,-1],"loss_changes":[2.7624743E0,0E0,2.1208007E0,2.5617294E0,1.3099146E0,1.5472858E0,0E0,6.36834E-1,1.6854718E0,8.730948E-1,3.2268238E-1,0E0,6.0315585E-1,1.9466548E0,5.210111E-1,0E0,0E0,0E0,0E0,0E0,0E0,0E0,0E0,0E0,0E0],"parents":[2147483647,0,0,2,2,3,3,4,4,5,5,7,7,8,8,9,9,10,10,12,12,13,13,14,14],"right_children":[2,-1,4,6,8,10,-1,12,14,16,18,-1,20,22,24,-1,-1,-1,-1,-1,-1,-1,-1,-1,-1],"split_conditions":[1.6E0,-5.2854072E-2,6.8E1,4.1E0,1.4E0,5.8E1,9.547693E-2,1.2E0,3.43E2,5.7E1,6E1,-6.141956E-3,3.04E2,3.3E0,4.44E2,1.1369439E-2,7.8442745E-2,-4.6568695E-2,6.0113384E-3,6.077995E-3,9.591056E-2,3.850416E-2,-2.5609678E-2,-5.4741796E-2,-8.116216E-3],"split_indices":[1,0,0,1,3,0,0,3,2,0,0,0,2,3,2,0,0,0,0,0,0,0,0,0,0],"split_type":[0,0,0,0,0,0,0,0,0,0,0,0,0,0,0,0,0,0,0,0,0,0,0,0,0],"sum_hessian":[5.785108E1,7.618491E0,5.0232594E1,1.6974306E1,3.3258286E1,1.27881775E1,4.1861286E0,4.361008E0,2.8897278E1,8.374282E0,4.4138956E0,1.7900832E0,2.570925E0,1.6987822E1,1.1909455E1,6.2416067E0,2.132675E0,3.0690053E0,1.3448904E0,1.3422788E0,1.228646E0,8.250811E0,8.737012E0,8.1242695E0,3.7851856E0],"tree_param":{"num_deleted":"0","num_feature":"126","num_nodes":"25","size_leaf_vector":"1"}},{"base_weights":[-2.722742E-3,-7.074321E-2,1.0375321E-1,-1.1990926E-1,1.0969954E-1,2.871683E-1,-2.5637412E-1,4.42216E-1,-3.8806573E-2,2.5400344E-1,-3.327789E-1,-1.596894E-2,6.5533936E-2,7.101404E-2,-3.86983E-2,5.2658436E-3,-4.1866433E-2],"categories":[],"categories_nodes":[],"categories_segments":[],"categories_sizes":[],"default_left":[0,0,0,0,0,0,0,0,0,0,0,0,0,0,0,0,0],"id":28,"left_children":[1,3,-1,5,-1,7,9,11,-1,13,15,-1,-1,-1,-1,-1,-1],"loss_changes":[3.7099679E0,2.9548783E0,0E0,2.7451355E0,0E0,1.4850459E0,1.509608E0,1.4734216E0,0E0,1.8319088E0,1.0886166E0,0E0,0E0,0E0,0E0,0E0,0E0],"parents":[2147483647,0,0,1,1,3,3,5,5,6,6,7,7,9,9,10,10],"right_children":[2,4,-1,6,-1,8,10,12,-1,14,16,-1,-1,-1,-1,-1,-1],"split_conditions":[1E0,1E0,1.0375321E-1,1.7E0,1.0969954E-1,3.97E2,5.4E1,1.3E0,-3.8806573E-2,3.33E2,1.6E0,-1.596894E-2,6.5533936E-2,7.101404E-2,-3.86983E-2,5.2658436E-3,-4.1866433E-2],"split_indices":[54,24,0,3,0,2,0,3,0,2,1,0,0,0,0,0,0],"split_type":[0,0,0,0,0,0,0,0,0,0,0,0,0,0,0,0,0],"sum_hessian":[5.0394012E1,4.817587E1,2.2181427E0,4.7090504E1,1.0853664E0,1.1545548E1,3.5544952E1,9.67017E0,1.8753788E0,4.325635E0,3.1219318E1,2.5942314E0,7.075938E0,2.464189E0,1.861446E0,5.759346E0,2.5459972E1],"tree_param":{"num_deleted":"0","num_feature":"126","num_nodes":"17","size_leaf_vector":"1"}},{"base_weights":[-1.6313824E-3,-4.4941536E-1,1.03583924E-1,2.8423792E-2,-5.806631E-2,4.1228962E-1,-1.5263102E-2,1.888516E-1,9.637562E-2,-6.3517965E-2,8.233735E-2,-1.2627153E-1,6.54226E-1,-1.14967406E-1,8.181421E-2,9.0774156E-2,-5.5806883E-2,2.3546547E-3,8.5133195E-2,-1.6965223E-2,8.061125E-2],"categories":[],"categories_nodes":[],"categories_segments":[],"categories_sizes":[],"default_left":[0,0,0,0,0,0,0,0,0,0,0,0,0,0,0,0,0,0,0,0,0],"id":29,"left_children":[1,3,5,-1,-1,7,9,11,-1,13,-1,15,17,19,-1,-1,-1,-1,-1,-1,-1],"loss_changes":[3.3166685E0,1.454689E0,2.098128E0,0E0,0E0,1.7752445E0,1.757282E0,1.9227697E0,0E0,1.9433055E0,0E0,4.2213173E0,6.2984705E-1,2.1211176E0,0E0,0E0,0E0,0E0,0E0,0E0,0E0],"parents":[2147483647,0,0,1,1,2,2,5,5,6,6,7,7,9,9,11,11,12,12,13,13],"right_children":[2,4,6,-1,-1,8,10,12,-1,14,-1,16,18,20,-1,-1,-1,-1,-1,-1,-1],"split_conditions":[1.7E0,1.4E0,3.0755E0,2.8423792E-2,-5.806631E-2,3E0,1E0,3.97E2,9.637562E-2,1E0,8.233735E-2,1.15E2,6.4E1,1E0,8.181421E-2,9.0774156E-2,-5.5806883E-2,2.3546547E-3,8.5133195E-2,-1.6965223E-2,8.061125E-2],"split_indices":[3,1,3,0,0,3,66,2,0,69,0,2,0,98,0,0,0,0,0,0,0],"split_type":[0,0,0,0,0,0,0,0,0,0,0,0,0,0,0,0,0,0,0,0,0],"sum_hessian":[6.840899E1,1.2393275E1,5.601571E1,1.7037774E0,1.0689498E1,1.4884382E1,4.113133E1,1.1547947E1,3.336435E0,3.9767387E1,1.3639414E0,7.3199744E0,4.2279725E0,3.8396362E1,1.3710258E0,1.8316153E0,5.4883595E0,1.2732902E0,2.9546824E0,3.7014603E1,1.3817577E0],"tree_param":{"num_deleted":"0","num_feature":"126","num_nodes":"21","size_leaf_vector":"1"}},{"base_weights":[7.574054E-3,-5.497025E-2,6.0712105E-1,3.045012E-1,-1.7086078E-1,9.656518E-2,-3.5210792E-3,4.9458778E-1,-4.0618993E-2,-2.3062572E-1,8.1541315E-2,-3.25369E-2,6.35198E-1,-3.5769722E-1,1.15743086E-1,1.00785576E-1,2.0479156E-2,-1.8619014E-2,-4.856419E-2,4.4835757E-2,-3.0040814E-2],"categories":[],"categories_nodes":[],"categories_segments":[],"categories_sizes":[],"default_left":[0,0,0,0,0,0,0,0,0,0,0,0,0,0,0,0,0,0,0,0,0],"id":30,"left_children":[1,3,5,7,9,-1,-1,11,-1,13,-1,-1,15,17,19,-1,-1,-1,-1,-1,-1],"loss_changes":[2.0239344E0,2.0927722E0,1.2079574E0,1.8628167E0,2.409349E0,0E0,0E0,1.3777127E0,0E0,1.6395737E0,0E0,0E0,1.2385724E0,4.978702E-1,1.588269E0,0E0,0E0,0E0,0E0,0E0,0E0],"parents":[2147483647,0,0,1,1,2,2,3,3,4,4,7,7,9,9,12,12,13,13,14,14],"right_children":[2,4,6,8,10,-1,-1,12,-1,14,-1,-1,16,18,20,-1,-1,-1,-1,-1,-1],"split_conditions":[4.66E2,1.78E2,2.8E0,1E0,1E0,9.656518E-2,-3.5210792E-3,1.01E2,-4.0618993E-2,4.1E0,8.1541315E-2,-3.25369E-2,3.1E0,2.6E0,8.2E1,1.00785576E-1,2.0479156E-2,-1.8619014E-2,-4.856419E-2,4.4835757E-2,-3.0040814E-2],"split_indices":[2,2,1,4,73,0,0,2,0,1,0,0,1,3,0,0,0,0,0,0,0],"split_type":[0,0,0,0,0,0,0,0,0,0,0,0,0,0,0,0,0,0,0,0,0],"sum_hessian":[5.2084095E1,4.7986496E1,4.0976024E0,1.130206E1,3.6684433E1,2.3067107E0,1.7908916E0,9.156951E0,2.1451092E0,3.5310875E1,1.3735578E0,1.1480744E0,8.008877E0,2.58095E1,9.501376E0,3.573342E0,4.4355345E0,1.2076478E1,1.3733022E1,5.2376904E0,4.2636857E0],"tree_param":{"num_deleted":"0","num_feature":"126","num_nodes":"21","size_leaf_vector":"1"}},{"base_weights":[4.3141395E-3,-4.490365E-2,9.419934E-2,5.9600186E-2,-7.696553E-2,-2.0504563E-1,1.1568682E-1,6.1037567E-2,-2.9793382E-1,-3.316071E-1,3.5516346E-1,-3.653651E-2,3.8633417E-2,1.2231014E-2,-4.6012867E-2,6.2739044E-2,-2.2648063E-2],"categories":[],"categories_nodes":[],"categories_segments":[],"categories_sizes":[],"default_left":[0,0,0,0,0,0,0,0,0,0,0,0,0,0,0,0,0],"id":31,"left_children":[1,3,-1,-1,5,7,9,-1,11,13,15,-1,-1,-1,-1,-1,-1],"loss_changes":[2.079275E0,9.272229E-1,0E0,0E0,1.0534844E0,2.1078677E0,1.9714116E0,0E0,1.2254622E0,4.384724E-1,2.0031357E0,0E0,0E0,0E0,0E0,0E0,0E0],"parents":[2147483647,0,0,1,1,4,4,5,5,6,6,8,8,9,9,10,10],"right_children":[2,4,-1,-1,6,8,10,-1,12,14,16,-1,-1,-1,-1,-1,-1],"split_conditions":[1E0,8.8E1,9.419934E-2,5.9600186E-2,3.8E0,5.1E1,7.2E1,6.1037567E-2,4.44E2,1.4E0,8.8E1,-3.653651E-2,3.8633417E-2,1.2231014E-2,-4.6012867E-2,6.2739044E-2,-2.2648063E-2],"split_indices":[123,2,0,0,3,0,0,0,2,1,0,0,0,0,0,0,0],"split_type":[0,0,0,0,0,0,0,0,0,0,0,0,0,0,0,0,0],"sum_hessian":[4.3137688E1,4.1890987E1,1.2467016E0,1.1578033E0,4.073318E1,2.4428305E1,1.6304878E1,1.9284323E0,2.2499872E1,5.5513544E0,1.0753524E1,2.0905762E1,1.5941118E0,1.2356322E0,4.315722E0,7.2715626E0,3.4819613E0],"tree_param":{"num_deleted":"0","num_feature":"126","num_nodes":"17","size_leaf_vector":"1"}},{"base_weights":[-6.265351E-3,-5.2165437E-2,7.758535E-2,1.772745E-1,-3.0038312E-1,5.3345925E-1,5.755697E-2,-5.496509E-2,9.004985E-2,9.74957E-2,9.2637914E-1,-7.800604E-4,7.730422E-2,4.421649E-2,-4.360681E-2,3.4534883E-2,1.0849806E-1,-1.1067896E-2,4.9095266E-2],"categories":[],"categories_nodes":[],"categories_segments":[],"categories_sizes":[],"default_left":[0,0,0,0,0,0,0,0,0,0,0,0,0,0,0,0,0,0,0],"id":32,"left_children":[1,-1,3,5,7,9,11,-1,-1,13,15,17,-1,-1,-1,-1,-1,-1,-1],"loss_changes":[2.5725477E0,0E0,1.984823E0,1.7258464E0,3.808673E0,1.6640601E0,1.334247E0,0E0,0E0,1.2911776E0,1.1086464E-1,1.7048534E0,0E0,0E0,0E0,0E0,0E0,0E0,0E0],"parents":[2147483647,0,0,2,2,3,3,4,4,5,5,6,6,9,9,10,10,11,11],"right_children":[2,-1,4,6,8,10,12,-1,-1,14,16,18,-1,-1,-1,-1,-1,-1,-1],"split_conditions":[1.6E0,-5.2165437E-2,4.01E2,5.8E1,1E0,2.9E0,1E0,-5.496509E-2,9.004985E-2,2.4E0,5.1E1,1E0,7.730422E-2,4.421649E-2,-4.360681E-2,3.4534883E-2,1.0849806E-1,-1.1067896E-2,4.9095266E-2],"split_indices":[1,0,2,0,97,3,88,0,0,3,0,6,0,0,0,0,0,0,0],"split_type":[0,0,0,0,0,0,0,0,0,0,0,0,0,0,0,0,0,0,0],"sum_hessian":[5.759152E1,7.3280954E0,5.0263424E1,4.01934E1,1.00700245E1,9.24163E0,3.095177E1,8.788155E0,1.2818694E0,4.9725156E0,4.2691145E0,2.9541977E1,1.409793E0,3.1250854E0,1.8474302E0,1.5967921E0,2.6723223E0,2.4778969E1,4.7630095E0],"tree_param":{"num_deleted":"0","num_feature":"126","num_nodes":"19","size_leaf_vector":"1"}},{"base_weights":[-3.2744114E-3,-6.904907E-2,9.700545E-2,-1.17165715E-1,1.0242398E-1,2.973801E-1,-2.3796934E-1,4.6983713E-1,-3.8142975E-2,3.3366928E-1,-2.93381E-1,-1.5808128E-2,7.319281E-2,7.011035E-2,-3.0782884E-2,4.3090936E-3,-3.628015E-2],"categories":[],"categories_nodes":[],"categories_segments":[],"categories_sizes":[],"default_left":[0,0,0,0,0,0,0,0,0,0,0,0,0,0,0,0,0],"id":33,"left_children":[1,3,-1,5,-1,7,9,11,-1,13,15,-1,-1,-1,-1,-1,-1],"loss_changes":[3.3390415E0,2.6875691E0,0E0,2.456905E0,0E0,1.4899253E0,1.2841818E0,1.6587663E0,0E0,1.1061867E0,8.2554984E-1,0E0,0E0,0E0,0E0,0E0,0E0],"parents":[2147483647,0,0,1,1,3,3,5,5,6,6,7,7,9,9,10,10],"right_children":[2,4,-1,6,-1,8,10,12,-1,14,16,-1,-1,-1,-1,-1,-1],"split_conditions":[1E0,1E0,9.700545E-2,1.5E0,1.0242398E-1,3.97E2,5.1E1,1.3E0,-3.8142975E-2,3.33E2,1.6E0,-1.5808128E-2,7.319281E-2,7.011035E-2,-3.0782884E-2,4.3090936E-3,-3.628015E-2],"split_indices":[54,24,0,3,0,2,0,3,0,2,1,0,0,0,0,0,0],"split_type":[0,0,0,0,0,0,0,0,0,0,0,0,0,0,0,0,0],"sum_hessian":[5.0109657E1,4.7807995E1,2.3016624E0,4.664781E1,1.160181E0,1.0196423E1,3.645139E1,8.376226E0,1.8201954E0,2.7774088E0,3.367398E1,2.5835047E0,5.792722E0,1.706851E0,1.070558E0,5.8241878E0,2.7849794E1],"tree_param":{"num_deleted":"0","num_feature":"126","num_nodes":"17","size_leaf_vector":"1"}},{"base_weights":[-8.4308814E-4,-4.3745953E-1,9.8857984E-2,2.723576E-2,-5.7033475E-2,3.9408693E-1,-1.5089531E-2,1.8138428E-1,9.0827756E-2,-6.171041E-2,7.782546E-2,8.702269E-2,-2.2236595E-2,-1.1135057E-1,7.687252E-2,-5.4928042E-2,6.1769422E-2,-1.6437253E-2,7.6123685E-2],"categories":[],"categories_nodes":[],"categories_segments":[],"categories_sizes":[],"default_left":[0,0,0,0,0,0,0,0,0,0,0,0,0,0,0,0,0,0,0],"id":34,"left_children":[1,3,5,-1,-1,7,9,11,-1,13,-1,-1,15,17,-1,-1,-1,-1,-1],"loss_changes":[3.0393424E0,1.3794887E0,1.9183269E0,0E0,0E0,1.5707033E0,1.600702E0,1.7689991E0,0E0,1.7582674E0,0E0,0E0,3.9154205E0,1.9369594E0,0E0,0E0,0E0,0E0,0E0],"parents":[2147483647,0,0,1,1,2,2,5,5,6,6,7,7,9,9,12,12,13,13],"right_children":[2,4,6,-1,-1,8,10,12,-1,14,-1,-1,16,18,-1,-1,-1,-1,-1],"split_conditions":[1.7E0,1.4E0,3.0755E0,2.723576E-2,-5.7033475E-2,3E0,1E0,1.15E2,9.0827756E-2,1E0,7.782546E-2,8.702269E-2,3.97E2,1E0,7.687252E-2,-5.4928042E-2,6.1769422E-2,-1.6437253E-2,7.6123685E-2],"split_indices":[3,1,3,0,0,3,66,2,0,69,0,0,2,98,0,0,0,0,0],"split_type":[0,0,0,0,0,0,0,0,0,0,0,0,0,0,0,0,0,0,0],"sum_hessian":[6.7826515E1,1.1979132E1,5.5847385E1,1.7233423E0,1.025579E1,1.4867745E1,4.097964E1,1.1474077E1,3.3936677E0,3.957616E1,1.4034789E0,1.8709512E0,9.603127E0,3.816096E1,1.4151987E0,5.343721E0,4.259405E0,3.674011E1,1.4208524E0],"tree_param":{"num_deleted":"0","num_feature":"126","num_nodes":"19","size_leaf_vector":"1"}},{"base_weights":[6.560507E-3,-5.366719E-2,5.73249E-1,-9.666349E-2,8.323961E-2,9.046772E-2,-3.4237367E-3,-1.4202355E-1,8.26643E-2,-1.8835334E-1,7.722666E-2,3.014834E-3,-3.2243673E-2],"categories":[],"categories_nodes":[],"categories_segments":[],"categories_sizes":[],"default_left":[0,0,0,0,0,0,0,0,0,0,0,0,0],"id":35,"left_children":[1,3,5,7,-1,-1,-1,9,-1,11,-1,-1,-1],"loss_changes":[1.8338352E0,1.934592E0,1.0700542E0,2.0988758E0,0E0,0E0,0E0,2.0918334E0,0E0,1.3145539E0,0E0,0E0,0E0],"parents":[2147483647,0,0,1,1,2,2,3,3,7,7,9,9],"right_children":[2,4,6,8,-1,-1,-1,10,-1,12,-1,-1,-1],"split_conditions":[4.66E2,1E0,2.8E0,1E0,8.323961E-2,9.046772E-2,-3.4237367E-3,1E0,8.26643E-2,2.6E0,7.722666E-2,3.014834E-3,-3.2243673E-2],"split_indices":[2,45,1,71,0,0,0,73,0,3,0,0,0],"split_type":[0,0,0,0,0,0,0,0,0,0,0,0,0],"sum_hessian":[5.1828964E1,4.766809E1,4.1608715E0,4.6311718E1,1.3563732E0,2.3755963E0,1.7852755E0,4.494962E1,1.3620985E0,4.3537437E1,1.4121821E0,1.6851484E1,2.6685953E1],"tree_param":{"num_deleted":"0","num_feature":"126","num_nodes":"13","size_leaf_vector":"1"}},{"base_weights":[4.549503E-3,-4.2989302E-2,8.766096E-2,5.728162E-2,-7.461438E-2,-1.8802303E-1,1.24037765E-1,-2.7372104E-1,5.8820393E-2,7.0864356E-1,-7.796832E-2,3.5823777E-2,-3.3444162E-2,9.014886E-2,1.0597459E-2,-3.7028182E-2,2.71554E-2],"categories":[],"categories_nodes":[],"categories_segments":[],"categories_sizes":[],"default_left":[0,0,0,0,0,0,0,0,0,0,0,0,0,0,0,0,0],"id":36,"left_children":[1,3,-1,-1,5,7,9,11,-1,13,15,-1,-1,-1,-1,-1,-1],"loss_changes":[1.8557959E0,8.712376E-1,0E0,0E0,9.548571E-1,1.9383931E0,1.9009807E0,1.0693479E0,0E0,3.8246346E-1,1.3793651E0,0E0,0E0,0E0,0E0,0E0,0E0],"parents":[2147483647,0,0,1,1,4,4,5,5,6,6,7,7,9,9,10,10],"right_children":[2,4,-1,-1,6,8,10,12,-1,14,16,-1,-1,-1,-1,-1,-1],"split_conditions":[1E0,8.8E1,8.766096E-2,5.728162E-2,4E0,4.44E2,4.1E0,5.1E1,5.8820393E-2,1E0,4E0,3.5823777E-2,-3.3444162E-2,9.014886E-2,1.0597459E-2,-3.7028182E-2,2.71554E-2],"split_indices":[123,2,0,0,3,2,3,0,0,4,1,0,0,0,0,0,0],"split_type":[0,0,0,0,0,0,0,0,0,0,0,0,0,0,0,0,0],"sum_hessian":[4.285567E1,4.1541798E1,1.3138736E0,1.1932888E0,4.0348507E1,2.571918E1,1.462933E1,2.374502E1,1.9741588E0,3.1128137E0,1.1516517E1,1.651982E0,2.2093037E1,1.9825882E0,1.1302257E0,6.239166E0,5.2773504E0],"tree_param":{"num_deleted":"0","num_feature":"126","num_nodes":"17","size_leaf_vector":"1"}},{"base_weights":[-6.124417E-3,-5.1473644E-2,7.3854074E-2,1.6721657E-1,-2.9120302E-1,5.0023884E-1,5.3628214E-2,-5.4238137E-2,8.563387E-2,8.682466E-2,8.6813796E-1,-2.6596305E-3,7.3620796E-2,-2.6281914E-2,5.8156695E-2,3.337358E-2,1.0085811E-1,-1.0744951E-2,4.5193244E-2],"categories":[],"categories_nodes":[],"categories_segments":[],"categories_sizes":[],"default_left":[0,0,0,0,0,0,0,0,0,0,0,0,0,0,0,0,0,0,0],"id":37,"left_children":[1,-1,3,5,7,9,11,-1,-1,13,15,17,-1,-1,-1,-1,-1,-1,-1],"loss_changes":[2.4054985E0,0E0,1.7925899E0,1.5385196E0,3.5732374E0,1.5071063E0,1.2305311E0,0E0,0E0,1.1925409E0,6.825352E-2,1.5032415E0,0E0,0E0,0E0,0E0,0E0,0E0,0E0],"parents":[2147483647,0,0,2,2,3,3,4,4,5,5,6,6,9,9,10,10,11,11],"right_children":[2,-1,4,6,8,10,12,-1,-1,14,16,18,-1,-1,-1,-1,-1,-1,-1],"split_conditions":[1.6E0,-5.1473644E-2,4.01E2,5.8E1,1E0,2.9E0,1E0,-5.4238137E-2,8.563387E-2,5.7E1,5.1E1,1E0,7.3620796E-2,-2.6281914E-2,5.8156695E-2,3.337358E-2,1.0085811E-1,-1.0744951E-2,4.5193244E-2],"split_indices":[1,0,2,0,97,3,88,0,0,0,0,6,0,0,0,0,0,0,0],"split_type":[0,0,0,0,0,0,0,0,0,0,0,0,0,0,0,0,0,0,0],"sum_hessian":[5.720054E1,7.0338464E0,5.0166695E1,4.0381233E1,9.78546E0,9.404585E0,3.0976648E1,8.460867E0,1.3245934E0,5.0103617E0,4.3942227E0,2.953703E1,1.43962E0,3.2103336E0,1.8000283E0,1.6171371E0,2.7770858E0,2.4624393E1,4.912635E0],"tree_param":{"num_deleted":"0","num_feature":"126","num_nodes":"19","size_leaf_vector":"1"}},{"base_weights":[-3.527966E-3,-6.707923E-2,9.0947345E-2,-1.1404501E-1,9.544768E-2,2.4036866E-1,-2.4117939E-1,-9.631831E-2,5.161472E-1,2.403571E-1,-3.171558E-1,9.628247E-3,-3.9954595E-2,7.590551E-2,-3.569192E-2,6.374632E-2,-3.727482E-2,3.6473318E-3,-4.0174197E-2],"categories":[],"categories_nodes":[],"categories_segments":[],"categories_sizes":[],"default_left":[0,0,0,0,0,0,0,0,0,0,0,0,0,0,0,0,0,0,0],"id":38,"left_children":[1,3,-1,5,-1,7,9,11,13,15,17,-1,-1,-1,-1,-1,-1,-1,-1],"loss_changes":[3.0052085E0,2.4296358E0,0E0,2.1819587E0,0E0,1.2517674E0,1.3637719E0,4.2812812E-1,1.8135548E0,1.5437822E0,9.367809E-1,0E0,0E0,0E0,0E0,0E0,0E0,0E0,0E0],"parents":[2147483647,0,0,1,1,3,3,5,5,6,6,7,7,8,8,9,9,10,10],"right_children":[2,4,-1,6,-1,8,10,12,14,16,18,-1,-1,-1,-1,-1,-1,-1,-1],"split_conditions":[1E0,1E0,9.0947345E-2,1.7E0,9.544768E-2,7.7E1,5.4E1,7E1,1E0,3.33E2,1.6E0,9.628247E-3,-3.9954595E-2,7.590551E-2,-3.569192E-2,6.374632E-2,-3.727482E-2,3.6473318E-3,-4.0174197E-2],"split_indices":[54,24,0,3,0,0,0,0,7,2,1,0,0,0,0,0,0,0,0],"split_type":[0,0,0,0,0,0,0,0,0,0,0,0,0,0,0,0,0,0,0],"sum_hessian":[4.97425E1,4.7371635E1,2.3708673E0,4.613878E1,1.232857E0,1.1946036E1,3.419274E1,5.6720266E0,6.27401E0,4.3648524E0,2.9827888E1,3.8861434E0,1.7858828E0,5.0105443E0,1.2634659E0,2.6249518E0,1.7399005E0,5.867296E0,2.3960592E1],"tree_param":{"num_deleted":"0","num_feature":"126","num_nodes":"19","size_leaf_vector":"1"}},{"base_weights":[-1.5610967E-4,-4.2778015E-1,9.5296256E-2,2.6002167E-2,-5.618603E-2,3.7021807E-1,-1.1735459E-2,1.6707814E-1,8.571102E-2,-5.7555813E-2,7.533273E-2,8.250149E-2,-3.0705005E-2,9.174841E-2,-3.8880038E-1,-5.4261815E-2,5.7654124E-2,-1.8626673E-2,4.8121963E-2,-5.1459063E-2,1.9077664E-2],"categories":[],"categories_nodes":[],"categories_segments":[],"categories_sizes":[],"default_left":[0,0,0,0,0,0,0,0,0,0,0,0,0,0,0,0,0,0,0,0,0],"id":39,"left_children":[1,3,5,-1,-1,7,9,11,-1,13,-1,-1,15,17,19,-1,-1,-1,-1,-1,-1],"loss_changes":[2.8237298E0,1.3102794E0,1.6685363E0,0E0,0E0,1.4273489E0,1.5043756E0,1.6449828E0,0E0,2.0263484E0,0E0,0E0,3.5873706E0,3.1814835E0,1.0238343E0,0E0,0E0,0E0,0E0,0E0,0E0],"parents":[2147483647,0,0,1,1,2,2,5,5,6,6,7,7,9,9,12,12,13,13,14,14],"right_children":[2,4,6,-1,-1,8,10,12,-1,14,-1,-1,16,18,20,-1,-1,-1,-1,-1,-1],"split_conditions":[1.7E0,1.4E0,3.0755E0,2.6002167E-2,-5.618603E-2,3E0,1E0,1.15E2,8.571102E-2,4E0,7.533273E-2,8.250149E-2,3.97E2,4.1E0,9.6E1,-5.4261815E-2,5.7654124E-2,-1.8626673E-2,4.8121963E-2,-5.1459063E-2,1.9077664E-2],"split_indices":[3,1,3,0,0,3,101,2,0,1,0,0,2,3,0,0,0,0,0,0,0],"split_type":[0,0,0,0,0,0,0,0,0,0,0,0,0,0,0,0,0,0,0,0,0],"sum_hessian":[6.718028E1,1.1623902E1,5.555638E1,1.7430645E0,9.880837E0,1.4879057E1,4.0677322E1,1.144652E1,3.432537E0,3.9251293E1,1.4260285E0,1.912655E0,9.533865E0,2.7554485E1,1.169681E1,5.23074E0,4.303125E0,1.6382181E1,1.1172302E1,9.703014E0,1.9937954E0],"tree_param":{"num_deleted":"0","num_feature":"126","num_nodes":"21","size_leaf_vector":"1"}},{"base_weights":[7.469267E-3,-3.0532591E-2,8.477231E-2,-6.9367036E-2,7.8761265E-2,-1.10372044E-1,7.8543924E-2,-1.5196979E-1,7.329234E-2,5.336363E-2,-1.9475026E-2],"categories":[],"categories_nodes":[],"categories_segments":[],"categories_sizes":[],"default_left":[0,0,0,0,0,0,0,0,0,0,0],"id":40,"left_children":[1,3,-1,5,-1,7,-1,9,-1,-1,-1],"loss_changes":[1.6999491E0,1.6789567E0,0E0,1.8296653E0,0E0,1.8066522E0,0E0,1.4790418E0,0E0,0E0,0E0],"parents":[2147483647,0,0,1,1,3,3,5,5,7,7],"right_children":[2,4,-1,6,-1,8,-1,10,-1,-1,-1],"split_conditions":[1E0,1E0,8.477231E-2,1E0,7.8761265E-2,1E0,7.8543924E-2,1.2E0,7.329234E-2,5.336363E-2,-1.9475026E-2],"split_indices":[113,45,0,71,0,73,0,1,0,0,0],"split_type":[0,0,0,0,0,0,0,0,0,0,0],"sum_hessian":[5.1427265E1,5.012399E1,1.303277E0,4.8726337E1,1.3976517E0,4.7326946E1,1.3993902E0,4.588342E1,1.4435289E0,2.0209844E0,4.3862434E1],"tree_param":{"num_deleted":"0","num_feature":"126","num_nodes":"11","size_leaf_vector":"1"}},{"base_weights":[5.565689E-3,-4.0508177E-2,8.255844E-2,5.475461E-2,-7.155427E-2,-4.708182E-2,-1.7048288E-2,-1.6335009E-1,2.0426568E-1,-2.6077127E-2,5.610896E-2,1.0614667E-1,-2.560405E-3],"categories":[],"categories_nodes":[],"categories_segments":[],"categories_sizes":[],"default_left":[0,0,0,0,0,0,0,0,0,0,0,0,0],"id":41,"left_children":[1,3,-1,-1,5,-1,7,9,11,-1,-1,-1,-1],"loss_changes":[1.6791445E0,8.0951554E-1,0E0,0E0,8.834213E-1,0E0,1.2339722E0,1.7610083E0,3.0225163E0,0E0,0E0,0E0,0E0],"parents":[2147483647,0,0,1,1,4,4,6,6,7,7,8,8],"right_children":[2,4,-1,-1,6,-1,8,10,12,-1,-1,-1,-1],"split_conditions":[1E0,8.8E1,8.255844E-2,5.475461E-2,1.62E2,-4.708182E-2,3.8E0,4.44E2,1.83E2,-2.6077127E-2,5.610896E-2,1.0614667E-1,-2.560405E-3],"split_indices":[123,2,0,0,2,0,3,2,2,0,0,0,0],"split_type":[0,0,0,0,0,0,0,0,0,0,0,0,0],"sum_hessian":[4.255848E1,4.119451E1,1.3639688E0,1.2315105E0,3.9963E1,3.8828278E0,3.6080173E1,2.1878849E1,1.42013235E1,1.984956E1,2.0292912E0,2.2379937E0,1.1963329E1],"tree_param":{"num_deleted":"0","num_feature":"126","num_nodes":"13","size_leaf_vector":"1"}},{"base_weights":[-6.0562E-3,-5.077089E-2,7.0126034E-2,3.0215235E-2,9.102387E-2,1.5170477E-1,-3.3922192E-1,9.6037015E-2,7.829069E-2,-5.5108156E-2,8.116633E-2,-1.114559E-2,2.788038E-2],"categories":[],"categories_nodes":[],"categories_segments":[],"categories_sizes":[],"default_left":[0,0,0,0,0,0,0,0,0,0,0,0,0],"id":42,"left_children":[1,-1,3,5,-1,7,9,11,-1,-1,-1,-1,-1],"loss_changes":[2.2424324E0,0E0,1.6828465E0,2.2835307E0,0E0,1.2640874E0,3.523395E0,1.4025869E0,0E0,0E0,0E0,0E0,0E0],"parents":[2147483647,0,0,2,2,3,3,5,5,6,6,7,7],"right_children":[2,-1,4,6,-1,8,10,12,-1,-1,-1,-1,-1],"split_conditions":[1.6E0,-5.077089E-2,1E0,3.87E2,9.102387E-2,1E0,1E0,2.21E2,7.829069E-2,-5.5108156E-2,8.116633E-2,-1.114559E-2,2.788038E-2],"split_indices":[1,0,109,2,0,88,97,2,0,0,0,0,0],"split_type":[0,0,0,0,0,0,0,0,0,0,0,0,0],"sum_hessian":[5.6744656E1,6.734463E0,5.0010193E1,4.8731117E1,1.2790782E0,3.7115147E1,1.1615967E1,3.51659E1,1.9492453E0,1.025023E1,1.365737E0,1.6651655E1,1.8514248E1],"tree_param":{"num_deleted":"0","num_feature":"126","num_nodes":"13","size_leaf_vector":"1"}},{"base_weights":[-3.9174794E-3,-6.537348E-2,8.5877225E-2,-1.1144272E-1,9.046552E-2,-1.5611726E-1,7.7449374E-2,-6.2267207E-2,-4.4342953E-1,-4.9298648E-2,2.4811185E-3,-5.2239597E-2,-1.0519851E-2],"categories":[],"categories_nodes":[],"categories_segments":[],"categories_sizes":[],"default_left":[0,0,0,0,0,0,0,0,0,0,0,0,0],"id":43,"left_children":[1,3,-1,5,-1,7,-1,9,11,-1,-1,-1,-1],"loss_changes":[2.727498E0,2.244297E0,0E0,1.968472E0,0E0,1.1931113E0,0E0,1.3357685E0,2.3840213E-1,0E0,0E0,0E0,0E0],"parents":[2147483647,0,0,1,1,3,3,5,5,7,7,8,8],"right_children":[2,4,-1,6,-1,8,-1,10,12,-1,-1,-1,-1],"split_conditions":[1E0,1E0,8.5877225E-2,1E0,9.046552E-2,4.1E0,7.7449374E-2,1.7E2,1E0,-4.9298648E-2,2.4811185E-3,-5.2239597E-2,-1.0519851E-2],"split_indices":[54,24,0,47,0,1,0,2,8,0,0,0,0],"split_type":[0,0,0,0,0,0,0,0,0,0,0,0,0],"sum_hessian":[4.938637E1,4.696492E1,2.4214501E0,4.5680546E1,1.2843766E0,4.427186E1,1.4086854E0,3.4288353E1,9.983508E0,4.9823837E0,2.930597E1,7.652412E0,2.3310957E0],"tree_param":{"num_deleted":"0","num_feature":"126","num_nodes":"13","size_leaf_vector":"1"}},{"base_weights":[-1.2861418E-3,-4.1813365E-1,8.95012E-2,2.4704792E-2,-5.533987E-2,7.870267E-2,5.008838E-2,-6.399298E-2,2.948269E-1,-1.3654979E-1,6.897734E-2,9.1796E-2,-6.046214E-2,7.762968E-3,-4.681223E-2,-2.7994141E-2,4.6117004E-2],"categories":[],"categories_nodes":[],"categories_segments":[],"categories_sizes":[],"default_left":[0,0,0,0,0,0,0,0,0,0,0,0,0,0,0,0,0],"id":44,"left_children":[1,3,5,-1,-1,-1,7,9,11,13,-1,-1,15,-1,-1,-1,-1],"loss_changes":[2.5951812E0,1.2401481E0,1.5089629E0,0E0,0E0,0E0,1.5371093E0,2.1675785E0,3.9225721E0,2.5515125E0,0E0,0E0,1.5101095E0,0E0,0E0,0E0,0E0],"parents":[2147483647,0,0,1,1,2,2,6,6,7,7,8,8,9,9,12,12],"right_children":[2,4,6,-1,-1,-1,8,10,12,14,-1,-1,16,-1,-1,-1,-1],"split_conditions":[1.7E0,1.4E0,1.01E2,2.4704792E-2,-5.533987E-2,7.870267E-2,3.97E2,1E0,4.23E2,3.8E0,6.897734E-2,9.1796E-2,4.73E2,7.762968E-3,-4.681223E-2,-2.7994141E-2,4.6117004E-2],"split_indices":[3,1,2,0,0,0,2,124,2,1,0,0,2,0,0,0,0],"split_type":[0,0,0,0,0,0,0,0,0,0,0,0,0,0,0,0,0],"sum_hessian":[6.658602E1,1.1263652E1,5.532237E1,1.7637595E0,9.499892E0,1.9442565E0,5.3378113E1,3.691107E1,1.6467043E1,3.441697E1,2.4941003E0,5.404506E0,1.1062536E1,2.1375395E1,1.3041575E1,8.112499E0,2.9500375E0],"tree_param":{"num_deleted":"0","num_feature":"126","num_nodes":"17","size_leaf_vector":"1"}},{"base_weights":[9.530763E-3,-4.840044E-2,5.4135954E-1,2.7238032E-1,-1.5659364E-1,8.414463E-2,-2.8455427E-3,4.3828604E-1,-3.9234344E-2,-2.1278532E-1,7.038054E-2,-3.118587E-2,5.584317E-1,-3.410592E-1,1.24012485E-1,8.757868E-2,1.7567625E-2,-3.917909E-2,1.0765473E-3,4.339423E-2,-2.8497798E-2],"categories":[],"categories_nodes":[],"categories_segments":[],"categories_sizes":[],"default_left":[0,0,0,0,0,0,0,0,0,0,0,0,0,0,0,0,0,0,0,0,0],"id":45,"left_children":[1,3,5,7,9,-1,-1,11,-1,13,-1,-1,15,17,19,-1,-1,-1,-1,-1,-1],"loss_changes":[1.6287297E0,1.7024041E0,9.116298E-1,1.5423832E0,1.9094148E0,0E0,0E0,1.1129942E0,0E0,1.5514724E0,0E0,0E0,9.8032737E-1,4.6050858E-1,1.4379365E0,0E0,0E0,0E0,0E0,0E0,0E0],"parents":[2147483647,0,0,1,1,2,2,3,3,4,4,7,7,9,9,12,12,13,13,14,14],"right_children":[2,4,6,8,10,-1,-1,12,-1,14,-1,-1,16,18,20,-1,-1,-1,-1,-1,-1],"split_conditions":[4.66E2,1.78E2,2.8E0,1E0,1E0,8.414463E-2,-2.8455427E-3,1.01E2,-3.9234344E-2,4.1E0,7.038054E-2,-3.118587E-2,3.1E0,9.6E1,8.2E1,8.757868E-2,1.7567625E-2,-3.917909E-2,1.0765473E-3,4.339423E-2,-2.8497798E-2],"split_indices":[2,2,1,4,73,0,0,2,0,1,0,0,1,0,0,0,0,0,0,0,0],"split_type":[0,0,0,0,0,0,0,0,0,0,0,0,0,0,0,0,0,0,0,0,0],"sum_hessian":[5.1014103E1,4.6822773E1,4.1913323E0,1.1426609E1,3.5396164E1,2.433209E0,1.7581235E0,9.416926E0,2.0096831E0,3.3932743E1,1.4634193E0,1.0797426E0,8.337184E0,2.4564411E1,9.368332E0,3.8537784E0,4.483405E0,2.1369429E1,3.194982E0,5.294894E0,4.073438E0],"tree_param":{"num_deleted":"0","num_feature":"126","num_nodes":"21","size_leaf_vector":"1"}},{"base_weights":[5.746855E-3,-3.8680743E-2,7.759753E-2,5.204427E-2,-6.90083E-2,-4.6563752E-2,-1.5763478E-2,-1.5593268E-1,1.9075976E-1,5.608779E-2,-2.5435923E-2,9.7841784E-2,-2.779566E-3],"categories":[],"categories_nodes":[],"categories_segments":[],"categories_sizes":[],"default_left":[0,0,0,0,0,0,0,0,0,0,0,0,0],"id":46,"left_children":[1,3,-1,-1,5,-1,7,9,11,-1,-1,-1,-1],"loss_changes":[1.511811E0,7.463012E-1,0E0,0E0,8.505177E-1,0E0,1.0964454E0,1.7301649E0,2.669273E0,0E0,0E0,0E0,0E0],"parents":[2147483647,0,0,1,1,4,4,6,6,7,7,8,8],"right_children":[2,4,-1,-1,6,-1,8,10,12,-1,-1,-1,-1],"split_conditions":[1E0,8.8E1,7.759753E-2,5.204427E-2,1.62E2,-4.6563752E-2,3.8E0,5.1E1,1.83E2,5.608779E-2,-2.5435923E-2,9.7841784E-2,-2.779566E-3],"split_indices":[123,2,0,0,2,0,3,0,2,0,0,0,0],"split_type":[0,0,0,0,0,0,0,0,0,0,0,0,0],"sum_hessian":[4.23028E1,4.0893784E1,1.4090168E0,1.2725285E0,3.9621254E1,3.7726867E0,3.5848568E1,2.1500765E1,1.4347802E1,2.0286055E0,1.947216E1,2.361256E0,1.19865465E1],"tree_param":{"num_deleted":"0","num_feature":"126","num_nodes":"13","size_leaf_vector":"1"}},{"base_weights":[-6.9395457E-3,-5.007227E-2,6.5372966E-2,2.9758766E-1,-6.303059E-2,-2.3573887E-2,6.1667967E-1,1.0171455E-1,-2.638273E-1,1.6815712E-1,-4.4079844E-2,9.5415354E-2,8.571779E-2,-7.7733874E-2,5.88158E-1,-3.6611274E-1,-4.1042373E-2,-1.0908008E-2,4.506499E-2,-3.9628264E-2,5.6041934E-2,2.61315E-2,-3.4238946E-2,-8.617963E-3,1.01305224E-1,3.6423863E-3,-4.3692857E-2,2.6478395E-2,-4.1626524E-2],"categories":[],"categories_nodes":[],"categories_segments":[],"categories_sizes":[],"default_left":[0,0,0,0,0,0,0,0,0,0,0,0,0,0,0,0,0,0,0,0,0,0,0,0,0,0,0,0,0],"id":47,"left_children":[1,-1,3,5,7,9,11,13,15,17,-1,-1,19,21,23,25,27,-1,-1,-1,-1,-1,-1,-1,-1,-1,-1,-1,-1],"loss_changes":[2.081582E0,0E0,1.5374899E0,1.8910384E0,1.1391234E0,8.811941E-1,1.570637E0,1.7209992E0,3.3663595E-1,6.4721566E-1,0E0,0E0,1.2934276E0,1.4267467E0,1.6026193E0,3.1380367E-1,7.9668164E-1,0E0,0E0,0E0,0E0,0E0,0E0,0E0,0E0,0E0,0E0,0E0,0E0],"parents":[2147483647,0,0,2,2,3,3,4,4,5,5,6,6,7,7,8,8,9,9,12,12,13,13,14,14,15,15,16,16],"right_children":[2,-1,4,6,8,10,12,14,16,18,-1,-1,20,22,24,26,28,-1,-1,-1,-1,-1,-1,-1,-1,-1,-1,-1,-1],"split_conditions":[1.6E0,-5.007227E-2,6.8E1,3.8E0,3.3E0,5.8E1,1E0,1E0,9E1,2.9E0,-4.4079844E-2,9.5415354E-2,4.1E0,8.5E1,8.7E1,1.57E2,9.7E1,-1.0908008E-2,4.506499E-2,-3.9628264E-2,5.6041934E-2,2.61315E-2,-3.4238946E-2,-8.617963E-3,1.01305224E-1,3.6423863E-3,-4.3692857E-2,2.6478395E-2,-4.1626524E-2],"split_indices":[1,0,0,1,3,0,8,5,0,3,0,0,1,0,0,2,0,0,0,0,0,0,0,0,0,0,0,0,0],"split_type":[0,0,0,0,0,0,0,0,0,0,0,0,0,0,0,0,0,0,0,0,0,0,0,0,0,0,0,0,0],"sum_hessian":[5.6379936E1,6.4451375E0,4.99348E1,1.7310886E1,3.2623913E1,9.08903E0,8.221857E0,1.8191776E1,1.4432135E1,6.6363363E0,2.4526937E0,4.5395427E0,3.6823149E0,1.3903129E1,4.288648E0,9.450059E0,4.9820757E0,3.659139E0,2.9771974E0,1.9090787E0,1.773236E0,6.10047E0,7.8026586E0,1.9658604E0,2.3227878E0,1.4864311E0,7.9636273E0,2.907026E0,2.0750499E0],"tree_param":{"num_deleted":"0","num_feature":"126","num_nodes":"29","size_leaf_vector":"1"}},{"base_weights":[-4.2096204E-3,-6.364144E-2,8.158525E-2,-1.0845654E-1,8.5062616E-2,2.4068871E-1,-2.1862558E-1,3.8779858E-1,-3.7304435E-2,3.128581E-1,-2.7374095E-1,-1.7629175E-2,6.245329E-2,5.4019284E-2,-3.47438E-4,-1.097149E-2,-4.2837586E-2],"categories":[],"categories_nodes":[],"categories_segments":[],"categories_sizes":[],"default_left":[0,0,0,0,0,0,0,0,0,0,0,0,0,0,0,0,0],"id":48,"left_children":[1,3,-1,5,-1,7,9,11,-1,13,15,-1,-1,-1,-1,-1,-1],"loss_changes":[2.4929998E0,2.0437596E0,0E0,1.83318E0,0E0,1.1900883E0,1.1317333E0,1.422857E0,0E0,2.7673045E-1,7.872119E-1,0E0,0E0,0E0,0E0,0E0,0E0],"parents":[2147483647,0,0,1,1,3,3,5,5,6,6,7,7,9,9,10,10],"right_children":[2,4,-1,6,-1,8,10,12,-1,14,16,-1,-1,-1,-1,-1,-1],"split_conditions":[1E0,1E0,8.158525E-2,1.5E0,8.5062616E-2,3.97E2,5.1E1,1.3E0,-3.7304435E-2,1E0,3.3E0,-1.7629175E-2,6.245329E-2,5.4019284E-2,-3.47438E-4,-1.097149E-2,-4.2837586E-2],"split_indices":[54,24,0,3,0,2,0,3,0,6,1,0,0,0,0,0,0],"split_type":[0,0,0,0,0,0,0,0,0,0,0,0,0,0,0,0,0],"sum_hessian":[4.908594E1,4.662902E1,2.4569197E0,4.5290375E1,1.3386471E0,1.0578981E1,3.471139E1,8.830476E0,1.7485057E0,2.822011E0,3.1889381E1,2.68588E0,6.1445956E0,1.2302258E0,1.5917852E0,1.6304354E1,1.5585028E1],"tree_param":{"num_deleted":"0","num_feature":"126","num_nodes":"17","size_leaf_vector":"1"}},{"base_weights":[-2.0246385E-3,-4.098418E-1,8.4902264E-2,2.3199497E-2,-5.45743E-2,7.48634E-2,4.6848502E-2,4.351736E-3,6.626111E-2,-1.319144E-1,2.7877137E-1,-4.5821503E-2,7.922971E-3,8.636954E-2,-5.778283E-3],"categories":[],"categories_nodes":[],"categories_segments":[],"categories_sizes":[],"default_left":[0,0,0,0,0,0,0,0,0,0,0,0,0,0,0],"id":49,"left_children":[1,3,5,-1,-1,-1,7,9,-1,11,13,-1,-1,-1,-1],"loss_changes":[2.408291E0,1.1676791E0,1.3797891E0,0E0,0E0,0E0,1.4114077E0,1.9649693E0,0E0,2.4569044E0,3.481205E0,0E0,0E0,0E0,0E0],"parents":[2147483647,0,0,1,1,2,2,6,6,7,7,9,9,10,10],"right_children":[2,4,6,-1,-1,-1,8,10,-1,12,14,-1,-1,-1,-1],"split_conditions":[1.7E0,1.4E0,1.01E2,2.3199497E-2,-5.45743E-2,7.48634E-2,1E0,3.97E2,6.626111E-2,3.5E0,4.23E2,-4.5821503E-2,7.922971E-3,8.636954E-2,-5.778283E-3],"split_indices":[3,1,2,0,0,0,124,2,0,3,2,0,0,0,0],"split_type":[0,0,0,0,0,0,0,0,0,0,0,0,0,0,0],"sum_hessian":[6.5952774E1,1.093526E1,5.501751E1,1.7872612E0,9.147999E0,1.9707489E0,5.304676E1,5.056415E1,2.4826102E0,3.413389E1,1.6430265E1,1.2950351E1,2.1183535E1,5.4288144E0,1.10014515E1],"tree_param":{"num_deleted":"0","num_feature":"126","num_nodes":"15","size_leaf_vector":"1"}},{"base_weights":[9.814082E-3,-4.5959543E-2,5.128628E-1,2.5685373E-1,-1.504089E-1,7.995634E-2,-3.1316094E-3,4.110883E-1,-3.8524296E-2,-2.0510238E-1,6.670647E-2,-3.0377576E-2,5.209476E-1,-3.3233047E-1,1.20310344E-1,8.053117E-2,1.673176E-2,-1.666654E-2,-4.6392046E-2,-2.8357068E-2,4.2089973E-2],"categories":[],"categories_nodes":[],"categories_segments":[],"categories_sizes":[],"default_left":[0,0,0,0,0,0,0,0,0,0,0,0,0,0,0,0,0,0,0,0,0],"id":50,"left_children":[1,3,5,7,9,-1,-1,11,-1,13,-1,-1,15,17,19,-1,-1,-1,-1,-1,-1],"loss_changes":[1.4713422E0,1.5368507E0,8.4137154E-1,1.3980596E0,1.7397366E0,0E0,0E0,9.889246E-1,0E0,1.4628626E0,0E0,0E0,8.2425046E-1,4.6709824E-1,1.3812435E0,0E0,0E0,0E0,0E0,0E0,0E0],"parents":[2147483647,0,0,1,1,2,2,3,3,4,4,7,7,9,9,12,12,13,13,14,14],"right_children":[2,4,6,8,10,-1,-1,12,-1,14,-1,-1,16,18,20,-1,-1,-1,-1,-1,-1],"split_conditions":[4.66E2,1.78E2,2.8E0,1E0,1E0,7.995634E-2,-3.1316094E-3,1.01E2,-3.8524296E-2,4.1E0,6.670647E-2,-3.0377576E-2,3.1E0,2.6E0,3.35E2,8.053117E-2,1.673176E-2,-1.666654E-2,-4.6392046E-2,-2.8357068E-2,4.2089973E-2],"split_indices":[2,2,1,4,73,0,0,2,0,1,0,0,1,3,2,0,0,0,0,0,0],"split_type":[0,0,0,0,0,0,0,0,0,0,0,0,0,0,0,0,0,0,0,0,0],"sum_hessian":[5.060135E1,4.6369E1,4.2323494E0,1.1517894E1,3.4851105E1,2.4645822E0,1.7677672E0,9.577183E0,1.9407113E0,3.336772E1,1.4833823E0,1.0406231E0,8.536559E0,2.3973455E1,9.394268E0,4.0237083E0,4.512851E0,1.1616025E1,1.235743E1,4.032584E0,5.3616843E0],"tree_param":{"num_deleted":"0","num_feature":"126","num_nodes":"21","size_leaf_vector":"1"}},{"base_weights":[6.8455297E-3,3.1922397E-1,-1.002404E-1,-5.823855E-2,5.249454E-1,-2.973188E-1,8.909584E-2,6.36712E-2,-4.166187E-2,1.12501875E-1,1.5704209E-1,-3.936399E-1,3.2967813E-2,-3.226171E-1,2.9493234E-1,-4.0524412E-2,7.5959735E-2,-4.5329565E-1,1.8529207E-2,9.860537E-3,-4.4989277E-2,5.094576E-1,-2.1201946E-1,7.0288735E-3,-5.158337E-2,7.48994E-2,1.300854E-2,-3.844973E-2,1.1988366E-2],"categories":[],"categories_nodes":[],"categories_segments":[],"categories_sizes":[],"default_left":[0,0,0,0,0,0,0,0,0,0,0,0,0,0,0,0,0,0,0,0,0,0,0,0,0,0,0,0,0],"id":51,"left_children":[1,3,5,7,9,11,13,-1,-1,-1,15,17,-1,19,21,-1,-1,23,-1,-1,-1,25,27,-1,-1,-1,-1,-1,-1],"loss_changes":[1.4696664E0,9.011209E-1,1.24916E0,1.4743954E0,1.4473109E0,1.1133239E0,1.5766027E0,0E0,0E0,0E0,2.246632E0,5.872903E-1,0E0,3.8234222E-1,1.4323022E0,0E0,0E0,4.7835493E-1,0E0,0E0,0E0,7.0680404E-1,2.9378864E-1,0E0,0E0,0E0,0E0,0E0,0E0],"parents":[2147483647,0,0,1,1,2,2,3,3,4,4,5,5,6,6,10,10,11,11,13,13,14,14,17,17,21,21,22,22],"right_children":[2,4,6,8,10,12,14,-1,-1,-1,16,18,-1,20,22,-1,-1,24,-1,-1,-1,26,28,-1,-1,-1,-1,-1,-1],"split_conditions":[2.1E0,2.86E2,3.8E0,1.77E2,3.17E2,4.44E2,7.2E1,6.36712E-2,-4.166187E-2,1.12501875E-1,4.08E2,4.8E0,3.2967813E-2,1.4E0,8.8E1,-4.0524412E-2,7.5959735E-2,5.1E1,1.8529207E-2,9.860537E-3,-4.4989277E-2,3.16E2,1E0,7.0288735E-3,-5.158337E-2,7.48994E-2,1.300854E-2,-3.844973E-2,1.1988366E-2],"split_indices":[3,2,3,2,2,2,0,0,0,0,2,1,0,1,0,0,0,0,0,0,0,2,9,0,0,0,0,0,0],"split_type":[0,0,0,0,0,0,0,0,0,0,0,0,0,0,0,0,0,0,0,0,0,0,0,0,0,0,0,0,0],"sum_hessian":[4.1977875E1,1.0210883E1,3.176699E1,3.8548386E0,6.3560443E0,1.52858095E1,1.6481182E1,1.0473119E0,2.8075266E0,1.6336077E0,4.7224364E0,1.3572885E1,1.712925E0,5.304269E0,1.1176913E1,2.612235E0,2.1102014E0,1.250167E1,1.0712144E0,1.2830937E0,4.021175E0,7.8500776E0,3.3268356E0,1.3206775E0,1.1180992E1,4.214644E0,3.6354334E0,2.0849183E0,1.2419176E0],"tree_param":{"num_deleted":"0","num_feature":"126","num_nodes":"29","size_leaf_vector":"1"}},{"base_weights":[-7.5203734E-3,-4.9461465E-2,6.159072E-2,2.3472441E-2,8.34964E-2,1.340465E-1,-3.2862067E-1,8.294362E-2,7.104197E-2,-5.4268222E-2,7.6134406E-2,2.4465553E-3,6.672648E-2],"categories":[],"categories_nodes":[],"categories_segments":[],"categories_sizes":[],"default_left":[0,0,0,0,0,0,0,0,0,0,0,0,0],"id":52,"left_children":[1,-1,3,5,-1,7,9,11,-1,-1,-1,-1,-1],"loss_changes":[1.9462922E0,0E0,1.475868E0,1.9663281E0,0E0,1.0687304E0,3.2339876E0,1.2240126E0,0E0,0E0,0E0,0E0,0E0],"parents":[2147483647,0,0,2,2,3,3,5,5,6,6,7,7],"right_children":[2,-1,4,6,-1,8,10,12,-1,-1,-1,-1,-1],"split_conditions":[1.6E0,-4.9461465E-2,1E0,3.87E2,8.34964E-2,1E0,1E0,3.64E2,7.104197E-2,-5.4268222E-2,7.6134406E-2,2.4465553E-3,6.672648E-2],"split_indices":[1,0,109,2,0,88,97,2,0,0,0,0,0],"split_type":[0,0,0,0,0,0,0,0,0,0,0,0,0],"sum_hessian":[5.5910946E1,6.182183E0,4.9728764E1,4.83748E1,1.3539625E0,3.7284863E1,1.1089941E1,3.5299053E1,1.9858081E0,9.689166E0,1.4007754E0,3.303484E1,2.2642114E0],"tree_param":{"num_deleted":"0","num_feature":"126","num_nodes":"13","size_leaf_vector":"1"}},{"base_weights":[-4.436204E-3,-6.1441537E-2,7.674387E-2,-1.05228536E-1,8.051618E-2,-1.4759736E-1,6.987993E-2,-5.0357144E-2,-7.552667E-2,2.3582052E-2,-2.1315053E-2],"categories":[],"categories_nodes":[],"categories_segments":[],"categories_sizes":[],"default_left":[0,0,0,0,0,0,0,0,0,0,0],"id":53,"left_children":[1,3,-1,5,-1,7,-1,-1,9,-1,-1],"loss_changes":[2.2297149E0,1.8726288E0,0E0,1.6611468E0,0E0,1.0977659E0,0E0,0E0,1.6782575E0,0E0,0E0],"parents":[2147483647,0,0,1,1,3,3,5,5,8,8],"right_children":[2,4,-1,6,-1,8,-1,-1,10,-1,-1],"split_conditions":[1E0,1E0,7.674387E-2,1E0,8.051618E-2,1.7E2,6.987993E-2,-5.0357144E-2,2.28E2,2.3582052E-2,-2.1315053E-2],"split_indices":[54,24,0,47,0,2,0,0,2,0,0],"split_type":[0,0,0,0,0,0,0,0,0,0,0],"sum_hessian":[4.860257E1,4.611708E1,2.4854884E0,4.4735306E1,1.3817737E0,4.327151E1,1.4637957E0,6.2776294E0,3.699388E1,1.1121083E1,2.5872799E1],"tree_param":{"num_deleted":"0","num_feature":"126","num_nodes":"11","size_leaf_vector":"1"}},{"base_weights":[-2.304155E-3,-4.0141526E-1,8.0973804E-2,2.2058463E-2,-5.3844687E-2,7.156271E-2,4.4117052E-2,3.5332404E-3,6.3204534E-2,-1.2753253E-1,2.6589698E-1,7.506876E-3,-4.5305498E-2,8.236265E-2,-5.5655413E-3],"categories":[],"categories_nodes":[],"categories_segments":[],"categories_sizes":[],"default_left":[0,0,0,0,0,0,0,0,0,0,0,0,0,0,0],"id":54,"left_children":[1,3,5,-1,-1,-1,7,9,-1,11,13,-1,-1,-1,-1],"loss_changes":[2.2335663E0,1.1075135E0,1.2695107E0,0E0,0E0,0E0,1.2775263E0,1.7937526E0,0E0,2.329402E0,3.1615567E0,0E0,0E0,0E0,0E0],"parents":[2147483647,0,0,1,1,2,2,6,6,7,7,9,9,10,10],"right_children":[2,4,6,-1,-1,-1,8,10,-1,12,14,-1,-1,-1,-1],"split_conditions":[1.7E0,1.4E0,1.01E2,2.2058463E-2,-5.3844687E-2,7.156271E-2,1E0,3.97E2,6.3204534E-2,3.8E0,4.23E2,7.506876E-3,-4.5305498E-2,8.236265E-2,-5.5655413E-3],"split_indices":[3,1,2,0,0,0,124,2,0,1,2,0,0,0,0],"split_type":[0,0,0,0,0,0,0,0,0,0,0,0,0,0,0],"sum_hessian":[6.522294E1,1.0600356E1,5.462258E1,1.8036544E0,8.796701E0,1.9872234E0,5.263536E1,5.017768E1,2.4576807E0,3.3804367E1,1.6373314E1,2.131041E1,1.2493956E1,5.4166975E0,1.0956616E1],"tree_param":{"num_deleted":"0","num_feature":"126","num_nodes":"15","size_leaf_vector":"1"}},{"base_weights":[9.420975E-3,-2.4872437E-1,1.1463814E-1,2.8636837E-2,-3.7288213E-1,-6.8964794E-2,3.2195768E-1,-3.9304737E-2,3.5253757E-1,-5.0829124E-2,1.0933009E-2,5.9836566E-2,-2.0147881E-1,9.7484386E-1,8.947887E-2,6.5605946E-2,-6.613901E-4,2.4060914E-2,-2.992408E-2,-3.4339142E-1,1.1286759E-1,9.465261E-3,1.2291934E-1,-4.5055535E-2,2.9366407E-1,-5.291895E-2,2.7304557E-3,5.7612747E-2,-4.307986E-2,3.6058703E-3,7.2152786E-2],"categories":[],"categories_nodes":[],"categories_segments":[],"categories_sizes":[],"default_left":[0,0,0,0,0,0,0,0,0,0,0,0,0,0,0,0,0,0,0,0,0,0,0,0,0,0,0,0,0,0,0],"id":55,"left_children":[1,3,5,7,9,11,13,-1,15,-1,17,-1,19,21,23,-1,-1,-1,-1,25,27,-1,-1,-1,29,-1,-1,-1,-1,-1,-1],"loss_changes":[1.4190124E0,5.3203094E-1,1.4326661E0,9.048161E-1,5.527916E-1,1.9311649E0,2.581054E0,0E0,4.076895E-1,0E0,3.373614E-1,0E0,8.341855E-1,8.9445543E-1,1.6831815E0,0E0,0E0,0E0,0E0,8.775977E-1,1.8345611E0,0E0,0E0,0E0,1.1656015E0,0E0,0E0,0E0,0E0,0E0,0E0],"parents":[2147483647,0,0,1,1,2,2,3,3,4,4,5,5,6,6,8,8,10,10,12,12,13,13,14,14,19,19,20,20,24,24],"right_children":[2,4,6,8,10,12,14,-1,16,-1,18,-1,20,22,24,-1,-1,-1,-1,26,28,-1,-1,-1,30,-1,-1,-1,-1,-1,-1],"split_conditions":[6.7E1,2.6E0,3.5E0,1.4E0,3.33E2,1.4E0,3.7E0,-3.9304737E-2,1.77E2,-5.0829124E-2,3.9E0,5.9836566E-2,1E0,2.8E0,4.1E0,6.5605946E-2,-6.613901E-4,2.4060914E-2,-2.992408E-2,3.43E2,3.44E2,9.465261E-3,1.2291934E-1,-4.5055535E-2,4.3E0,-5.291895E-2,2.7304557E-3,5.7612747E-2,-4.307986E-2,3.6058703E-3,7.2152786E-2],"split_indices":[0,3,3,3,2,1,3,0,2,0,1,0,7,1,3,0,0,0,0,2,2,0,0,0,1,0,0,0,0,0,0],"split_type":[0,0,0,0,0,0,0,0,0,0,0,0,0,0,0,0,0,0,0,0,0,0,0,0,0,0,0,0,0,0,0],"sum_hessian":[5.019408E1,1.4139521E1,3.605456E1,4.6101236E0,9.529397E0,1.9474882E1,1.6579678E1,1.9100115E0,2.700112E0,6.8044796E0,2.724918E0,2.6440682E0,1.6830814E1,3.5150006E0,1.3064677E1,1.0153439E0,1.6847682E0,1.6944761E0,1.0304416E0,1.1532179E1,5.298635E0,1.0956335E0,2.419367E0,3.2534E0,9.811277E0,7.3970942E0,4.135085E0,2.828636E0,2.469999E0,6.8009076E0,3.0103693E0],"tree_param":{"num_deleted":"0","num_feature":"126","num_nodes":"31","size_leaf_vector":"1"}},{"base_weights":[7.083286E-3,3.0500302E-1,-9.69216E-2,-5.727384E-2,4.9863008E-1,-2.571511E-1,1.2342441E-1,6.0355246E-2,-4.118977E-2,1.0349982E-1,1.5050259E-1,1.0679527E-1,-4.5958564E-1,-4.388054E-2,3.2061702E-1,-3.9899986E-2,7.1196035E-2,-2.8723952E-1,7.176098E-1,-5.1693637E-2,-1.8027301E-1,4.1779652E-1,-2.9524142E-2,-4.4214018E-2,1.8559193E-2,9.18903E-2,1.45125305E-2,1.6757969E-2,-3.9093986E-2,8.3087735E-2,2.5400335E-2],"categories":[],"categories_nodes":[],"categories_segments":[],"categories_sizes":[],"default_left":[0,0,0,0,0,0,0,0,0,0,0,0,0,0,0,0,0,0,0,0,0,0,0,0,0,0,0,0,0,0,0],"id":56,"left_children":[1,3,5,7,9,11,13,-1,-1,-1,15,17,19,-1,21,-1,-1,23,25,-1,27,29,-1,-1,-1,-1,-1,-1,-1,-1,-1],"loss_changes":[1.3480376E0,8.1786084E-1,1.172111E0,1.3772588E0,1.2327058E0,1.4507732E0,1.7232667E0,0E0,0E0,0E0,2.0362964E0,2.038055E0,1.0566497E-1,0E0,7.904122E-1,0E0,0E0,4.7323284E-1,2.435317E-1,0E0,3.3300203E-1,4.6831214E-1,0E0,0E0,0E0,0E0,0E0,0E0,0E0,0E0,0E0],"parents":[2147483647,0,0,1,1,2,2,3,3,4,4,5,5,6,6,10,10,11,11,12,12,14,14,17,17,18,18,20,20,21,21],"right_children":[2,4,6,8,10,12,14,-1,-1,-1,16,18,20,-1,22,-1,-1,24,26,-1,28,30,-1,-1,-1,-1,-1,-1,-1,-1,-1],"split_conditions":[2.1E0,2.86E2,1E0,1.77E2,3.17E2,2.01E2,1.78E2,6.0355246E-2,-4.118977E-2,1.0349982E-1,4.08E2,4.4E0,4.6E0,-4.388054E-2,4.3E0,-3.9899986E-2,7.1196035E-2,1.83E2,1E0,-5.1693637E-2,4.1E0,1.5E0,-2.9524142E-2,-4.4214018E-2,1.8559193E-2,9.18903E-2,1.45125305E-2,1.6757969E-2,-3.9093986E-2,8.3087735E-2,2.5400335E-2],"split_indices":[3,2,9,2,2,2,2,0,0,0,2,1,3,0,1,0,0,2,8,0,1,1,0,0,0,0,0,0,0,0,0],"split_type":[0,0,0,0,0,0,0,0,0,0,0,0,0,0,0,0,0,0,0,0,0,0,0,0,0,0,0,0,0,0,0],"sum_hessian":[4.155193E1,1.0252185E1,3.1299744E1,3.8162234E0,6.4359617E0,1.8025251E1,1.3274493E1,1.0875916E0,2.7286315E0,1.7565544E0,4.679407E0,6.611404E0,1.1413847E1,3.1287186E0,1.0145774E1,2.5111136E0,2.1682937E0,4.3408666E0,2.2705376E0,8.763675E0,2.6501725E0,9.040785E0,1.1049893E0,3.3185964E0,1.02227E0,1.2321744E0,1.0383631E0,1.0767585E0,1.5734138E0,1.4105933E0,7.630192E0],"tree_param":{"num_deleted":"0","num_feature":"126","num_nodes":"31","size_leaf_vector":"1"}},{"base_weights":[-7.222176E-3,-4.8809975E-2,5.8737002E-2,2.1886583E-2,7.8912936E-2,1.2517789E-1,-3.1921026E-1,7.6141566E-2,6.800326E-2,-5.3576764E-2,7.3070645E-2,2.0334495E-3,6.2808394E-2],"categories":[],"categories_nodes":[],"categories_segments":[],"categories_sizes":[],"default_left":[0,0,0,0,0,0,0,0,0,0,0,0,0],"id":57,"left_children":[1,-1,3,5,-1,7,9,11,-1,-1,-1,-1,-1],"loss_changes":[1.8174925E0,0E0,1.3416047E0,1.769543E0,0E0,9.929753E-1,3.049891E0,1.1086414E0,0E0,0E0,0E0,0E0,0E0],"parents":[2147483647,0,0,2,2,3,3,5,5,6,6,7,7],"right_children":[2,-1,4,6,-1,8,10,12,-1,-1,-1,-1,-1],"split_conditions":[1.6E0,-4.8809975E-2,1E0,3.87E2,7.8912936E-2,1E0,1E0,3.64E2,6.800326E-2,-5.3576764E-2,7.3070645E-2,2.0334495E-3,6.2808394E-2],"split_indices":[1,0,109,2,0,88,97,2,0,0,0,0,0],"split_type":[0,0,0,0,0,0,0,0,0,0,0,0,0],"sum_hessian":[5.539721E1,5.9100156E0,4.948719E1,4.8090836E1,1.3963572E0,3.7398727E1,1.0692109E1,3.540681E1,1.9919158E0,9.26981E0,1.4222999E0,3.3097183E1,2.3096251E0],"tree_param":{"num_deleted":"0","num_feature":"126","num_nodes":"13","size_leaf_vector":"1"}},{"base_weights":[-3.9642155E-3,-5.8737468E-2,7.281724E-2,-1.0134909E-1,7.627365E-2,2.1798362E-1,-2.0560811E-1,3.503232E-1,-3.614829E-2,3.1253082E-1,-2.6121613E-1,-1.6987419E-2,5.6107458E-2,5.2761734E-2,2.6775873E-4,-1.0054451E-2,-4.1726544E-2],"categories":[],"categories_nodes":[],"categories_segments":[],"categories_sizes":[],"default_left":[0,0,0,0,0,0,0,0,0,0,0,0,0,0,0,0,0],"id":58,"left_children":[1,3,-1,5,-1,7,9,11,-1,13,15,-1,-1,-1,-1,-1,-1],"loss_changes":[2.0141542E0,1.7107241E0,0E0,1.5511733E0,0E0,1.0178517E0,1.0792301E0,1.1882055E0,0E0,2.5257275E-1,7.556679E-1,0E0,0E0,0E0,0E0,0E0,0E0],"parents":[2147483647,0,0,1,1,3,3,5,5,6,6,7,7,9,9,10,10],"right_children":[2,4,-1,6,-1,8,10,12,-1,14,16,-1,-1,-1,-1,-1,-1],"split_conditions":[1E0,1E0,7.281724E-2,1.5E0,7.627365E-2,3.97E2,5.1E1,1.3E0,-3.614829E-2,1E0,3.3E0,-1.6987419E-2,5.6107458E-2,5.2761734E-2,2.6775873E-4,-1.0054451E-2,-4.1726544E-2],"split_indices":[54,24,0,3,0,2,0,3,0,6,1,0,0,0,0,0,0],"split_type":[0,0,0,0,0,0,0,0,0,0,0,0,0,0,0,0,0],"sum_hessian":[4.8159832E1,4.5663395E1,2.4964375E0,4.4244938E1,1.4184551E0,1.062157E1,3.3623367E1,8.968717E0,1.6528528E0,2.811006E0,3.0812363E1,2.6418357E0,6.326881E0,1.2444001E0,1.5666059E0,1.5991499E1,1.4820865E1],"tree_param":{"num_deleted":"0","num_feature":"126","num_nodes":"17","size_leaf_vector":"1"}},{"base_weights":[-2.7719156E-3,-3.9215973E-1,7.664372E-2,2.1381704E-2,-5.3115737E-2,6.8054065E-2,4.121419E-2,2.0015803E-3,6.098634E-2,-1.2335057E-1,2.521755E-1,-4.4472482E-2,7.783664E-3,7.838617E-2,-5.360188E-3],"categories":[],"categories_nodes":[],"categories_segments":[],"categories_sizes":[],"default_left":[0,0,0,0,0,0,0,0,0,0,0,0,0,0,0],"id":59,"left_children":[1,3,5,-1,-1,-1,7,9,-1,11,13,-1,-1,-1,-1],"loss_changes":[2.0550494E0,1.0616996E0,1.153587E0,0E0,0E0,0E0,1.1857446E0,1.6242101E0,0E0,2.2662177E0,2.8523297E0,0E0,0E0,0E0,0E0],"parents":[2147483647,0,0,1,1,2,2,6,6,7,7,9,9,10,10],"right_children":[2,4,6,-1,-1,-1,8,10,-1,12,14,-1,-1,-1,-1],"split_conditions":[1.7E0,1.4E0,1.01E2,2.1381704E-2,-5.3115737E-2,6.8054065E-2,1E0,3.97E2,6.098634E-2,3.5E0,4.23E2,-4.4472482E-2,7.783664E-3,7.838617E-2,-5.360188E-3],"split_indices":[3,1,2,0,0,0,124,2,0,3,2,0,0,0,0],"split_type":[0,0,0,0,0,0,0,0,0,0,0,0,0,0,0],"sum_hessian":[6.4483986E1,1.0256521E1,5.4227463E1,1.8132339E0,8.443288E0,1.9960734E0,5.2231388E1,4.9800774E1,2.4306152E0,3.3514793E1,1.628598E1,1.2437217E1,2.1077576E1,5.375518E0,1.0910463E1],"tree_param":{"num_deleted":"0","num_feature":"126","num_nodes":"15","size_leaf_vector":"1"}},{"base_weights":[9.547788E-3,7.450433E-2,-3.7901646E-1,1.2709032E-2,5.8344215E-1,8.629703E-3,-4.876281E-2,1.1701641E-1,-3.317767E-1,7.479507E-2,7.849498E-3,-3.770398E-2,6.747051E-1,-5.0042998E-2,-4.6394486E-3,2.5886519E-2,-2.4288103E-2,8.624527E-2,-2.8419555E-3,6.458063E-2,-4.0972557E-2],"categories":[],"categories_nodes":[],"categories_segments":[],"categories_sizes":[],"default_left":[0,0,0,0,0,0,0,0,0,0,0,0,0,0,0,0,0,0,0,0,0],"id":60,"left_children":[1,3,5,7,9,-1,-1,11,13,-1,-1,15,17,-1,19,-1,-1,-1,-1,-1,-1],"loss_changes":[1.3111445E0,1.3884721E0,4.18306E-1,1.4977146E0,3.386364E-1,0E0,0E0,2.778291E0,5.3269506E-1,0E0,0E0,1.6402117E0,9.4617534E-1,0E0,1.3997111E0,0E0,0E0,0E0,0E0,0E0,0E0],"parents":[2147483647,0,0,1,1,2,2,3,3,4,4,7,7,8,8,11,11,12,12,14,14],"right_children":[2,4,6,8,10,-1,-1,12,14,-1,-1,16,18,-1,20,-1,-1,-1,-1,-1,-1],"split_conditions":[1E0,4.66E2,1.5E0,3.97E2,2.8E0,8.629703E-3,-4.876281E-2,3.35E2,4.37E2,7.479507E-2,7.849498E-3,1.78E2,9E1,-5.0042998E-2,4.5E2,2.5886519E-2,-2.4288103E-2,8.624527E-2,-2.8419555E-3,6.458063E-2,-4.0972557E-2],"split_indices":[6,2,3,2,1,0,0,2,2,0,0,2,0,0,2,0,0,0,0,0,0],"split_type":[0,0,0,0,0,0,0,0,0,0,0,0,0,0,0,0,0,0,0,0,0],"sum_hessian":[4.9828712E1,4.3384377E1,6.4443374E0,3.960099E1,3.783386E0,1.2584295E0,5.185908E0,3.0903873E1,8.697117E0,2.4906898E0,1.2926961E0,2.4922094E1,5.9817805E0,5.389087E0,3.3080297E0,1.0084289E1,1.4837806E1,4.5423E0,1.4394801E0,1.0414815E0,2.2665482E0],"tree_param":{"num_deleted":"0","num_feature":"126","num_nodes":"21","size_leaf_vector":"1"}},{"base_weights":[7.9464745E-3,2.3452501E-1,-1.2216719E-1,6.1682064E-2,7.976861E-2,-4.316196E-1,8.052629E-2,2.1104375E-1,-4.004818E-2,4.8545017E-3,-5.070597E-2,-3.164714E-1,2.7293825E-1,-8.82798E-2,6.5420556E-1,8.656632E-3,-4.4343524E-2,4.6531233E-1,-2.029346E-1,3.9950866E-2,-4.4072345E-2,9.592845E-2,4.6079378E-3,6.7600995E-2,1.2231286E-2,-3.771506E-2,1.1912534E-2],"categories":[],"categories_nodes":[],"categories_segments":[],"categories_sizes":[],"default_left":[0,0,0,0,0,0,0,0,0,0,0,0,0,0,0,0,0,0,0,0,0,0,0,0,0,0,0],"id":61,"left_children":[1,3,5,7,-1,9,11,13,-1,-1,-1,15,17,19,21,-1,-1,23,25,-1,-1,-1,-1,-1,-1,-1,-1],"loss_changes":[1.271272E0,1.4807516E0,1.7554038E0,9.895322E-1,0E0,4.235859E-1,1.4168837E0,1.4589533E0,0E0,0E0,0E0,3.5304523E-1,1.217584E0,1.4114584E0,7.679076E-1,0E0,0E0,5.706692E-1,2.8216672E-1,0E0,0E0,0E0,0E0,0E0,0E0,0E0,0E0],"parents":[2147483647,0,0,1,1,2,2,3,3,5,5,6,6,7,7,11,11,12,12,13,13,14,14,17,17,18,18],"right_children":[2,4,6,8,-1,10,12,14,-1,-1,-1,16,18,20,22,-1,-1,24,26,-1,-1,-1,-1,-1,-1,-1,-1],"split_conditions":[2.9E0,4.09E2,3.8E0,3.74E2,7.976861E-2,1.4E0,7.2E1,2.86E2,-4.004818E-2,4.8545017E-3,-5.070597E-2,1.4E0,8.8E1,1.92E2,3.17E2,8.656632E-3,-4.4343524E-2,3.16E2,3.6E0,3.9950866E-2,-4.4072345E-2,9.592845E-2,4.6079378E-3,6.7600995E-2,1.2231286E-2,-3.771506E-2,1.1912534E-2],"split_indices":[3,2,3,2,0,1,0,2,0,0,0,1,0,2,2,0,0,2,1,0,0,0,0,0,0,0,0],"split_type":[0,0,0,0,0,0,0,0,0,0,0,0,0,0,0,0,0,0,0,0,0,0,0,0,0,0,0],"sum_hessian":[4.114993E1,1.4717891E1,2.643204E1,1.2110514E1,2.6073778E0,1.00140915E1,1.6417948E1,9.563233E0,2.5472796E0,1.4081211E0,8.60597E0,5.149135E0,1.1268813E1,6.1859026E0,3.377331E0,1.3097157E0,3.8394194E0,8.040565E0,3.2282484E0,2.5387237E0,3.647179E0,1.8645154E0,1.5128156E0,4.3794684E0,3.661096E0,1.9839746E0,1.2442739E0],"tree_param":{"num_deleted":"0","num_feature":"126","num_nodes":"27","size_leaf_vector":"1"}},{"base_weights":[-7.1801837E-3,-4.818077E-2,5.587394E-2,2.6065668E-1,-5.9989136E-2,-3.955608E-2,5.6037605E-1,9.185338E-2,-2.5029987E-1,1.3904026E-1,-4.346524E-2,8.5570924E-2,7.708542E-2,-7.751281E-2,5.313879E-1,-4.803146E-2,-1.4031394E-1,-1.1917465E-2,4.0091988E-2,-3.8663637E-2,5.151209E-2,-2.9666308E-2,3.279907E-2,-8.706107E-3,9.049404E-2,3.7164644E-3,-4.5645166E-2],"categories":[],"categories_nodes":[],"categories_segments":[],"categories_sizes":[],"default_left":[0,0,0,0,0,0,0,0,0,0,0,0,0,0,0,0,0,0,0,0,0,0,0,0,0,0,0],"id":62,"left_children":[1,-1,3,5,7,9,11,13,15,17,-1,-1,19,21,23,-1,25,-1,-1,-1,-1,-1,-1,-1,-1,-1,-1],"loss_changes":[1.6982857E0,0E0,1.2065887E0,1.6709973E0,9.72843E-1,7.723264E-1,1.2522674E0,1.456658E0,3.084293E-1,5.6884694E-1,0E0,0E0,1.1339781E0,1.3945862E0,1.3300395E0,0E0,6.601108E-1,0E0,0E0,0E0,0E0,0E0,0E0,0E0,0E0,0E0,0E0],"parents":[2147483647,0,0,2,2,3,3,4,4,5,5,6,6,7,7,8,8,9,9,12,12,13,13,14,14,16,16],"right_children":[2,-1,4,6,8,10,12,14,16,18,-1,-1,20,22,24,-1,26,-1,-1,-1,-1,-1,-1,-1,-1,-1,-1],"split_conditions":[1.6E0,-4.818077E-2,6.8E1,3.8E0,3.3E0,5.8E1,1E0,1E0,3.8E0,2.9E0,-4.346524E-2,8.5570924E-2,4.1E0,2.8E0,8.7E1,-4.803146E-2,4.3E0,-1.1917465E-2,4.0091988E-2,-3.8663637E-2,5.151209E-2,-2.9666308E-2,3.279907E-2,-8.706107E-3,9.049404E-2,3.7164644E-3,-4.5645166E-2],"split_indices":[1,0,0,1,3,0,8,5,3,3,0,0,1,3,0,0,1,0,0,0,0,0,0,0,0,0,0],"split_type":[0,0,0,0,0,0,0,0,0,0,0,0,0,0,0,0,0,0,0,0,0,0,0,0,0,0,0],"sum_hessian":[5.4847664E1,5.6531925E0,4.919447E1,1.7324501E1,3.1869968E1,9.08878E0,8.23572E0,1.801431E1,1.3855659E1,6.705681E0,2.3830998E0,4.633596E0,3.6021242E0,1.3598166E1,4.416144E0,3.3929317E0,1.0462727E1,3.6508482E0,3.0548327E0,1.806758E0,1.795366E0,9.001698E0,4.596469E0,1.9517643E0,2.4643798E0,7.26604E0,3.196687E0],"tree_param":{"num_deleted":"0","num_feature":"126","num_nodes":"27","size_leaf_vector":"1"}},{"base_weights":[-3.9505744E-3,-4.9492043E-2,7.568251E-2,2.727155E-1,-1.09538905E-1,5.141462E-1,-3.5746485E-1,-2.0082925E-1,7.307465E-2,-3.3956345E-2,6.1059594E-1,-4.842856E-2,5.7086977E-3,-3.3032525E-1,2.3680033E-1,2.2352045E-2,8.339314E-2,8.192585E-4,-5.257194E-2,7.8247264E-2,-1.8049294E-2],"categories":[],"categories_nodes":[],"categories_segments":[],"categories_sizes":[],"default_left":[0,0,0,0,0,0,0,0,0,0,0,0,0,0,0,0,0,0,0,0,0],"id":63,"left_children":[1,-1,3,5,7,9,11,13,-1,-1,15,-1,-1,17,19,-1,-1,-1,-1,-1,-1],"loss_changes":[1.9390101E0,0E0,1.5887809E0,3.376487E0,1.8904784E0,1.4903674E0,3.642487E-1,1.2846519E0,0E0,0E0,1.0547948E0,0E0,0E0,1.1185008E0,1.3807114E0,0E0,0E0,0E0,0E0,0E0,0E0],"parents":[2147483647,0,0,2,2,3,3,4,4,5,5,6,6,7,7,10,10,13,13,14,14],"right_children":[2,-1,4,6,8,10,12,14,-1,-1,16,-1,-1,18,20,-1,-1,-1,-1,-1,-1],"split_conditions":[1.7E2,-4.9492043E-2,2.86E2,3.7E0,1E0,1.3E0,1E0,1E0,7.307465E-2,-3.3956345E-2,2.19E2,-4.842856E-2,5.7086977E-3,3.64E2,2.5E0,2.2352045E-2,8.339314E-2,8.192585E-4,-5.257194E-2,7.8247264E-2,-1.8049294E-2],"split_indices":[2,0,2,3,24,3,7,4,0,0,2,0,0,2,1,0,0,0,0,0,0],"split_type":[0,0,0,0,0,0,0,0,0,0,0,0,0,0,0,0,0,0,0,0,0],"sum_hessian":[4.7636257E1,5.9202905E0,4.171597E1,1.9984587E1,2.1731382E1,1.4582109E1,5.4024773E0,2.0288225E1,1.4431565E0,1.2243484E0,1.3357761E1,4.0080957E0,1.3943813E0,1.5844872E1,4.443353E0,5.6193576E0,7.7384033E0,6.149323E0,9.69555E0,1.5462672E0,2.897086E0],"tree_param":{"num_deleted":"0","num_feature":"126","num_nodes":"21","size_leaf_vector":"1"}},{"base_weights":[-3.510202E-3,-3.8173974E-1,7.169297E-2,2.1040197E-2,-5.235662E-2,6.5118715E-2,3.745989E-2,-1.5424665E-4,5.8564235E-2,-1.2009235E-1,2.3920685E-1,7.30069E-3,-4.4042826E-2,7.4670754E-2,-5.097835E-3],"categories":[],"categories_nodes":[],"categories_segments":[],"categories_sizes":[],"default_left":[0,0,0,0,0,0,0,0,0,0,0,0,0,0,0],"id":64,"left_children":[1,3,5,-1,-1,-1,7,9,-1,11,13,-1,-1,-1,-1],"loss_changes":[1.867678E0,1.0246056E0,1.062932E0,0E0,0E0,0E0,1.089091E0,1.4762924E0,0E0,2.1511707E0,2.566083E0,0E0,0E0,0E0,0E0],"parents":[2147483647,0,0,1,1,2,2,6,6,7,7,9,9,10,10],"right_children":[2,4,6,-1,-1,-1,8,10,-1,12,14,-1,-1,-1,-1],"split_conditions":[1.7E0,1.4E0,1.01E2,2.1040197E-2,-5.235662E-2,6.5118715E-2,1E0,3.97E2,5.8564235E-2,3.8E0,4.23E2,7.30069E-3,-4.4042826E-2,7.4670754E-2,-5.097835E-3],"split_indices":[3,1,2,0,0,0,124,2,0,1,2,0,0,0,0],"split_type":[0,0,0,0,0,0,0,0,0,0,0,0,0,0,0],"sum_hessian":[6.3699265E1,9.8886795E0,5.3810585E1,1.8173828E0,8.071297E0,1.9962423E0,5.1814346E1,4.942286E1,2.391485E0,3.3256905E1,1.6165956E1,2.1230938E1,1.2025967E1,5.3086042E0,1.0857351E1],"tree_param":{"num_deleted":"0","num_feature":"126","num_nodes":"15","size_leaf_vector":"1"}},{"base_weights":[9.822133E-3,-2.3756248E-1,1.0772743E-1,3.9930142E-2,-3.656413E-1,1.6600157E-1,-4.3361455E-2,3.547937E-1,-3.8355157E-2,-5.0019782E-2,7.3599746E-3,-9.483892E-3,3.4631854E-1,6.516912E-2,-6.545387E-4,-5.7463413E-3,8.90331E-3,5.4963267E-1,-1.4386632E-1,8.7514734E-1,1.2855352E-1,6.7608595E-2,1.0881052E-2,